#############################################################################
## Copyright (c) 1996, Carnegie Mellon University, Cambridge University,
## Ronald Rosenfeld and Philip Clarkson
#############################################################################
=============================================================================
===============  This file was produced by the CMU-Cambridge  ===============
===============     Statistical Language Modeling Toolkit     ===============
=============================================================================
This is a 3-gram language model, based on a vocabulary of 1198 words,
  which begins "(", "((England)", "(=haven’t)"...
This is an OPEN-vocabulary model (type 1)
  (OOVs were mapped to UNK, which is treated as any other vocabulary word)
Good-Turing discounting was applied.
1-gram frequency of frequency : 44 
2-gram frequency of frequency : 70 5 1 0 0 0 0 
3-gram frequency of frequency : 79 2 0 0 0 0 0 
1-gram discounting ratios : 0.04 
2-gram discounting ratios : 0.10 0.27 
3-gram discounting ratios : 0.00 
This file is in the ARPA-standard format introduced by Doug Paul.

p(wd3|wd1,wd2)= if(trigram exists)           p_3(wd1,wd2,wd3)
                else if(bigram w1,w2 exists) bo_wt_2(w1,w2)*p(wd3|wd2)
                else                         p(wd3|w2)

p(wd2|wd1)= if(bigram exists) p_2(wd1,wd2)
            else              bo_wt_1(wd1)*p_1(wd2)

All probs and back-off weights (bo_wt) are given in log10 form.

Data formats:

Beginning of data mark: \data\
ngram 1=nr            # number of 1-grams
ngram 2=nr            # number of 2-grams
ngram 3=nr            # number of 3-grams

\1-grams:
p_1     wd_1 bo_wt_1
\2-grams:
p_2     wd_1 wd_2 bo_wt_2
\3-grams:
p_3     wd_1 wd_2 wd_3 

end of data mark: \end\

\data\
ngram 1=1199
ngram 2=76
ngram 3=81

\1-grams:
-3.3497 <UNK>	0.0000
-1.4420 (	-0.5806
-1.3170 ((England)	-0.0367
-3.3497 (=haven’t)	-0.0209
-3.3497 (=won’t)	-0.0373
-3.3497 (Go	-0.0319
-1.2201 (He	-0.0698
-3.3497 (I	-0.0477
-3.3497 (I’m	-0.0373
-3.3497 (See	-0.0319
-3.3497 (What	-0.0477
-1.6180 (car)!	-0.0371
-3.3497 (have	-0.0209
-3.3497 (hear,	-0.0209
-1.6180 (near	-0.0207
-3.3497 (noon,	-0.0477
-1.6180 (off)	-0.0475
-3.3497 (on)	-0.0477
-3.3497 (pardon?)	-0.0209
-3.3497 (past)	-0.0373
-3.3497 (present)	-0.0477
-3.3497 (stomach-	-0.0265
-3.3497 ,	-0.0477
-3.3497 ...	-0.0477
-1.2201 /	-0.0698
-3.3497 1	-0.0477
-3.3497 1.	0.0000
-1.6180 10	-0.0207
-3.3497 10.	-0.0373
-3.3497 100	-0.0477
-3.3497 101	-0.0373
-3.3497 102	-0.0477
-3.3497 103	-0.0319
-3.3497 104	-0.0477
-3.3497 105	-0.0319
-3.3497 106	-0.0477
-1.4420 107	-0.6283
-3.3497 108	-0.0477
-3.3497 109	-0.0319
-3.3497 11	-0.0209
-3.3497 11.	-0.0477
-3.3497 110	-0.0209
-3.3497 111	-0.0477
-1.3170 112	-0.4185
-3.3497 113	-0.0477
-3.3497 114	-0.0477
-3.3497 115	-0.0373
-3.3497 116	-0.0319
-3.3497 117	-0.0477
-3.3497 118	-0.0477
-1.6180 119	-0.0475
-3.3497 12	-0.0477
-3.3497 12.	-0.0265
-3.3497 120	-0.0319
-3.3497 121	-0.0477
-1.6180 122	-0.1199
-3.3497 123	-0.0477
-3.3497 124	-0.0477
-1.4420 125	-0.0473
-3.3497 126	0.0000
-3.3497 127	0.0000
-3.3497 128	0.0000
-3.3497 129	0.0000
-3.3497 13	0.0000
-3.3497 13.	0.0000
-3.3497 130	0.0000
-3.3497 131	0.0000
-3.3497 132	0.0000
-3.3497 133	0.0000
-3.3497 134	0.0000
-3.3497 135	0.0000
-3.3497 136	0.0000
-3.3497 137	0.0000
-3.3497 138	0.0000
-3.3497 139	0.0000
-3.3497 14	0.0000
-3.3497 140	0.0000
-3.3497 141	0.0000
-3.3497 142	0.0000
-3.3497 143	0.0000
-3.3497 144	0.0000
-3.3497 145	0.0000
-3.3497 146	0.0000
-3.3497 147	0.0000
-3.3497 148	0.0000
-3.3497 149	0.0000
-3.3497 15	0.0000
-3.3497 150	0.0000
-3.3497 151	0.0000
-3.3497 152	0.0000
-3.3497 153	0.0000
-3.3497 154	0.0000
-3.3497 155	0.0000
-3.3497 156	0.0000
-3.3497 157	0.0000
-3.3497 158	0.0000
-3.3497 159	0.0000
-3.3497 16	0.0000
-3.3497 160	0.0000
-3.3497 161	0.0000
-3.3497 162	0.0000
-3.3497 163	0.0000
-3.3497 164	0.0000
-3.3497 165	0.0000
-3.3497 166	0.0000
-3.3497 167	0.0000
-3.3497 168	0.0000
-3.3497 169	0.0000
-3.3497 17	0.0000
-3.3497 170	0.0000
-3.3497 171	0.0000
-3.3497 172	0.0000
-3.3497 173	0.0000
-3.3497 174	0.0000
-3.3497 175	0.0000
-3.3497 176	0.0000
-3.3497 177	0.0000
-3.3497 178	0.0000
-3.3497 179	0.0000
-3.3497 18	0.0000
-3.3497 180	0.0000
-3.3497 181	0.0000
-3.3497 182	0.0000
-3.3497 183	0.0000
-3.3497 184	0.0000
-3.3497 185	0.0000
-3.3497 186	0.0000
-3.3497 187	0.0000
-3.3497 188	0.0000
-3.3497 189	0.0000
-3.3497 19	0.0000
-3.3497 190	0.0000
-3.3497 191	0.0000
-3.3497 192	0.0000
-3.3497 193	0.0000
-3.3497 194	0.0000
-3.3497 195	0.0000
-3.3497 196	0.0000
-3.3497 197	0.0000
-3.3497 198	0.0000
-3.3497 199	0.0000
-3.3497 2	0.0000
-3.3497 2.	0.0000
-3.3497 20	0.0000
-3.3497 200	0.0000
-3.3497 2002	0.0000
-3.3497 201	0.0000
-3.3497 202	0.0000
-3.3497 203	0.0000
-3.3497 204	0.0000
-3.3497 205	0.0000
-3.3497 206	0.0000
-3.3497 207	0.0000
-3.3497 208	0.0000
-3.3497 209	0.0000
-3.3497 21	0.0000
-3.3497 210	0.0000
-3.3497 211	0.0000
-3.3497 212	0.0000
-3.3497 213	0.0000
-3.3497 214	0.0000
-3.3497 215	0.0000
-3.3497 216	0.0000
-3.3497 217	0.0000
-3.3497 218	0.0000
-3.3497 219	0.0000
-3.3497 22	0.0000
-3.3497 220	0.0000
-3.3497 221	0.0000
-3.3497 222	0.0000
-3.3497 223	0.0000
-3.3497 224	0.0000
-3.3497 225	0.0000
-3.3497 226	0.0000
-3.3497 227	0.0000
-3.3497 228	0.0000
-3.3497 229	0.0000
-3.3497 23	0.0000
-3.3497 230	0.0000
-3.3497 231	0.0000
-3.3497 232	0.0000
-3.3497 233	0.0000
-3.3497 234	0.0000
-3.3497 235	0.0000
-3.3497 236	0.0000
-3.3497 237	0.0000
-3.3497 238	0.0000
-3.3497 239	0.0000
-3.3497 24	0.0000
-3.3497 240	0.0000
-3.3497 241	0.0000
-3.3497 242	0.0000
-3.3497 243	0.0000
-3.3497 244	0.0000
-3.3497 245	0.0000
-3.3497 246	0.0000
-3.3497 247	0.0000
-3.3497 248	0.0000
-3.3497 249	0.0000
-3.3497 25	0.0000
-3.3497 250	0.0000
-3.3497 251	0.0000
-3.3497 252	0.0000
-3.3497 253	0.0000
-3.3497 254	0.0000
-3.3497 255	0.0000
-3.3497 256	0.0000
-3.3497 257	0.0000
-3.3497 258	0.0000
-3.3497 259	0.0000
-3.3497 26	0.0000
-3.3497 260	0.0000
-3.3497 261	0.0000
-3.3497 262	0.0000
-3.3497 263	0.0000
-3.3497 264	0.0000
-3.3497 265	0.0000
-3.3497 266	0.0000
-3.3497 267	0.0000
-3.3497 268	0.0000
-3.3497 269	0.0000
-3.3497 27	0.0000
-3.3497 270	0.0000
-3.3497 271	0.0000
-3.3497 272	0.0000
-3.3497 273	0.0000
-3.3497 274	0.0000
-3.3497 275	0.0000
-3.3497 276	0.0000
-3.3497 277	0.0000
-3.3497 278	0.0000
-3.3497 279	0.0000
-3.3497 28	0.0000
-3.3497 280	0.0000
-3.3497 281	0.0000
-3.3497 282	0.0000
-3.3497 283	0.0000
-3.3497 284	0.0000
-3.3497 285	0.0000
-3.3497 286	0.0000
-3.3497 287	0.0000
-3.3497 288	0.0000
-3.3497 289	0.0000
-3.3497 29	0.0000
-3.3497 290	0.0000
-3.3497 291	0.0000
-3.3497 292	0.0000
-3.3497 293	0.0000
-3.3497 294	0.0000
-3.3497 295	0.0000
-3.3497 296	0.0000
-3.3497 297	0.0000
-3.3497 298	0.0000
-3.3497 299	0.0000
-3.3497 3	0.0000
-3.3497 3.	0.0000
-3.3497 30	0.0000
-3.3497 300	0.0000
-3.3497 301	0.0000
-3.3497 302	0.0000
-3.3497 31	0.0000
-3.3497 32	0.0000
-3.3497 33	0.0000
-3.3497 34	0.0000
-3.3497 35	0.0000
-3.3497 36	0.0000
-3.3497 37	0.0000
-3.3497 38	0.0000
-3.3497 39	0.0000
-3.3497 4	0.0000
-3.3497 4.	0.0000
-3.3497 40	0.0000
-3.3497 41	0.0000
-3.3497 42	0.0000
-3.3497 43	0.0000
-3.3497 44	0.0000
-3.3497 45	0.0000
-3.3497 46	0.0000
-3.3497 47	0.0000
-3.3497 48	0.0000
-3.3497 49	0.0000
-3.3497 5	0.0000
-3.3497 5.	0.0000
-3.3497 50	0.0000
-3.3497 51	0.0000
-3.3497 52	0.0000
-3.3497 53	0.0000
-3.3497 54	0.0000
-3.3497 55	0.0000
-3.3497 56	0.0000
-3.3497 57	0.0000
-3.3497 58	0.0000
-3.3497 59	0.0000
-3.3497 6	0.0000
-3.3497 6.	0.0000
-3.3497 60	0.0000
-3.3497 61	0.0000
-3.3497 62	0.0000
-3.3497 63	0.0000
-3.3497 64	0.0000
-3.3497 65	0.0000
-3.3497 66	0.0000
-3.3497 67	0.0000
-3.3497 68	0.0000
-3.3497 69	0.0000
-3.3497 6:30.	0.0000
-3.3497 7	0.0000
-3.3497 7.	0.0000
-3.3497 70	0.0000
-3.3497 71	0.0000
-3.3497 72	0.0000
-3.3497 73	0.0000
-3.3497 74	0.0000
-3.3497 75	0.0000
-3.3497 76	0.0000
-3.3497 77	0.0000
-3.3497 78	0.0000
-3.3497 79	0.0000
-3.3497 8	0.0000
-3.3497 8.	0.0000
-3.3497 80	0.0000
-3.3497 81	0.0000
-3.3497 82	0.0000
-3.3497 83	0.0000
-3.3497 84	0.0000
-3.3497 85	0.0000
-3.3497 86	0.0000
-3.3497 87	0.0000
-3.3497 88	0.0000
-3.3497 89	0.0000
-3.3497 9	0.0000
-3.3497 9.	0.0000
-3.3497 90	0.0000
-3.3497 91	0.0000
-3.3497 92	0.0000
-3.3497 93	0.0000
-3.3497 94	0.0000
-3.3497 95	0.0000
-3.3497 96	0.0000
-3.3497 97	0.0000
-3.3497 98	0.0000
-3.3497 99	0.0000
-3.3497 </s>	0.0000
-3.3497 <s>	0.0000
-3.3497 After	0.0000
-3.3497 All	0.0000
-3.3497 American	0.0000
-3.3497 Are	0.0000
-3.3497 As	0.0000
-3.3497 Basic	0.0000
-3.3497 Bob	0.0000
-3.3497 Can	0.0000
-3.3497 Can’t	0.0000
-3.3497 Close	0.0000
-3.3497 Command	0.0000
-3.3497 Comparing	0.0000
-3.3497 Could	0.0000
-3.3497 Damn	0.0000
-3.3497 Did	0.0000
-3.3497 Disgraceful!	0.0000
-3.3497 Do	0.0000
-3.3497 Does	0.0000
-3.3497 Don’t	0.0000
-3.3497 End	0.0000
-3.3497 English	0.0000
-3.3497 English?	0.0000
-3.3497 Excuse	0.0000
-3.3497 Feb.	0.0000
-3.3497 Five	0.0000
-3.3497 Get	0.0000
-3.3497 Give	0.0000
-3.3497 Go	0.0000
-3.3497 Good	0.0000
-3.3497 Hand	0.0000
-3.3497 Has	0.0000
-3.3497 Have	0.0000
-3.3497 He	0.0000
-3.3497 Help	0.0000
-3.3497 Here	0.0000
-3.3497 Hold	0.0000
-3.3497 How	0.0000
-3.3497 Hurry	0.0000
-3.3497 I	0.0000
-3.3497 I.	0.0000
-3.3497 If	0.0000
-3.3497 Iowa	0.0000
-3.3497 Is	0.0000
-3.3497 Island”?	0.0000
-3.3497 It	0.0000
-3.3497 It’s	0.0000
-3.3497 I’d	0.0000
-3.3497 I’ll	0.0000
-3.3497 I’m	0.0000
-3.3497 I’ve	0.0000
-3.3497 Just	0.0000
-3.3497 Keeping	0.0000
-3.3497 Lee	0.0000
-3.3497 Lesson	0.0000
-3.3497 Let	0.0000
-3.3497 Let’s	0.0000
-3.3497 Listen	0.0000
-3.3497 Look	0.0000
-3.3497 Looking	0.0000
-3.3497 May	0.0000
-3.3497 Milk	0.0000
-3.3497 Mind	0.0000
-3.3497 Miss	0.0000
-3.3497 Most	0.0000
-3.3497 My	0.0000
-3.3497 Neither	0.0000
-3.3497 Never	0.0000
-3.3497 Nice	0.0000
-3.3497 Not	0.0000
-3.3497 OK	0.0000
-3.3497 ONE	0.0000
-3.3497 One	0.0000
-3.3497 Open	0.0000
-3.3497 Paris?	0.0000
-3.3497 Perhaps	0.0000
-3.3497 Pleased	0.0000
-3.3497 Read	0.0000
-3.3497 Ridiculous!	0.0000
-3.3497 Same	0.0000
-3.3497 See	0.0000
-3.3497 Sentences	0.0000
-3.3497 Shanghai	0.0000
-3.3497 She	0.0000
-3.3497 Short	0.0000
-3.3497 Shut	0.0000
-3.3497 Sit	0.0000
-3.3497 So	0.0000
-3.3497 Stand	0.0000
-3.3497 TV	0.0000
-3.3497 TV.	0.0000
-3.3497 Tell	0.0000
-3.3497 Thank	0.0000
-3.3497 That	0.0000
-3.3497 That’s	0.0000
-3.3497 The	0.0000
-3.3497 There	0.0000
-3.3497 There’s	0.0000
-3.3497 These	0.0000
-3.3497 They	0.0000
-3.3497 This	0.0000
-3.3497 Those	0.0000
-3.3497 To	0.0000
-3.3497 To,	0.0000
-3.3497 Today	0.0000
-3.3497 Turn	0.0000
-3.3497 Verb	0.0000
-3.3497 Verb:	0.0000
-3.3497 Very	0.0000
-3.3497 Wait	0.0000
-3.3497 We	0.0000
-3.3497 What	0.0000
-3.3497 What’s	0.0000
-3.3497 When	0.0000
-3.3497 Where	0.0000
-3.3497 Which	0.0000
-3.3497 Who	0.0000
-3.3497 Who’s	0.0000
-3.3497 Why	0.0000
-3.3497 Will	0.0000
-3.3497 Would	0.0000
-3.3497 Yes	0.0000
-3.3497 You	0.0000
-3.3497 Your	0.0000
-3.3497 You‘d	0.0000
-3.3497 You’ll	0.0000
-3.3497 You’re	0.0000
-3.3497 [i]	0.0000
-3.3497 a	0.0000
-3.3497 able	0.0000
-3.3497 about	0.0000
-3.3497 about?	0.0000
-3.3497 ache/a	0.0000
-3.3497 add	0.0000
-3.3497 address?	0.0000
-3.3497 afraid	0.0000
-3.3497 afraid.	0.0000
-3.3497 again)	0.0000
-3.3497 again.	0.0000
-3.3497 agree	0.0000
-3.3497 all	0.0000
-3.3497 all.	0.0000
-3.3497 alphabet.	0.0000
-3.3497 always	0.0000
-3.3497 am	0.0000
-3.3497 am,	0.0000
-3.3497 an	0.0000
-3.3497 and	0.0000
-3.3497 another	0.0000
-3.3497 any	0.0000
-3.3497 anything	0.0000
-3.3497 appearing	0.0000
-3.3497 are	0.0000
-3.3497 are,	0.0000
-3.3497 are;	0.0000
-3.3497 arrived	0.0000
-3.3497 arrived.	0.0000
-3.3497 arrives,	0.0000
-3.3497 art.	0.0000
-3.3497 as	0.0000
-3.3497 ask	0.0000
-3.3497 asking	0.0000
-3.3497 assured	0.0000
-3.3497 at	0.0000
-3.3497 aunt	0.0000
-3.3497 back	0.0000
-3.3497 back.	0.0000
-3.3497 bad!	0.0000
-3.3497 bag	0.0000
-3.3497 bank.	0.0000
-3.3497 bathroom.	0.0000
-3.3497 be	0.0000
-3.3497 be),	0.0000
-3.3497 be,	0.0000
-3.3497 be.	0.0000
-3.3497 be;	0.0000
-3.3497 beautiful	0.0000
-3.3497 bed	0.0000
-3.3497 bedroom.	0.0000
-3.3497 been	0.0000
-3.3497 beg	0.0000
-3.3497 begin	0.0000
-3.3497 believe	0.0000
-3.3497 beside	0.0000
-3.3497 better	0.0000
-3.3497 better.	0.0000
-3.3497 big	0.0000
-3.3497 bird.	0.0000
-3.3497 birthday	0.0000
-3.3497 blackboard!	0.0000
-3.3497 body	0.0000
-3.3497 book	0.0000
-3.3497 book.	0.0000
-3.3497 book?	0.0000
-3.3497 books	0.0000
-3.3497 books.	0.0000
-3.3497 books?	0.0000
-3.3497 born?	0.0000
-3.3497 bought	0.0000
-3.3497 bowl	0.0000
-3.3497 box	0.0000
-3.3497 box.	0.0000
-3.3497 box?	0.0000
-3.3497 bread/a	0.0000
-3.3497 break!	0.0000
-3.3497 breakfast.	0.0000
-3.3497 bridge	0.0000
-3.3497 bring	0.0000
-3.3497 brother	0.0000
-3.3497 brothers	0.0000
-3.3497 brush	0.0000
-3.3497 bus!	0.0000
-3.3497 bus.	0.0000
-3.3497 bus?	0.0000
-3.3497 business!	0.0000
-3.3497 busy	0.0000
-3.3497 by	0.0000
-3.3497 call	0.0000
-3.3497 called	0.0000
-3.3497 can	0.0000
-3.3497 can,	0.0000
-3.3497 can.	0.0000
-3.3497 can’t	0.0000
-3.3497 car	0.0000
-3.3497 car.	0.0000
-3.3497 carried	0.0000
-3.3497 carry	0.0000
-3.3497 cash.	0.0000
-3.3497 chair?	0.0000
-3.3497 chalk/a	0.0000
-3.3497 chance	0.0000
-3.3497 change	0.0000
-3.3497 checked.	0.0000
-3.3497 children.	0.0000
-3.3497 cigarette,	0.0000
-3.3497 cleaning	0.0000
-3.3497 close	0.0000
-3.3497 coffee?	0.0000
-3.3497 cold.	0.0000
-3.3497 cold/a	0.0000
-3.3497 color	0.0000
-3.3497 comb	0.0000
-3.3497 come	0.0000
-3.3497 come?	0.0000
-3.3497 comes,	0.0000
-3.3497 conditional	0.0000
-3.3497 continued	0.0000
-3.3497 cough/a	0.0000
-3.3497 could	0.0000
-3.3497 cup	0.0000
-3.3497 cup.	0.0000
-3.3497 dancing?	0.0000
-3.3497 dark.	0.0000
-3.3497 day	0.0000
-3.3497 day)	0.0000
-3.3497 day?	0.0000
-3.3497 days	0.0000
-3.3497 deaf	0.0000
-3.3497 deal	0.0000
-3.3497 deeper	0.0000
-3.3497 desk	0.0000
-3.3497 devote	0.0000
-3.3497 did	0.0000
-3.3497 didn’t	0.0000
-3.3497 difference.	0.0000
-3.3497 different	0.0000
-3.3497 difficult	0.0000
-3.3497 difficult.	0.0000
-3.3497 dinner.	0.0000
-3.3497 dinner?	0.0000
-3.3497 divided	0.0000
-3.3497 do	0.0000
-3.3497 do.	0.0000
-3.3497 do?	0.0000
-3.3497 does	0.0000
-3.3497 doesn’t	0.0000
-3.3497 doing?	0.0000
-3.3497 don’t	0.0000
-3.3497 door	0.0000
-3.3497 door!	0.0000
-3.3497 door)	0.0000
-3.3497 door,	0.0000
-3.3497 door.	0.0000
-3.3497 door.)	0.0000
-3.3497 door...	0.0000
-3.3497 door?	0.0000
-3.3497 down,	0.0000
-3.3497 down?	0.0000
-3.3497 downstairs!	0.0000
-3.3497 dress.	0.0000
-3.3497 drink	0.0000
-3.3497 drinks	0.0000
-3.3497 due	0.0000
-3.3497 each	0.0000
-3.3497 eat)?	0.0000
-3.3497 eat.	0.0000
-3.3497 eat?	0.0000
-3.3497 eight.	0.0000
-3.3497 embarrassment,	0.0000
-3.3497 enough	0.0000
-3.3497 entitled	0.0000
-3.3497 enumerate	0.0000
-3.3497 evening,	0.0000
-3.3497 ever	0.0000
-3.3497 every	0.0000
-3.3497 exactly	0.0000
-3.3497 example	0.0000
-3.3497 excited!	0.0000
-3.3497 exciting	0.0000
-3.3497 explain	0.0000
-3.3497 expressing	0.0000
-3.3497 eyes.	0.0000
-3.3497 famous	0.0000
-3.3497 fast	0.0000
-3.3497 faster	0.0000
-3.3497 fat.	0.0000
-3.3497 father	0.0000
-3.3497 father?	0.0000
-3.3497 fever/a	0.0000
-3.3497 few	0.0000
-3.3497 fewer	0.0000
-3.3497 find	0.0000
-3.3497 finished	0.0000
-3.3497 five.	0.0000
-3.3497 flowers	0.0000
-3.3497 fond	0.0000
-3.3497 for	0.0000
-3.3497 for?	0.0000
-3.3497 forget	0.0000
-3.3497 form	0.0000
-3.3497 found	0.0000
-3.3497 friend	0.0000
-3.3497 friend.	0.0000
-3.3497 from	0.0000
-3.3497 from?	0.0000
-3.3497 front	0.0000
-3.3497 full	0.0000
-3.3497 game.	0.0000
-3.3497 gave	0.0000
-3.3497 get	0.0000
-3.3497 get:	0.0000
-3.3497 getting	0.0000
-3.3497 get’.	0.0000
-3.3497 girl	0.0000
-3.3497 girl.	0.0000
-3.3497 girl?	0.0000
-3.3497 give	0.0000
-3.3497 glad	0.0000
-3.3497 glass.	0.0000
-3.3497 glasses?	0.0000
-3.3497 go	0.0000
-3.3497 go!	0.0000
-3.3497 going	0.0000
-3.3497 gone	0.0000
-3.3497 good	0.0000
-3.3497 good!	0.0000
-3.3497 got	0.0000
-3.3497 gracious!	0.0000
-3.3497 great	0.0000
-3.3497 groups.	0.0000
-3.3497 gun.	0.0000
-3.3497 had	0.0000
-3.3497 had,	0.0000
-3.3497 hair.	0.0000
-3.3497 half	0.0000
-3.3497 hall?	0.0000
-3.3497 hammer.	0.0000
-3.3497 handy	0.0000
-3.3497 happy.	0.0000
-3.3497 has	0.0000
-3.3497 has,	0.0000
-3.3497 hat	0.0000
-3.3497 have	0.0000
-3.3497 have,	0.0000
-3.3497 have?	0.0000
-3.3497 haven’t	0.0000
-3.3497 have’.	0.0000
-3.3497 he	0.0000
-3.3497 he/she/it	0.0000
-3.3497 headache)	0.0000
-3.3497 hear	0.0000
-3.3497 heard	0.0000
-3.3497 heavens!	0.0000
-3.3497 help	0.0000
-3.3497 helping	0.0000
-3.3497 her	0.0000
-3.3497 here	0.0000
-3.3497 here?	0.0000
-3.3497 him	0.0000
-3.3497 him.	0.0000
-3.3497 him?	0.0000
-3.3497 his	0.0000
-3.3497 home/on	0.0000
-3.3497 home?	0.0000
-3.3497 hope	0.0000
-3.3497 hopes	0.0000
-3.3497 hotel.	0.0000
-3.3497 house	0.0000
-3.3497 idea.	0.0000
-3.3497 if	0.0000
-3.3497 if...	0.0000
-3.3497 imitate	0.0000
-3.3497 impossible	0.0000
-3.3497 in	0.0000
-3.3497 in!	0.0000
-3.3497 in?	0.0000
-3.3497 ing	0.0000
-3.3497 interested	0.0000
-3.3497 interrupt	0.0000
-3.3497 into	0.0000
-3.3497 irregular	0.0000
-3.3497 is	0.0000
-3.3497 is!	0.0000
-3.3497 is,	0.0000
-3.3497 is.	0.0000
-3.3497 is?	0.0000
-3.3497 it	0.0000
-3.3497 it!	0.0000
-3.3497 it.	0.0000
-3.3497 it?	0.0000
-3.3497 jacket.	0.0000
-3.3497 job.	0.0000
-3.3497 just	0.0000
-3.3497 keep	0.0000
-3.3497 kind	0.0000
-3.3497 know	0.0000
-3.3497 lady	0.0000
-3.3497 lake	0.0000
-3.3497 last	0.0000
-3.3497 layer	0.0000
-3.3497 learn	0.0000
-3.3497 learn.	0.0000
-3.3497 leave	0.0000
-3.3497 left	0.0000
-3.3497 less	0.0000
-3.3497 lesson	0.0000
-3.3497 lessons	0.0000
-3.3497 lessons,	0.0000
-3.3497 letter	0.0000
-3.3497 letters	0.0000
-3.3497 letters.	0.0000
-3.3497 lift	0.0000
-3.3497 light	0.0000
-3.3497 light.	0.0000
-3.3497 like	0.0000
-3.3497 likely	0.0000
-3.3497 lire	0.0000
-3.3497 listen	0.0000
-3.3497 listening	0.0000
-3.3497 lived	0.0000
-3.3497 long	0.0000
-3.3497 look	0.0000
-3.3497 looking	0.0000
-3.3497 looks	0.0000
-3.3497 lot	0.0000
-3.3497 mad	0.0000
-3.3497 made	0.0000
-3.3497 make	0.0000
-3.3497 makes	0.0000
-3.3497 man	0.0000
-3.3497 manage	0.0000
-3.3497 many	0.0000
-3.3497 match	0.0000
-3.3497 match?	0.0000
-3.3497 matches/a	0.0000
-3.3497 may	0.0000
-3.3497 may,	0.0000
-3.3497 me	0.0000
-3.3497 me!	0.0000
-3.3497 me.	0.0000
-3.3497 me?	0.0000
-3.3497 means	0.0000
-3.3497 meet	0.0000
-3.3497 met	0.0000
-3.3497 methods	0.0000
-3.3497 mind	0.0000
-3.3497 mind.	0.0000
-3.3497 mine.	0.0000
-3.3497 minute.	0.0000
-3.3497 minutes	0.0000
-3.3497 month.	0.0000
-3.3497 more	0.0000
-3.3497 morning!	0.0000
-3.3497 most	0.0000
-3.3497 much	0.0000
-3.3497 much.	0.0000
-3.3497 must	0.0000
-3.3497 my	0.0000
-3.3497 myself	0.0000
-3.3497 name?	0.0000
-3.3497 near	0.0000
-3.3497 necessary	0.0000
-3.3497 need	0.0000
-3.3497 nervous!	0.0000
-3.3497 new	0.0000
-3.3497 news.)	0.0000
-3.3497 nice	0.0000
-3.3497 nice.	0.0000
-3.3497 night)	0.0000
-3.3497 no	0.0000
-3.3497 no?	0.0000
-3.3497 noon	0.0000
-3.3497 not	0.0000
-3.3497 not?	0.0000
-3.3497 now	0.0000
-3.3497 now.	0.0000
-3.3497 object	0.0000
-3.3497 obvious	0.0000
-3.3497 ocean?	0.0000
-3.3497 of	0.0000
-3.3497 of?	0.0000
-3.3497 off	0.0000
-3.3497 offer	0.0000
-3.3497 office.	0.0000
-3.3497 old	0.0000
-3.3497 on	0.0000
-3.3497 on!	0.0000
-3.3497 once.	0.0000
-3.3497 one	0.0000
-3.3497 one’s	0.0000
-3.3497 only	0.0000
-3.3497 open	0.0000
-3.3497 open),	0.0000
-3.3497 open,	0.0000
-3.3497 open?	0.0000
-3.3497 open?)	0.0000
-3.3497 opened	0.0000
-3.3497 opened,	0.0000
-3.3497 opened.	0.0000
-3.3497 opened?	0.0000
-3.3497 opening	0.0000
-3.3497 opening,	0.0000
-3.3497 opening.	0.0000
-3.3497 opening?	0.0000
-3.3497 opens	0.0000
-3.3497 opinions.	0.0000
-3.3497 or	0.0000
-3.3497 other	0.0000
-3.3497 ought	0.0000
-3.3497 our	0.0000
-3.3497 ourselves.	0.0000
-3.3497 out	0.0000
-3.3497 out.	0.0000
-3.3497 outside.	0.0000
-3.3497 over	0.0000
-3.3497 over.	0.0000
-3.3497 own	0.0000
-3.3497 o’clock.	0.0000
-3.3497 packets	0.0000
-3.3497 pair	0.0000
-3.3497 pardon.	0.0000
-3.3497 party	0.0000
-3.3497 party.	0.0000
-3.3497 past	0.0000
-3.3497 pencil	0.0000
-3.3497 pencil.	0.0000
-3.3497 pencil?	0.0000
-3.3497 pencils	0.0000
-3.3497 pencils.	0.0000
-3.3497 pencils?	0.0000
-3.3497 pencils?)	0.0000
-3.3497 people	0.0000
-3.3497 perfect	0.0000
-3.3497 phase	0.0000
-3.3497 phone	0.0000
-3.3497 pick	0.0000
-3.3497 picture?	0.0000
-3.3497 piece	0.0000
-3.3497 place	0.0000
-3.3497 please	0.0000
-3.3497 please!	0.0000
-3.3497 please.	0.0000
-3.3497 please?	0.0000
-3.3497 possibly	0.0000
-3.3497 pounds	0.0000
-3.3497 prefer	0.0000
-3.3497 present	0.0000
-3.3497 problems.	0.0000
-3.3497 promise	0.0000
-3.3497 promise.	0.0000
-3.3497 promised	0.0000
-3.3497 pronunciation.	0.0000
-3.3497 proud	0.0000
-3.3497 put	0.0000
-3.3497 quarter	0.0000
-3.3497 question.	0.0000
-3.3497 question?	0.0000
-3.3497 quite	0.0000
-3.3497 rain.	0.0000
-3.3497 rather	0.0000
-3.3497 ready	0.0000
-3.3497 reason	0.0000
-3.3497 recording.	0.0000
-3.3497 red	0.0000
-3.3497 remember	0.0000
-3.3497 remember.	0.0000
-3.3497 remind	0.0000
-3.3497 report.	0.0000
-3.3497 reserve	0.0000
-3.3497 resolve	0.0000
-3.3497 rice	0.0000
-3.3497 rice/a	0.0000
-3.3497 right!	0.0000
-3.3497 right/behind	0.0000
-3.3497 room	0.0000
-3.3497 room)	0.0000
-3.3497 rules	0.0000
-3.3497 said	0.0000
-3.3497 said.	0.0000
-3.3497 save	0.0000
-3.3497 say	0.0000
-3.3497 school.	0.0000
-3.3497 scientists	0.0000
-3.3497 scissors/a	0.0000
-3.3497 sea/on	0.0000
-3.3497 seconds	0.0000
-3.3497 see	0.0000
-3.3497 seen	0.0000
-3.3497 seen.	0.0000
-3.3497 sent	0.0000
-3.3497 sentence	0.0000
-3.3497 sentence:	0.0000
-3.3497 set	0.0000
-3.3497 seven	0.0000
-3.3497 seven.	0.0000
-3.3497 shall	0.0000
-3.3497 share	0.0000
-3.3497 sharp.	0.0000
-3.3497 she	0.0000
-3.3497 shill	0.0000
-3.3497 shirt	0.0000
-3.3497 shoe/a	0.0000
-3.3497 shoes.	0.0000
-3.3497 should	0.0000
-3.3497 silly!	0.0000
-3.3497 simple	0.0000
-3.3497 since	0.0000
-3.3497 sister	0.0000
-3.3497 sisters	0.0000
-3.3497 sit	0.0000
-3.3497 six,	0.0000
-3.3497 six.	0.0000
-3.3497 size	0.0000
-3.3497 sky.	0.0000
-3.3497 slice	0.0000
-3.3497 slippers	0.0000
-3.3497 slippers.	0.0000
-3.3497 slippers/a	0.0000
-3.3497 slower.	0.0000
-3.3497 slowly,	0.0000
-3.3497 small	0.0000
-3.3497 smell,	0.0000
-3.3497 smoke?	0.0000
-3.3497 so	0.0000
-3.3497 socks	0.0000
-3.3497 some	0.0000
-3.3497 somehow	0.0000
-3.3497 something	0.0000
-3.3497 something.	0.0000
-3.3497 soon	0.0000
-3.3497 sooner	0.0000
-3.3497 sore	0.0000
-3.3497 sorry	0.0000
-3.3497 sorry.	0.0000
-3.3497 sound	0.0000
-3.3497 soup.	0.0000
-3.3497 soup/a	0.0000
-3.3497 speaker’s	0.0000
-3.3497 spell	0.0000
-3.3497 spoken	0.0000
-3.3497 start	0.0000
-3.3497 starts	0.0000
-3.3497 station?	0.0000
-3.3497 stay	0.0000
-3.3497 stay.	0.0000
-3.3497 staying	0.0000
-3.3497 step.	0.0000
-3.3497 stress	0.0000
-3.3497 strong.	0.0000
-3.3497 students	0.0000
-3.3497 study	0.0000
-3.3497 sub-sentence	0.0000
-3.3497 such	0.0000
-3.3497 sugar/a	0.0000
-3.3497 suggest	0.0000
-3.3497 suggestion?	0.0000
-3.3497 sure.	0.0000
-3.3497 sure?	0.0000
-3.3497 table	0.0000
-3.3497 table.	0.0000
-3.3497 table?	0.0000
-3.3497 take	0.0000
-3.3497 take?	0.0000
-3.3497 taken	0.0000
-3.3497 takes	0.0000
-3.3497 talk	0.0000
-3.3497 talking	0.0000
-3.3497 talking.	0.0000
-3.3497 tall	0.0000
-3.3497 taxi	0.0000
-3.3497 tea/two	0.0000
-3.3497 teach	0.0000
-3.3497 teachers	0.0000
-3.3497 teaching	0.0000
-3.3497 teeth.	0.0000
-3.3497 telegram	0.0000
-3.3497 telephone	0.0000
-3.3497 tell	0.0000
-3.3497 ten	0.0000
-3.3497 tenants.	0.0000
-3.3497 tend	0.0000
-3.3497 tennis.	0.0000
-3.3497 tense	0.0000
-3.3497 than	0.0000
-3.3497 that	0.0000
-3.3497 that!	0.0000
-3.3497 that?	0.0000
-3.3497 the	0.0000
-3.3497 there	0.0000
-3.3497 there,	0.0000
-3.3497 there.	0.0000
-3.3497 there?	0.0000
-3.3497 these	0.0000
-3.3497 these?	0.0000
-3.3497 they	0.0000
-3.3497 they?	0.0000
-3.3497 thing	0.0000
-3.3497 things	0.0000
-3.3497 things.	0.0000
-3.3497 think	0.0000
-3.3497 thinking	0.0000
-3.3497 thirsty.	0.0000
-3.3497 this	0.0000
-3.3497 this.	0.0000
-3.3497 this?	0.0000
-3.3497 those	0.0000
-3.3497 those?	0.0000
-3.3497 three	0.0000
-3.3497 throat/heart	0.0000
-3.3497 tie	0.0000
-3.3497 tie.	0.0000
-3.3497 till	0.0000
-3.3497 time	0.0000
-3.3497 time.	0.0000
-3.3497 to	0.0000
-3.3497 to?	0.0000
-3.3497 today?	0.0000
-3.3497 today’s	0.0000
-3.3497 tomatoes.	0.0000
-3.3497 tomorrow.	0.0000
-3.3497 too	0.0000
-3.3497 too)	0.0000
-3.3497 too.	0.0000
-3.3497 toothache.	0.0000
-3.3497 train	0.0000
-3.3497 tree	0.0000
-3.3497 tree.	0.0000
-3.3497 trip,	0.0000
-3.3497 trouble/a	0.0000
-3.3497 trouble/liver	0.0000
-3.3497 trouser.	0.0000
-3.3497 trying	0.0000
-3.3497 turn	0.0000
-3.3497 two	0.0000
-3.3497 uncle	0.0000
-3.3497 under	0.0000
-3.3497 underclothes,	0.0000
-3.3497 understand	0.0000
-3.3497 understand?	0.0000
-3.3497 understood	0.0000
-3.3497 unless	0.0000
-3.3497 until	0.0000
-3.3497 up	0.0000
-3.3497 up!	0.0000
-3.3497 up.	0.0000
-3.3497 upstairs!)	0.0000
-3.3497 us.	0.0000
-3.3497 use	0.0000
-3.3497 useful	0.0000
-3.3497 vase	0.0000
-3.3497 verb	0.0000
-3.3497 verbs.	0.0000
-3.3497 very	0.0000
-3.3497 virtual	0.0000
-3.3497 visit	0.0000
-3.3497 voice,	0.0000
-3.3497 waiting	0.0000
-3.3497 want	0.0000
-3.3497 was	0.0000
-3.3497 was,	0.0000
-3.3497 watch	0.0000
-3.3497 water	0.0000
-3.3497 water)	0.0000
-3.3497 water?	0.0000
-3.3497 way	0.0000
-3.3497 we	0.0000
-3.3497 weak.	0.0000
-3.3497 wear	0.0000
-3.3497 weed	0.0000
-3.3497 week.	0.0000
-3.3497 weekend	0.0000
-3.3497 well	0.0000
-3.3497 went	0.0000
-3.3497 were	0.0000
-3.3497 were,	0.0000
-3.3497 were;	0.0000
-3.3497 we’ll	0.0000
-3.3497 we’ve	0.0000
-3.3497 what	0.0000
-3.3497 what,	0.0000
-3.3497 where,	0.0000
-3.3497 which	0.0000
-3.3497 which,	0.0000
-3.3497 who	0.0000
-3.3497 who,	0.0000
-3.3497 why,	0.0000
-3.3497 will	0.0000
-3.3497 win	0.0000
-3.3497 window,	0.0000
-3.3497 window.	0.0000
-3.3497 wish	0.0000
-3.3497 with	0.0000
-3.3497 wonderful.	0.0000
-3.3497 won’t	0.0000
-3.3497 wood?	0.0000
-3.3497 words	0.0000
-3.3497 words.	0.0000
-3.3497 work	0.0000
-3.3497 work.	0.0000
-3.3497 working	0.0000
-3.3497 working,	0.0000
-3.3497 working.	0.0000
-3.3497 worry	0.0000
-3.3497 would	0.0000
-3.3497 writing	0.0000
-3.3497 writing.	0.0000
-3.3497 wrote	0.0000
-3.3497 yard	0.0000
-3.3497 yesterday.	0.0000
-3.3497 you	0.0000
-3.3497 you)	0.0000
-3.3497 you.	0.0000
-3.3497 you?	0.0000
-3.3497 you?)	0.0000
-3.3497 young	0.0000
-3.3497 younger	0.0000
-3.3497 your	0.0000
-3.3497 yourself	0.0000
-3.3497 you’ve	0.0000
-3.3497 ‘to	0.0000
-3.3497 ‘undershirt’	0.0000
-3.3497 ‘vest’	0.0000
-3.3497 “How”	0.0000
-3.3497 “Treasure	0.0000
-3.3497 “w”:	0.0000
-3.3497 铅笔	0.0000

\2-grams:
-0.1249 ( ((England) 0.0354
-1.5830 ((England) (car)! 0.0233
-1.5830 ((England) (past) 0.0479
-1.5830 ((England) ... 0.0479
-1.5830 ((England) 114 0.0479
-0.9810 (=haven’t) / 0.0092
-0.9810 (=won’t) 10 0.0233
-0.9810 (Go 125 0.0154
-0.9687 (He (near 0.0479
-1.6799 (He , 0.0479
-1.6799 (He 101 0.0479
-1.6799 (He 11. 0.0479
-0.9810 (I 120 0.0479
-0.9810 (I’m 10 0.0233
-0.9810 (See ( 0.6021
-0.9810 (What (stomach- 0.0479
-1.2820 (car)! (have 0.0479
-1.2820 (car)! 122 0.1359
-0.9810 (have (He 0.0092
-0.9810 (hear, / 0.0494
-1.2820 (near / 0.0092
-1.2820 (near 110 0.0479
-0.9810 (noon, 1 0.0479
-1.2820 (off) (See 0.0479
-1.2820 (off) 115 0.0479
-0.9810 (on) 11 0.0479
-0.9810 (pardon?) / 0.0092
-0.9810 (past) (car)! 0.0233
-0.9810 (present) 117 0.0479
-0.9810 (stomach- 112 0.0092
-0.9810 , (I 0.0479
-0.9810 ... 118 0.0479
-1.6799 / (=won’t) 0.0479
-1.6799 / (on) 0.0479
-1.6799 / 104 0.0479
-0.9687 / 119 0.0479
-0.9810 1 (Go 0.0479
-1.2820 10 (He 0.0092
-1.2820 10 108 0.0479
-0.9810 10. (off) 0.0233
-0.9810 100 (hear, 0.0479
-0.9810 101 122 0.1359
-0.9810 102 10. 0.0479
-0.9810 103 ( 0.6021
-0.9810 104 111 0.0479
-0.9810 105 107 0.0115
-0.9810 106 121 0.0479
-0.1249 107 112 -0.0792
-1.5830 107 12. 0.0479
-0.9810 108 102 0.0479
-0.9810 109 107 0.6021
-0.9810 11 / 0.0494
-0.9810 11. (What 0.0479
-0.9810 110 (He 0.0092
-0.9810 111 105 0.0479
-0.2218 112 (He -0.4277
-1.6799 112 100 0.0479
-1.6799 112 124 0.0479
-0.9810 113 109 0.0479
-0.9810 114 (noon, 0.0479
-0.9810 115 (off) 0.0233
-0.9810 116 107 0.6021
-0.9810 117 (pardon?) 0.0479
-0.9810 118 106 0.0479
-1.2820 119 103 0.0479
-1.2820 119 123 0.0479
-0.9810 12 (=haven’t) 0.0479
-0.9810 12. 112 0.0092
-0.9810 120 ( 0.6021
-0.9810 121 12 0.0479
-0.5708 122 125 0.0314
-0.9810 123 1. 0.0160
-0.9810 124 (I’m 0.0479
-1.4581 125 (present) 0.0479
-1.4581 125 113 0.0479
-1.4581 125 116 0.0479

\3-grams:
-99.9990 ( ((England) (car)! 
-99.9990 ( ((England) ... 
-99.9990 ( ((England) 114 
-99.9990 ((England) (car)! (have 
-99.9990 ((England) (past) (car)! 
-99.9990 ((England) ... 118 
-99.9990 ((England) 114 (noon, 
-99.9990 (=haven’t) / (=won’t) 
-99.9990 (=won’t) 10 108 
-99.9990 (Go 125 (present) 
-99.9990 (He (near / 
-99.9990 (He (near 110 
-99.9990 (He , (I 
-99.9990 (He 101 122 
-99.9990 (He 11. (What 
-99.9990 (I 120 ( 
-99.9990 (I’m 10 (He 
-99.9990 (See ( ((England) 
-99.9990 (What (stomach- 112 
-99.9990 (car)! (have (He 
-99.9990 (car)! 122 125 
-99.9990 (have (He 101 
-99.9990 (hear, / 119 
-99.9990 (near / 104 
-99.9990 (near 110 (He 
-99.9990 (noon, 1 (Go 
-99.9990 (off) (See ( 
-99.9990 (off) 115 (off) 
-99.9990 (on) 11 / 
-99.9990 (pardon?) / (on) 
-99.9990 (past) (car)! 122 
-99.9990 (present) 117 (pardon?) 
-99.9990 (stomach- 112 100 
-99.9990 , (I 120 
-99.9990 ... 118 106 
-99.9990 / (=won’t) 10 
-99.9990 / (on) 11 
-99.9990 / 104 111 
-99.9990 / 119 103 
-99.9990 / 119 123 
-99.9990 1 (Go 125 
-99.9990 10 (He 11. 
-99.9990 10 108 102 
-99.9990 10. (off) 115 
-99.9990 100 (hear, / 
-99.9990 101 122 125 
-99.9990 102 10. (off) 
-99.9990 103 ( ((England) 
-99.9990 104 111 105 
-99.9990 105 107 12. 
-99.9990 106 121 12 
-0.1761 107 112 (He 
-99.9990 107 12. 112 
-99.9990 108 102 10. 
-99.9990 109 107 112 
-99.9990 11 / 119 
-99.9990 11. (What (stomach- 
-99.9990 110 (He , 
-99.9990 111 105 107 
-0.1761 112 (He (near 
-99.9990 112 100 (hear, 
-99.9990 112 124 (I’m 
-99.9990 113 109 107 
-99.9990 114 (noon, 1 
-99.9990 115 (off) (See 
-99.9990 116 107 112 
-99.9990 117 (pardon?) / 
-99.9990 118 106 121 
-99.9990 119 103 ( 
-99.9990 119 123 1. 
-99.9990 12 (=haven’t) / 
-99.9990 12. 112 124 
-99.9990 120 ( ((England) 
-99.9990 121 12 (=haven’t) 
-99.9990 122 125 113 
-99.9990 122 125 116 
-99.9990 123 1. ( 
-99.9990 124 (I’m 10 
-99.9990 125 (present) 117 
-99.9990 125 113 109 
-99.9990 125 116 107 

\end\
