#############################################################################
## Copyright (c) 1996, Carnegie Mellon University, Cambridge University,
## Ronald Rosenfeld and Philip Clarkson
#############################################################################
=============================================================================
===============  This file was produced by the CMU-Cambridge  ===============
===============     Statistical Language Modeling Toolkit     ===============
=============================================================================
This is a 3-gram language model, based on a vocabulary of 20000 words,
  which begins "'course", "'em", "'m"...
This is an OPEN-vocabulary model (type 1)
  (OOVs were mapped to UNK, which is treated as any other vocabulary word)
Good-Turing discounting was applied.
1-gram frequency of frequency : 19997 
2-gram frequency of frequency : 39995 0 0 0 0 0 0 
3-gram frequency of frequency : 59993 0 0 0 0 0 0 
1-gram discounting ratios : 1.00 
2-gram discounting ratios : 
3-gram discounting ratios : 
This file is in the ARPA-standard format introduced by Doug Paul.

p(wd3|wd1,wd2)= if(trigram exists)           p_3(wd1,wd2,wd3)
                else if(bigram w1,w2 exists) bo_wt_2(w1,w2)*p(wd3|wd2)
                else                         p(wd3|w2)

p(wd2|wd1)= if(bigram exists) p_2(wd1,wd2)
            else              bo_wt_1(wd1)*p_1(wd2)

All probs and back-off weights (bo_wt) are given in log10 form.

Data formats:

Beginning of data mark: \data\
ngram 1=nr            # number of 1-grams
ngram 2=nr            # number of 2-grams
ngram 3=nr            # number of 3-grams

\1-grams:
p_1     wd_1 bo_wt_1
\2-grams:
p_2     wd_1 wd_2 bo_wt_2
\3-grams:
p_3     wd_1 wd_2 wd_3 

end of data mark: \end\

\data\
ngram 1=20001
ngram 2=39998
ngram 3=59996

\1-grams:
-0.6362 <UNK>	-4.4791
-5.2914 'course	-0.3010
-5.2914 'em	-0.3010
-5.2914 'm	-0.3010
-5.2914 'n	-0.3010
-5.2914 's	-0.3010
-5.2914 'twas	-0.3010
-0.4771 </s>	-4.6382
-0.4771 <s>	-4.7544
-5.2914 a	-0.3010
-5.2914 a.	-0.3010
-5.2914 aaberg	-0.3010
-5.2914 aaker	-0.3010
-5.2914 aamodt	-0.3010
-5.2914 aancor	-0.3010
-5.2914 aardema	-0.3010
-5.2914 aardvark	-0.3010
-5.2914 aardvarks	-0.3010
-5.2914 aargh	-0.3010
-5.2914 aaron	-0.3010
-5.2914 aaron's	-0.3010
-5.2914 aaronson's(2)	-0.3010
-5.2914 aarti	-0.3010
-5.2914 aasen	-0.3010
-5.2914 ab	-0.3010
-5.2914 ab(2)	-0.3010
-5.2914 abandon	-0.3010
-5.2914 abandonment	-0.3010
-5.2914 abandons	-0.3010
-5.2914 abatements	-0.3010
-5.2914 abbatiello	-0.3010
-5.2914 abbenhaus	-0.3010
-5.2914 abbreviated	-0.3010
-5.2914 abbreviates	-0.3010
-5.2914 abbreviating	-0.3010
-5.2914 abbreviation	-0.3010
-5.2914 abbreviations	-0.3010
-5.2914 abcotek	-0.3010
-5.2914 abdalla	-0.3010
-5.2914 abdallah	-0.3010
-5.2914 abdella	-0.3010
-5.2914 abdicate	-0.3010
-5.2914 abdicating	-0.3010
-5.2914 abdication	-0.3010
-5.2914 abdollah	-0.3010
-5.2914 abducted(2)	-0.3010
-5.2914 abductees	-0.3010
-5.2914 abducting	-0.3010
-5.2914 abducting(2)	-0.3010
-5.2914 abduction	-0.3010
-5.2914 abercrombie	-0.3010
-5.2914 aberdeen	-0.3010
-5.2914 aberle(2)	-0.3010
-5.2914 abernethy	-0.3010
-5.2914 aberration	-0.3010
-5.2914 abetted	-0.3010
-5.2914 abhorrent	-0.3010
-5.2914 abiam's	-0.3010
-5.2914 abimael	-0.3010
-5.2914 abitibi	-0.3010
-5.2914 abject	-0.3010
-5.2914 abkhazia	-0.3010
-5.2914 abkhazia(2)	-0.3010
-5.2914 abkhazian(2)	-0.3010
-5.2914 abkhazian(3)	-0.3010
-5.2914 abkhazian(4)	-0.3010
-5.2914 abkhazians	-0.3010
-5.2914 ablation	-0.3010
-5.2914 abnegation	-0.3010
-5.2914 abnormal	-0.3010
-5.2914 abnormality	-0.3010
-5.2914 abohalima	-0.3010
-5.2914 abolished	-0.3010
-5.2914 abolishes	-0.3010
-5.2914 abolition	-0.3010
-5.2914 abolitionism	-0.3010
-5.2914 abolitionist	-0.3010
-5.2914 abomination	-0.3010
-5.2914 aborigine	-0.3010
-5.2914 aborted	-0.3010
-5.2914 abortifacients	-0.3010
-5.2914 abounds	-0.3010
-5.2914 about's	-0.3010
-5.2914 above's	-0.3010
-5.2914 aboveboard	-0.3010
-5.2914 abrade	-0.3010
-5.2914 abraded	-0.3010
-5.2914 abrades	-0.3010
-5.2914 abraham	-0.3010
-5.2914 abram's	-0.3010
-5.2914 abramo	-0.3010
-5.2914 abramovitz	-0.3010
-5.2914 abrams	-0.3010
-5.2914 abraxa	-0.3010
-5.2914 abraxas	-0.3010
-5.2914 abreast	-0.3010
-5.2914 abrego	-0.3010
-5.2914 abridge	-0.3010
-5.2914 abroad	-0.3010
-5.2914 abrogate	-0.3010
-5.2914 abrogating	-0.3010
-5.2914 abrogation	-0.3010
-5.2914 abrupt	-0.3010
-5.2914 abruptly	-0.3010
-5.2914 abs(2)	-0.3010
-5.2914 absconding	-0.3010
-5.2914 absentee	-0.3010
-5.2914 absentees	-0.3010
-5.2914 absentia	-0.3010
-5.2914 absinthe	-0.3010
-5.2914 absolut's	-0.3010
-5.2914 absolute	-0.3010
-5.2914 absolutes	-0.3010
-5.2914 absolved	-0.3010
-5.2914 absolves	-0.3010
-5.2914 absolves(2)	-0.3010
-5.2914 abstained	-0.3010
-5.2914 abstaining	-0.3010
-5.2914 abstractions	-0.3010
-5.2914 abstracts	-0.3010
-5.2914 absurdities	-0.3010
-5.2914 abts(2)	-0.3010
-5.2914 abts(3)	-0.3010
-5.2914 abundantly	-0.3010
-5.2914 aburto's	-0.3010
-5.2914 abusers	-0.3010
-5.2914 abusing	-0.3010
-5.2914 abusive	-0.3010
-5.2914 abysmal	-0.3010
-5.2914 abysmally	-0.3010
-5.2914 abyssinia	-0.3010
-5.2914 abyssinian	-0.3010
-5.2914 ac	-0.3010
-5.2914 academicians(2)	-0.3010
-5.2914 academy's	-0.3010
-5.2914 acantha	-0.3010
-5.2914 accardi	-0.3010
-5.2914 accardo	-0.3010
-5.2914 acceded	-0.3010
-5.2914 accedes	-0.3010
-5.2914 accelerants	-0.3010
-5.2914 accelerated	-0.3010
-5.2914 accelerates	-0.3010
-5.2914 accelerator	-0.3010
-5.2914 accelerometer	-0.3010
-5.2914 accenting	-0.3010
-5.2914 accents	-0.3010
-5.2914 accentuate	-0.3010
-5.2914 accentuated	-0.3010
-5.2914 accentuates	-0.3010
-5.2914 accenture	-0.3010
-5.2914 acceptably(2)	-0.3010
-5.2914 accepts	-0.3010
-5.2914 accessible	-0.3010
-5.2914 accessorized	-0.3010
-5.2914 accetta	-0.3010
-5.2914 accidentally	-0.3010
-5.2914 accidentally(2)	-0.3010
-5.2914 acclaim	-0.3010
-5.2914 acclaim's	-0.3010
-5.2914 acclaimed	-0.3010
-5.2914 acclimation	-0.3010
-5.2914 accommodating	-0.3010
-5.2914 accommodation	-0.3010
-5.2914 accommodative	-0.3010
-5.2914 accompaniment	-0.3010
-5.2914 accompaniment(2)	-0.3010
-5.2914 accompaniments	-0.3010
-5.2914 accomplices	-0.3010
-5.2914 accord's	-0.3010
-5.2914 accordance	-0.3010
-5.2914 accorded	-0.3010
-5.2914 accountability	-0.3010
-5.2914 accountability(2)	-0.3010
-5.2914 accountant	-0.3010
-5.2914 accounted(2)	-0.3010
-5.2914 accountemp	-0.3010
-5.2914 accounting	-0.3010
-5.2914 accounts	-0.3010
-5.2914 accredit	-0.3010
-5.2914 accreditations	-0.3010
-5.2914 accreted	-0.3010
-5.2914 accrue	-0.3010
-5.2914 accuhealth	-0.3010
-5.2914 accumulate	-0.3010
-5.2914 accuracies	-0.3010
-5.2914 accuray's	-0.3010
-5.2914 accusation	-0.3010
-5.2914 accusations(2)	-0.3010
-5.2914 accusative	-0.3010
-5.2914 accusatory	-0.3010
-5.2914 accuse	-0.3010
-5.2914 accusers	-0.3010
-5.2914 accusing	-0.3010
-5.2914 accustom	-0.3010
-5.2914 acecomm	-0.3010
-5.2914 acerbic	-0.3010
-5.2914 acetaminophen	-0.3010
-5.2914 acetic(2)	-0.3010
-5.2914 acetochlor	-0.3010
-5.2914 acetylcholine(2)	-0.3010
-5.2914 acetylene	-0.3010
-5.2914 acevedo	-0.3010
-5.2914 achaean	-0.3010
-5.2914 achatz	-0.3010
-5.2914 achebe	-0.3010
-5.2914 achene	-0.3010
-5.2914 achenes	-0.3010
-5.2914 acheson	-0.3010
-5.2914 acheson's	-0.3010
-5.2914 achieva	-0.3010
-5.2914 achieve	-0.3010
-5.2914 achille	-0.3010
-5.2914 aching	-0.3010
-5.2914 achingly	-0.3010
-5.2914 achmed	-0.3010
-5.2914 ackert	-0.3010
-5.2914 ackland	-0.3010
-5.2914 ackles	-0.3010
-5.2914 ackley	-0.3010
-5.2914 acklin	-0.3010
-5.2914 ackman	-0.3010
-5.2914 acknowledged	-0.3010
-5.2914 acknowledgements	-0.3010
-5.2914 acknowledges	-0.3010
-5.2914 acknowledging	-0.3010
-5.2914 acorns	-0.3010
-5.2914 acosta	-0.3010
-5.2914 acoustic	-0.3010
-5.2914 acoustically	-0.3010
-5.2914 acoustics	-0.3010
-5.2914 acquaintance	-0.3010
-5.2914 acquaintances	-0.3010
-5.2914 acquainted	-0.3010
-5.2914 acquaviva	-0.3010
-5.2914 acquiesced	-0.3010
-5.2914 acquiescence	-0.3010
-5.2914 acquire	-0.3010
-5.2914 acquirers	-0.3010
-5.2914 acquiring	-0.3010
-5.2914 acquiring(2)	-0.3010
-5.2914 acquitaine	-0.3010
-5.2914 acquits	-0.3010
-5.2914 acquittals	-0.3010
-5.2914 acquitting	-0.3010
-5.2914 acrobatic	-0.3010
-5.2914 acrobats	-0.3010
-5.2914 acrylic	-0.3010
-5.2914 actigall	-0.3010
-5.2914 actinide	-0.3010
-5.2914 activase	-0.3010
-5.2914 activate	-0.3010
-5.2914 active's	-0.3010
-5.2914 actively	-0.3010
-5.2914 activism	-0.3010
-5.2914 activist	-0.3010
-5.2914 activity	-0.3010
-5.2914 actodine	-0.3010
-5.2914 actor's	-0.3010
-5.2914 actors'	-0.3010
-5.2914 actress's	-0.3010
-5.2914 actresses	-0.3010
-5.2914 actual(2)	-0.3010
-5.2914 actuality	-0.3010
-5.2914 actualize	-0.3010
-5.2914 actually	-0.3010
-5.2914 actuator	-0.3010
-5.2914 actuators(2)	-0.3010
-5.2914 acupuncture	-0.3010
-5.2914 acutely	-0.3010
-5.2914 ad	-0.3010
-5.2914 adabel	-0.3010
-5.2914 adachi	-0.3010
-5.2914 adage	-0.3010
-5.2914 adage(2)	-0.3010
-5.2914 adagio	-0.3010
-5.2914 adair	-0.3010
-5.2914 adaire	-0.3010
-5.2914 adalah	-0.3010
-5.2914 adalia	-0.3010
-5.2914 adam's	-0.3010
-5.2914 adamantly	-0.3010
-5.2914 adame	-0.3010
-5.2914 adamec	-0.3010
-5.2914 adamek	-0.3010
-5.2914 adames	-0.3010
-5.2914 adami	-0.3010
-5.2914 adamik	-0.3010
-5.2914 adamo	-0.3010
-5.2914 adams	-0.3010
-5.2914 adams'	-0.3010
-5.2914 adapso	-0.3010
-5.2914 adapt	-0.3010
-5.2914 adaptaplex	-0.3010
-5.2914 adaptation	-0.3010
-5.2914 adaptations	-0.3010
-5.2914 adapts	-0.3010
-5.2914 adaza	-0.3010
-5.2914 adblock	-0.3010
-5.2914 adcox	-0.3010
-5.2914 added	-0.3010
-5.2914 addeo	-0.3010
-5.2914 adder	-0.3010
-5.2914 addict	-0.3010
-5.2914 addicting	-0.3010
-5.2914 addiction	-0.3010
-5.2914 addictive	-0.3010
-5.2914 addicts(2)	-0.3010
-5.2914 addie	-0.3010
-5.2914 adding	-0.3010
-5.2914 addington	-0.3010
-5.2914 addis	-0.3010
-5.2914 addison's	-0.3010
-5.2914 addition	-0.3010
-5.2914 additional	-0.3010
-5.2914 additionally(2)	-0.3010
-5.2914 additive	-0.3010
-5.2914 additive(2)	-0.3010
-5.2914 additives(2)	-0.3010
-5.2914 addle	-0.3010
-5.2914 addled	-0.3010
-5.2914 address	-0.3010
-5.2914 address(2)	-0.3010
-5.2914 addressable	-0.3010
-5.2914 addressed	-0.3010
-5.2914 addressee	-0.3010
-5.2914 addresses	-0.3010
-5.2914 adduci	-0.3010
-5.2914 adduct	-0.3010
-5.2914 adela	-0.3010
-5.2914 adelaide	-0.3010
-5.2914 adelanto	-0.3010
-5.2914 adele	-0.3010
-5.2914 adell	-0.3010
-5.2914 adelle	-0.3010
-5.2914 adelphia	-0.3010
-5.2914 adelphia's	-0.3010
-5.2914 adena	-0.3010
-5.2914 adenoscan	-0.3010
-5.2914 adenosine	-0.3010
-5.2914 adept	-0.3010
-5.2914 adequacy	-0.3010
-5.2914 adequate	-0.3010
-5.2914 adequately(2)	-0.3010
-5.2914 adger	-0.3010
-5.2914 adham	-0.3010
-5.2914 adhere	-0.3010
-5.2914 adidas	-0.3010
-5.2914 adieu	-0.3010
-5.2914 adina	-0.3010
-5.2914 adine	-0.3010
-5.2914 adios	-0.3010
-5.2914 adisq	-0.3010
-5.2914 adjoining	-0.3010
-5.2914 adjoins	-0.3010
-5.2914 adjourn	-0.3010
-5.2914 adjourning	-0.3010
-5.2914 adjuncts	-0.3010
-5.2914 adkison	-0.3010
-5.2914 adkisson	-0.3010
-5.2914 adl-tabataba	-0.3010
-5.2914 adlai	-0.3010
-5.2914 adler	-0.3010
-5.2914 adlers	-0.3010
-5.2914 adley	-0.3010
-5.2914 adlon	-0.3010
-5.2914 adlong	-0.3010
-5.2914 adman	-0.3010
-5.2914 admen	-0.3010
-5.2914 admin	-0.3010
-5.2914 administrator	-0.3010
-5.2914 administrator's	-0.3010
-5.2914 administrators'	-0.3010
-5.2914 admira's	-0.3010
-5.2914 admirable	-0.3010
-5.2914 admirably	-0.3010
-5.2914 admiral's	-0.3010
-5.2914 admirals	-0.3010
-5.2914 admiralty	-0.3010
-5.2914 admirations	-0.3010
-5.2914 admirers	-0.3010
-5.2914 admiring	-0.3010
-5.2914 admit	-0.3010
-5.2914 admittance	-0.3010
-5.2914 admittedly	-0.3010
-5.2914 adnan	-0.3010
-5.2914 adney	-0.3010
-5.2914 adobe	-0.3010
-5.2914 adolescence	-0.3010
-5.2914 adolescent	-0.3010
-5.2914 adolescents	-0.3010
-5.2914 adolf	-0.3010
-5.2914 adolf's	-0.3010
-5.2914 adolpha	-0.3010
-5.2914 adolphson	-0.3010
-5.2914 adopt	-0.3010
-5.2914 adopted	-0.3010
-5.2914 adoptee	-0.3010
-5.2914 adopter	-0.3010
-5.2914 adora	-0.3010
-5.2914 adorabelle	-0.3010
-5.2914 adorable	-0.3010
-5.2914 adoration	-0.3010
-5.2914 adore	-0.3010
-5.2914 adorn	-0.3010
-5.2914 adrda	-0.3010
-5.2914 adrea	-0.3010
-5.2914 adrenaline	-0.3010
-5.2914 adria	-0.3010
-5.2914 adroitly	-0.3010
-5.2914 adsit	-0.3010
-5.2914 adtec	-0.3010
-5.2914 adult	-0.3010
-5.2914 adulterate	-0.3010
-5.2914 adulterated	-0.3010
-5.2914 adulterates	-0.3010
-5.2914 adulteration	-0.3010
-5.2914 adulterer	-0.3010
-5.2914 adulterers	-0.3010
-5.2914 adulterous	-0.3010
-5.2914 adults'(2)	-0.3010
-5.2914 advance's	-0.3010
-5.2914 advancers	-0.3010
-5.2914 advances(2)	-0.3010
-5.2914 advancing	-0.3010
-5.2914 advantaged	-0.3010
-5.2914 advantages	-0.3010
-5.2914 adversarial	-0.3010
-5.2914 adversaries	-0.3010
-5.2914 adverse(2)	-0.3010
-5.2914 advertisement(2)	-0.3010
-5.2914 advertorials	-0.3010
-5.2914 advil	-0.3010
-5.2914 advise(2)	-0.3010
-5.2914 advisers	-0.3010
-5.2914 advising	-0.3010
-5.2914 advisors	-0.3010
-5.2914 advisory	-0.3010
-5.2914 advocate's	-0.3010
-5.2914 advocate(2)	-0.3010
-5.2914 advocates(2)	-0.3010
-5.2914 advocating	-0.3010
-5.2914 advocation	-0.3010
-5.2914 adwords	-0.3010
-5.2914 ae	-0.3010
-5.2914 aegerter	-0.3010
-5.2914 aegis	-0.3010
-5.2914 aegon	-0.3010
-5.2914 aer(2)	-0.3010
-5.2914 aerobically	-0.3010
-5.2914 aerodynamicist	-0.3010
-5.2914 aerodyne	-0.3010
-5.2914 aerolift	-0.3010
-5.2914 aerosmith	-0.3010
-5.2914 aerosmith's	-0.3010
-5.2914 aerosol	-0.3010
-5.2914 aerosols	-0.3010
-5.2914 aerostar	-0.3010
-5.2914 aerostat	-0.3010
-5.2914 aesthetically	-0.3010
-5.2914 aetna's	-0.3010
-5.2914 affair	-0.3010
-5.2914 affair's	-0.3010
-5.2914 affect	-0.3010
-5.2914 affecting	-0.3010
-5.2914 affection	-0.3010
-5.2914 affectionate	-0.3010
-5.2914 affectionate(2)	-0.3010
-5.2914 affective	-0.3010
-5.2914 affidavit	-0.3010
-5.2914 affidavits	-0.3010
-5.2914 affiliate's	-0.3010
-5.2914 affiliates'	-0.3010
-5.2914 affiliating	-0.3010
-5.2914 affiliation	-0.3010
-5.2914 affine	-0.3010
-5.2914 affirm	-0.3010
-5.2914 affirmatively	-0.3010
-5.2914 affirming	-0.3010
-5.2914 affixes(2)	-0.3010
-5.2914 affixing	-0.3010
-5.2914 afflik	-0.3010
-5.2914 afford	-0.3010
-5.2914 affordability	-0.3010
-5.2914 affordable	-0.3010
-5.2914 affordably	-0.3010
-5.2914 afforded	-0.3010
-5.2914 affording	-0.3010
-5.2914 affricate	-0.3010
-5.2914 affront	-0.3010
-5.2914 affymax	-0.3010
-5.2914 afghani	-0.3010
-5.2914 afghanis	-0.3010
-5.2914 afghanistan's	-0.3010
-5.2914 afghans	-0.3010
-5.2914 aficionado	-0.3010
-5.2914 afraid	-0.3010
-5.2914 afresh	-0.3010
-5.2914 africa	-0.3010
-5.2914 africa(2)	-0.3010
-5.2914 africa(3)	-0.3010
-5.2914 african	-0.3010
-5.2914 african-american	-0.3010
-5.2914 african-americans	-0.3010
-5.2914 africanist	-0.3010
-5.2914 africanize	-0.3010
-5.2914 afridi	-0.3010
-5.2914 afrikanerdom	-0.3010
-5.2914 afrikaners	-0.3010
-5.2914 afshar's	-0.3010
-5.2914 afterglows	-0.3010
-5.2914 afterlives	-0.3010
-5.2914 aftermarket	-0.3010
-5.2914 afternoon	-0.3010
-5.2914 afternoons	-0.3010
-5.2914 aftershave	-0.3010
-5.2914 aftershocks	-0.3010
-5.2914 aftertaste	-0.3010
-5.2914 afterthought	-0.3010
-5.2914 afterthought(2)	-0.3010
-5.2914 afterthoughts	-0.3010
-5.2914 afterthoughts(2)	-0.3010
-5.2914 afula's	-0.3010
-5.2914 ag	-0.3010
-5.2914 agaches	-0.3010
-5.2914 aganbegyan	-0.3010
-5.2914 agarwal	-0.3010
-5.2914 aged(2)	-0.3010
-5.2914 agencies	-0.3010
-5.2914 agencies'	-0.3010
-5.2914 agency's	-0.3010
-5.2914 agendas	-0.3010
-5.2914 agent's	-0.3010
-5.2914 agents'	-0.3010
-5.2914 agerton	-0.3010
-5.2914 ages(2)	-0.3010
-5.2914 aggies	-0.3010
-5.2914 agglomerate	-0.3010
-5.2914 agglutinate	-0.3010
-5.2914 aggrandizement	-0.3010
-5.2914 aggregated	-0.3010
-5.2914 aggregates	-0.3010
-5.2914 aggression	-0.3010
-5.2914 aggressive	-0.3010
-5.2914 aggressively	-0.3010
-5.2914 aggressivity	-0.3010
-5.2914 aggressors	-0.3010
-5.2914 aggrey	-0.3010
-5.2914 aggrieve	-0.3010
-5.2914 aggrieved	-0.3010
-5.2914 aghazadeh	-0.3010
-5.2914 agitated	-0.3010
-5.2914 agitator	-0.3010
-5.2914 agitprop	-0.3010
-5.2914 agnellis	-0.3010
-5.2914 agoglia	-0.3010
-5.2914 agonists	-0.3010
-5.2914 agonized	-0.3010
-5.2914 agonizes	-0.3010
-5.2914 agonizingly	-0.3010
-5.2914 agosta	-0.3010
-5.2914 agosto	-0.3010
-5.2914 agoura	-0.3010
-5.2914 agreeing	-0.3010
-5.2914 agregious	-0.3010
-5.2914 agresource	-0.3010
-5.2914 agribusiness	-0.3010
-5.2914 agrico	-0.3010
-5.2914 agricultural(2)	-0.3010
-5.2914 agriculture	-0.3010
-5.2914 agrigenetics	-0.3010
-5.2914 agrochemical	-0.3010
-5.2914 agroindustrial	-0.3010
-5.2914 agrusa	-0.3010
-5.2914 aguanga	-0.3010
-5.2914 aguascalientes	-0.3010
-5.2914 aguilar	-0.3010
-5.2914 aguirra	-0.3010
-5.2914 aguirre	-0.3010
-5.2914 aguirre's(2)	-0.3010
-5.2914 aguirre(2)	-0.3010
-5.2914 ah	-0.3010
-5.2914 ahart	-0.3010
-5.2914 ahaulsie	0.0000
-5.2914 ahead	-0.3010
-5.2914 ahern	-0.3010
-5.2914 ahlberg	-0.3010
-5.2914 ahlborn	-0.3010
-5.2914 ahlen	-0.3010
-5.2914 ahlen(2)	-0.3010
-5.2914 ahlers	-0.3010
-5.2914 ahles	-0.3010
-5.2914 ahlin	-0.3010
-5.2914 ahlman	-0.3010
-5.2914 ahmad	-0.3010
-5.2914 ahmanson	-0.3010
-5.2914 ahmansons	-0.3010
-5.2914 ahmed	-0.3010
-5.2914 ahmed(2)	-0.3010
-5.2914 ahner	-0.3010
-5.2914 ahola	-0.3010
-5.2914 ahold	-0.3010
-5.2914 ahold's	-0.3010
-5.2914 aholds	-0.3010
-5.2914 ahonen	-0.3010
-5.2914 ahren	-0.3010
-5.2914 ahsahka	-0.3010
-5.2914 ahuja	-0.3010
-5.2914 ai	-0.3010
-5.2914 ai(2)	-0.3010
-5.2914 aiello	-0.3010
-5.2914 aiesha	-0.3010
-5.2914 aiming	-0.3010
-5.2914 aimless	-0.3010
-5.2914 aimone	-0.3010
-5.2914 ainge(2)	-0.3010
-5.2914 ainsworth	-0.3010
-5.2914 air-force	-0.3010
-5.2914 airboats	-0.3010
-5.2914 airborne	-0.3010
-5.2914 airborne's	-0.3010
-5.2914 aircal's	-0.3010
-5.2914 airconditioning	-0.3010
-5.2914 airdrop	-0.3010
-5.2914 airedales	-0.3010
-5.2914 airfoils	-0.3010
-5.2914 airfones	-0.3010
-5.2914 airforce	-0.3010
-5.2914 airfreight	-0.3010
-5.2914 airhart	-0.3010
-5.2914 airhead	-0.3010
-5.2914 airheadz	-0.3010
-5.2914 airless	-0.3010
-5.2914 airlift	-0.3010
-5.2914 airlifts	-0.3010
-5.2914 airline	-0.3010
-5.2914 airliner	-0.3010
-5.2914 airliner's	-0.3010
-5.2914 airlines	-0.3010
-5.2914 airlink	-0.3010
-5.2914 airlinks	-0.3010
-5.2914 airlock	-0.3010
-5.2914 airplane	-0.3010
-5.2914 airport	-0.3010
-5.2914 airstrikes	-0.3010
-5.2914 airtime	-0.3010
-5.2914 airtouch	-0.3010
-5.2914 airtran	-0.3010
-5.2914 airwing	-0.3010
-5.2914 aithne	-0.3010
-5.2914 aitken	-0.3010
-5.2914 ajax's(2)	-0.3010
-5.2914 akerley	-0.3010
-5.2914 akerman	-0.3010
-5.2914 akers's	-0.3010
-5.2914 akerson	-0.3010
-5.2914 akins(2)	-0.3010
-5.2914 akiyama	-0.3010
-5.2914 akzo's	-0.3010
-5.2914 al	-0.3010
-5.2914 ala(2)	-0.3010
-5.2914 alabama's	-0.3010
-5.2914 alabamans	-0.3010
-5.2914 alachlor	-0.3010
-5.2914 aladdin	-0.3010
-5.2914 aladeen	-0.3010
-5.2914 alafi	-0.3010
-5.2914 alain	-0.3010
-5.2914 alair	-0.3010
-5.2914 alamance	-0.3010
-5.2914 alamillo	-0.3010
-5.2914 alamo	-0.3010
-5.2914 alana	-0.3010
-5.2914 aland	-0.3010
-5.2914 alane	-0.3010
-5.2914 alann	-0.3010
-5.2914 alard	-0.3010
-5.2914 alarm	-0.3010
-5.2914 alarming	-0.3010
-5.2914 alarmist	-0.3010
-5.2914 alaster	-0.3010
-5.2914 albacore	-0.3010
-5.2914 alban	-0.3010
-5.2914 albani's	-0.3010
-5.2914 albania	-0.3010
-5.2914 albanian	-0.3010
-5.2914 albany's	-0.3010
-5.2914 albarado	-0.3010
-5.2914 albarran	-0.3010
-5.2914 albaugh	-0.3010
-5.2914 albea	-0.3010
-5.2914 albee	-0.3010
-5.2914 alben	-0.3010
-5.2914 alber	-0.3010
-5.2914 albergo	-0.3010
-5.2914 alberico	-0.3010
-5.2914 alberson	-0.3010
-5.2914 albert's	-0.3010
-5.2914 alberta	-0.3010
-5.2914 alberti	-0.3010
-5.2914 alberto	-0.3010
-5.2914 alberts	-0.3010
-5.2914 albertus	-0.3010
-5.2914 alberty	-0.3010
-5.2914 albie	-0.3010
-5.2914 albin	-0.3010
-5.2914 albinia	-0.3010
-5.2914 albiric	-0.3010
-5.2914 albro	-0.3010
-5.2914 album	-0.3010
-5.2914 album's	-0.3010
-5.2914 albumin	-0.3010
-5.2914 albunex	-0.3010
-5.2914 albus	-0.3010
-5.2914 albuterol	-0.3010
-5.2914 alcan	-0.3010
-5.2914 alcee	-0.3010
-5.2914 alcester	-0.3010
-5.2914 alchemist	-0.3010
-5.2914 alchemist(2)	-0.3010
-5.2914 alcoa	-0.3010
-5.2914 alcohol-drenched	-0.3010
-5.2914 alcohols	-0.3010
-5.2914 alcon	-0.3010
-5.2914 aldaco	-0.3010
-5.2914 aldama	-0.3010
-5.2914 aldana	-0.3010
-5.2914 aldape	-0.3010
-5.2914 alday	-0.3010
-5.2914 aldeburgh	-0.3010
-5.2914 alden	-0.3010
-5.2914 alder	-0.3010
-5.2914 alderson(2)	-0.3010
-5.2914 aldila	-0.3010
-5.2914 aldin	-0.3010
-5.2914 aldis	-0.3010
-5.2914 aldora	-0.3010
-5.2914 aldous	-0.3010
-5.2914 aldred	-0.3010
-5.2914 aldrete	-0.3010
-5.2914 aldric	-0.3010
-5.2914 aldric(2)	-0.3010
-5.2914 aldrich	-0.3010
-5.2914 aldrin	-0.3010
-5.2914 aldus	-0.3010
-5.2914 aldwin	-0.3010
-5.2914 aldwyn	-0.3010
-5.2914 aldys	-0.3010
-5.2914 aleda	-0.3010
-5.2914 aledo	-0.3010
-5.2914 aleen	-0.3010
-5.2914 alejo	-0.3010
-5.2914 aleksander	-0.3010
-5.2914 alena	-0.3010
-5.2914 alene	-0.3010
-5.2914 aleph	-0.3010
-5.2914 alert	-0.3010
-5.2914 alerting	-0.3010
-5.2914 alertness	-0.3010
-5.2914 alesi	-0.3010
-5.2914 alessandra's	-0.3010
-5.2914 alessandrini	-0.3010
-5.2914 alessio	-0.3010
-5.2914 aleta	-0.3010
-5.2914 aleutians	-0.3010
-5.2914 aleve	-0.3010
-5.2914 alewife	-0.3010
-5.2914 alewine	-0.3010
-5.2914 alewives	-0.3010
-5.2914 alexa	-0.3010
-5.2914 alexandra(2)	-0.3010
-5.2914 alexi	-0.3010
-5.2914 alexs	-0.3010
-5.2914 alexy	-0.3010
-5.2914 alfalfa	-0.3010
-5.2914 alfavilli	-0.3010
-5.2914 alfie	-0.3010
-5.2914 alfieri	-0.3010
-5.2914 alfiero	-0.3010
-5.2914 alfin	-0.3010
-5.2914 alfin's	-0.3010
-5.2914 alfonse(2)	-0.3010
-5.2914 alfre	-0.3010
-5.2914 alfredson	-0.3010
-5.2914 algae	-0.3010
-5.2914 algal	-0.3010
-5.2914 algar	-0.3010
-5.2914 algebraic	-0.3010
-5.2914 algebraically	-0.3010
-5.2914 algeo	-0.3010
-5.2914 alger	-0.3010
-5.2914 algeria	-0.3010
-5.2914 algeria's	-0.3010
-5.2914 algerians	-0.3010
-5.2914 algie	-0.3010
-5.2914 algiers	-0.3010
-5.2914 algol	-0.3010
-5.2914 algom	-0.3010
-5.2914 algoma	-0.3010
-5.2914 alguire	-0.3010
-5.2914 alhambra	-0.3010
-5.2914 ali's	-0.3010
-5.2914 alias	-0.3010
-5.2914 alibi	-0.3010
-5.2914 alice	-0.3010
-5.2914 alice(2)	-0.3010
-5.2914 alida	-0.3010
-5.2914 alien	-0.3010
-5.2914 alienate	-0.3010
-5.2914 aliff	-0.3010
-5.2914 align	-0.3010
-5.2914 aligned	-0.3010
-5.2914 alignment	-0.3010
-5.2914 alija	-0.3010
-5.2914 alike	-0.3010
-5.2914 alima	-0.3010
-5.2914 alina	-0.3010
-5.2914 aline	-0.3010
-5.2914 alire	-0.3010
-5.2914 alisa	-0.3010
-5.2914 alister	-0.3010
-5.2914 alita	-0.3010
-5.2914 alitalia's(2)	-0.3010
-5.2914 alito	-0.3010
-5.2914 alive	-0.3010
-5.2914 alkahest	-0.3010
-5.2914 alkali	-0.3010
-5.2914 alkalies	-0.3010
-5.2914 alkaline	-0.3010
-5.2914 alkaloid	-0.3010
-5.2914 alkaloids	-0.3010
-5.2914 alkanes	-0.3010
-5.2914 alkema	-0.3010
-5.2914 alkene	-0.3010
-5.2914 alkenes	-0.3010
-5.2914 alkire	-0.3010
-5.2914 all's	-0.3010
-5.2914 all-out	-0.3010
-5.2914 allah	-0.3010
-5.2914 allain	-0.3010
-5.2914 allais	-0.3010
-5.2914 allan	-0.3010
-5.2914 allar	-0.3010
-5.2914 allard	-0.3010
-5.2914 allay	-0.3010
-5.2914 allaying	-0.3010
-5.2914 allays	-0.3010
-5.2914 allbee	-0.3010
-5.2914 allbritten	-0.3010
-5.2914 allbritton	-0.3010
-5.2914 allday	-0.3010
-5.2914 allee	-0.3010
-5.2914 allegations	-0.3010
-5.2914 alleges(2)	-0.3010
-5.2914 alleghenies(2)	-0.3010
-5.2914 allegheny(2)	-0.3010
-5.2914 allegis's	-0.3010
-5.2914 alleluia	-0.3010
-5.2914 alleluja	-0.3010
-5.2914 allemand	-0.3010
-5.2914 allen	-0.3010
-5.2914 allendale	-0.3010
-5.2914 allendorf	-0.3010
-5.2914 allensworth	-0.3010
-5.2914 allenwood	-0.3010
-5.2914 aller	-0.3010
-5.2914 allergens	-0.3010
-5.2914 allergies	-0.3010
-5.2914 allergist	-0.3010
-5.2914 alles	-0.3010
-5.2914 alleviating	-0.3010
-5.2914 alleviation	-0.3010
-5.2914 alley	-0.3010
-5.2914 alliance	-0.3010
-5.2914 allie	-0.3010
-5.2914 allied's	-0.3010
-5.2914 alliedsignal's	-0.3010
-5.2914 allin	-0.3010
-5.2914 allis	-0.3010
-5.2914 allister(2)	-0.3010
-5.2914 allmendinger	-0.3010
-5.2914 allnutt	-0.3010
-5.2914 allocated	-0.3010
-5.2914 allocates	-0.3010
-5.2914 allocating	-0.3010
-5.2914 allocation	-0.3010
-5.2914 allocations	-0.3010
-5.2914 allocator	-0.3010
-5.2914 allocators	-0.3010
-5.2914 allomorphs	-0.3010
-5.2914 allophone	-0.3010
-5.2914 allophones	-0.3010
-5.2914 allophonic	-0.3010
-5.2914 allor	-0.3010
-5.2914 allot	-0.3010
-5.2914 allotments	-0.3010
-5.2914 allow	-0.3010
-5.2914 alloy	-0.3010
-5.2914 allright	-0.3010
-5.2914 alluded	-0.3010
-5.2914 alludes	-0.3010
-5.2914 allum	-0.3010
-5.2914 allured	-0.3010
-5.2914 allusion	-0.3010
-5.2914 allusions	-0.3010
-5.2914 allusive	-0.3010
-5.2914 alluvial	-0.3010
-5.2914 alluvium	-0.3010
-5.2914 allwaste	-0.3010
-5.2914 allweiss	-0.3010
-5.2914 allying	-0.3010
-5.2914 allyn	-0.3010
-5.2914 allys	-0.3010
-5.2914 allyson	-0.3010
-5.2914 almal	-0.3010
-5.2914 alman	-0.3010
-5.2914 almanzar	-0.3010
-5.2914 almas	-0.3010
-5.2914 almay	-0.3010
-5.2914 almer	-0.3010
-5.2914 almgren	-0.3010
-5.2914 almon	-0.3010
-5.2914 almonds	-0.3010
-5.2914 almoner	-0.3010
-5.2914 almonte	-0.3010
-5.2914 almos	-0.3010
-5.2914 alms(2)	-0.3010
-5.2914 almys	-0.3010
-5.2914 alodie	-0.3010
-5.2914 aloft	-0.3010
-5.2914 aloha	-0.3010
-5.2914 aloia	-0.3010
-5.2914 alois	-0.3010
-5.2914 aloisa	-0.3010
-5.2914 aloisi	-0.3010
-5.2914 aloisia	-0.3010
-5.2914 aloisio	-0.3010
-5.2914 aloka	-0.3010
-5.2914 alomar	-0.3010
-5.2914 alone	-0.3010
-5.2914 along	-0.3010
-5.2914 alonge	-0.3010
-5.2914 alongi	-0.3010
-5.2914 alongs	-0.3010
-5.2914 alongside	-0.3010
-5.2914 aloni	-0.3010
-5.2914 alonso	-0.3010
-5.2914 alonza	-0.3010
-5.2914 alonzo	-0.3010
-5.2914 aloof	-0.3010
-5.2914 aloud	-0.3010
-5.2914 aloys	-0.3010
-5.2914 aloyse	-0.3010
-5.2914 alper	-0.3010
-5.2914 alperin	-0.3010
-5.2914 alpex	-0.3010
-5.2914 alpha	-0.3010
-5.2914 alphabetic	-0.3010
-5.2914 alphabetically	-0.3010
-5.2914 alphametrics	-0.3010
-5.2914 alphandery	-0.3010
-5.2914 alphonse	-0.3010
-5.2914 alphonso	-0.3010
-5.2914 alpin	-0.3010
-5.2914 alpirez	-0.3010
-5.2914 alred	-0.3010
-5.2914 alrighty	-0.3010
-5.2914 alroy	-0.3010
-5.2914 alsace	-0.3010
-5.2914 alsatian	-0.3010
-5.2914 alsdorf	-0.3010
-5.2914 alsip	-0.3010
-5.2914 alsop	-0.3010
-5.2914 alspach	-0.3010
-5.2914 alsthom	-0.3010
-5.2914 alston	-0.3010
-5.2914 alsup	-0.3010
-5.2914 altai	-0.3010
-5.2914 altamira	-0.3010
-5.2914 altamirano	-0.3010
-5.2914 altamont	-0.3010
-5.2914 altamuro	-0.3010
-5.2914 altar	-0.3010
-5.2914 altay	-0.3010
-5.2914 altemose	-0.3010
-5.2914 altemus	-0.3010
-5.2914 alter	-0.3010
-5.2914 alteration	-0.3010
-5.2914 altered	-0.3010
-5.2914 altergott	-0.3010
-5.2914 alternate	-0.3010
-5.2914 alternate(2)	-0.3010
-5.2914 alternately	-0.3010
-5.2914 alternating	-0.3010
-5.2914 alternation	-0.3010
-5.2914 alternative	-0.3010
-5.2914 although	-0.3010
-5.2914 althouse	-0.3010
-5.2914 altieri	-0.3010
-5.2914 altima's	-0.3010
-5.2914 altitude	-0.3010
-5.2914 altizer	-0.3010
-5.2914 altman's	-0.3010
-5.2914 altmann	-0.3010
-5.2914 altom	-0.3010
-5.2914 alton	-0.3010
-5.2914 altos	-0.3010
-5.2914 altos(2)	-0.3010
-5.2914 altra	-0.3010
-5.2914 altschiller	-0.3010
-5.2914 altschuler(2)	-0.3010
-5.2914 altus	-0.3010
-5.2914 altvater	-0.3010
-5.2914 aluminio	-0.3010
-5.2914 aluminium	-0.3010
-5.2914 aluminize	-0.3010
-5.2914 aluminized	-0.3010
-5.2914 aluminosilicate	-0.3010
-5.2914 aluminum	-0.3010
-5.2914 alums	-0.3010
-5.2914 alura	-0.3010
-5.2914 alvah	-0.3010
-5.2914 alvan	-0.3010
-5.2914 alvare(2)	-0.3010
-5.2914 alvarenga	-0.3010
-5.2914 alveolar	-0.3010
-5.2914 alves	-0.3010
-5.2914 alvey	-0.3010
-5.2914 alvin	-0.3010
-5.2914 alvis	-0.3010
-5.2914 alwaleed(2)	-0.3010
-5.2914 alward	-0.3010
-5.2914 always	-0.3010
-5.2914 alwin	-0.3010
-5.2914 alwine	-0.3010
-5.2914 alwood	-0.3010
-5.2914 alwyn	-0.3010
-5.2914 alyce	-0.3010
-5.2914 alyea	-0.3010
-5.2914 alyeska	-0.3010
-5.2914 alzona	-0.3010
-5.2914 am	-0.3010
-5.2914 am(2)	-0.3010
-5.2914 amabel	-0.3010
-5.2914 amabile	-0.3010
-5.2914 amadea	-0.3010
-5.2914 amadeo	-0.3010
-5.2914 amadon	-0.3010
-5.2914 amador	-0.3010
-5.2914 amadou	-0.3010
-5.2914 amagansett	-0.3010
-5.2914 amaker	-0.3010
-5.2914 amal's	-0.3010
-5.2914 amalea	-0.3010
-5.2914 amalgamated	-0.3010
-5.2914 amalgamated's	-0.3010
-5.2914 amalgamates	-0.3010
-5.2914 amalgams	-0.3010
-5.2914 amalia	-0.3010
-5.2914 amalie	-0.3010
-5.2914 amalya	-0.3010
-5.2914 amanda	-0.3010
-5.2914 amandime	-0.3010
-5.2914 amanpour	-0.3010
-5.2914 amante	-0.3010
-5.2914 amar's	-0.3010
-5.2914 amaral	-0.3010
-5.2914 amarin	-0.3010
-5.2914 amaris	-0.3010
-5.2914 amaryllis(2)	-0.3010
-5.2914 amaryllises	-0.3010
-5.2914 amason	-0.3010
-5.2914 amateurs	-0.3010
-5.2914 amateurs(2)	-0.3010
-5.2914 amatil	-0.3010
-5.2914 amato's	-0.3010
-5.2914 amauligak	-0.3010
-5.2914 amax's	-0.3010
-5.2914 amazed	-0.3010
-5.2914 amazes	-0.3010
-5.2914 amazon	-0.3010
-5.2914 amazon's	-0.3010
-5.2914 amazonia	-0.3010
-5.2914 amazonians	-0.3010
-5.2914 ambassadorships	-0.3010
-5.2914 ambiance	-0.3010
-5.2914 ambience	-0.3010
-5.2914 ambition	-0.3010
-5.2914 ambriano	-0.3010
-5.2914 ambrose	-0.3010
-5.2914 ambrosial	-0.3010
-5.2914 ambrosian	-0.3010
-5.2914 ambrosiano	-0.3010
-5.2914 ambrosine	-0.3010
-5.2914 ambrosini	-0.3010
-5.2914 ambrosino	-0.3010
-5.2914 ambrosius	-0.3010
-5.2914 ambuehl	-0.3010
-5.2914 ambulance	-0.3010
-5.2914 ambulances	-0.3010
-5.2914 ambulate	-0.3010
-5.2914 ambulator	-0.3010
-5.2914 ambushed	-0.3010
-5.2914 ambushes	-0.3010
-5.2914 amdahl's	-0.3010
-5.2914 amdura	-0.3010
-5.2914 ameche	-0.3010
-5.2914 amedco	-0.3010
-5.2914 amedee	-0.3010
-5.2914 amelia	-0.3010
-5.2914 amelie	-0.3010
-5.2914 amelio	-0.3010
-5.2914 ameliorate	-0.3010
-5.2914 amen(2)	-0.3010
-5.2914 amenable	-0.3010
-5.2914 amenaces	-0.3010
-5.2914 amendment's	-0.3010
-5.2914 amendments	-0.3010
-5.2914 amendola	-0.3010
-5.2914 amends	-0.3010
-5.2914 amenta	-0.3010
-5.2914 amerco	-0.3010
-5.2914 american's	-0.3010
-5.2914 americana	-0.3010
-5.2914 americana's	-0.3010
-5.2914 americanas	-0.3010
-5.2914 americanism	-0.3010
-5.2914 americanize	-0.3010
-5.2914 americano	-0.3010
-5.2914 americanos	-0.3010
-5.2914 americans	-0.3010
-5.2914 americans'	-0.3010
-5.2914 americans(2)	-0.3010
-5.2914 americare	-0.3010
-5.2914 americares	-0.3010
-5.2914 americas'	-0.3010
-5.2914 americas(2)	-0.3010
-5.2914 americium	-0.3010
-5.2914 americold	-0.3010
-5.2914 americorp	-0.3010
-5.2914 ameridata	-0.3010
-5.2914 amerifirst's	-0.3010
-5.2914 ameron	-0.3010
-5.2914 amersham	-0.3010
-5.2914 ames's	-0.3010
-5.2914 amherstdale	-0.3010
-5.2914 amhoist	-0.3010
-5.2914 amiability	-0.3010
-5.2914 amiable	-0.3010
-5.2914 amiably	-0.3010
-5.2914 amicus	-0.3010
-5.2914 amides	-0.3010
-5.2914 amidon	-0.3010
-5.2914 amidst	-0.3010
-5.2914 amiprilose	-0.3010
-5.2914 amirault	-0.3010
-5.2914 amman(2)	-0.3010
-5.2914 ammeters	-0.3010
-5.2914 ammonia	-0.3010
-5.2914 ammonite	-0.3010
-5.2914 ammonium	-0.3010
-5.2914 amnesia	-0.3010
-5.2914 amnesties	-0.3010
-5.2914 amnesty	-0.3010
-5.2914 amongst	-0.3010
-5.2914 amoskeag	-0.3010
-5.2914 amounted(2)	-0.3010
-5.2914 amounting	-0.3010
-5.2914 amounts	-0.3010
-5.2914 ampato	-0.3010
-5.2914 ampere	-0.3010
-5.2914 amphibians	-0.3010
-5.2914 amphibious	-0.3010
-5.2914 amphitheaters	-0.3010
-5.2914 amplitude	-0.3010
-5.2914 amplocore	-0.3010
-5.2914 amputated	-0.3010
-5.2914 amputation	-0.3010
-5.2914 amputations	-0.3010
-5.2914 amrhein	-0.3010
-5.2914 amsbaugh	-0.3010
-5.2914 amspacher	-0.3010
-5.2914 amsterdam	-0.3010
-5.2914 amstrad	-0.3010
-5.2914 amstutz	-0.3010
-5.2914 amtech	-0.3010
-5.2914 amtrack	-0.3010
-5.2914 amtrak	-0.3010
-5.2914 amusing	-0.3010
-5.2914 amvestors	-0.3010
-5.2914 amygdala	-0.3010
-5.2914 an	-0.3010
-5.2914 anabaptist	-0.3010
-5.2914 anacker	-0.3010
-5.2914 anacomp	-0.3010
-5.2914 anacostia	-0.3010
-5.2914 anakin	-0.3010
-5.2914 analog	-0.3010
-5.2914 analyses	-0.3010
-5.2914 analysis	-0.3010
-5.2914 analysts	-0.3010
-5.2914 analytic	-0.3010
-5.2914 analyzable	-0.3010
-5.2914 analyzand	-0.3010
-5.2914 analyzers	-0.3010
-5.2914 analyzing	-0.3010
-5.2914 anandale	-0.3010
-5.2914 anandeep	-0.3010
-5.2914 anania	-0.3010
-5.2914 anantha	-0.3010
-5.2914 anaplastic	-0.3010
-5.2914 anarchic	-0.3010
-5.2914 anarchy	-0.3010
-5.2914 anaren	-0.3010
-5.2914 anasazi(2)	-0.3010
-5.2914 anastasia	-0.3010
-5.2914 anastasio	-0.3010
-5.2914 anatomically	-0.3010
-5.2914 anatomist	-0.3010
-5.2914 anatomist(2)	-0.3010
-5.2914 anbari	-0.3010
-5.2914 ancheta	-0.3010
-5.2914 anchondo	-0.3010
-5.2914 anchor's	-0.3010
-5.2914 anchored	-0.3010
-5.2914 anchoring	-0.3010
-5.2914 anchorman	-0.3010
-5.2914 anchormen	-0.3010
-5.2914 anchors	-0.3010
-5.2914 anchovies	-0.3010
-5.2914 anchovy	-0.3010
-5.2914 ancients	-0.3010
-5.2914 ancients(2)	-0.3010
-5.2914 andante	-0.3010
-5.2914 anderberg	-0.3010
-5.2914 anderegg	-0.3010
-5.2914 anderle	-0.3010
-5.2914 anderman	-0.3010
-5.2914 andersen	-0.3010
-5.2914 anderson	-0.3010
-5.2914 andersonville	-0.3010
-5.2914 anderton	-0.3010
-5.2914 andiron	-0.3010
-5.2914 andrea(2)	-0.3010
-5.2914 andreotti	-0.3010
-5.2914 andreozzi	-0.3010
-5.2914 andrzejewski	-0.3010
-5.2914 anecdotal(2)	-0.3010
-5.2914 anecdotes(2)	-0.3010
-5.2914 anello	-0.3010
-5.2914 anemia	-0.3010
-5.2914 anemic	-0.3010
-5.2914 anemone	-0.3010
-5.2914 anencephalic	-0.3010
-5.2914 anencephaly	-0.3010
-5.2914 anesthesiology	-0.3010
-5.2914 anesthetics	-0.3010
-5.2914 anesthetist	-0.3010
-5.2914 anette	-0.3010
-5.2914 angelenos	-0.3010
-5.2914 angeles's	-0.3010
-5.2914 angeletti	-0.3010
-5.2914 angelica(2)	-0.3010
-5.2914 angelicas	-0.3010
-5.2914 angelillo	-0.3010
-5.2914 angelinos	-0.3010
-5.2914 angelique	-0.3010
-5.2914 angeloff(2)	-0.3010
-5.2914 angermeier	-0.3010
-5.2914 anglemyer	-0.3010
-5.2914 anglers	-0.3010
-5.2914 angling	-0.3010
-5.2914 anglo-catholicism	-0.3010
-5.2914 anglophones	-0.3010
-5.2914 anglos(2)	-0.3010
-5.2914 angolan	-0.3010
-5.2914 angoras	-0.3010
-5.2914 angotti	-0.3010
-5.2914 angriest	-0.3010
-5.2914 angstroms	-0.3010
-5.2914 anguished	-0.3010
-5.2914 anguishing	-0.3010
-5.2914 angulate	-0.3010
-5.2914 anheuser's	-0.3010
-5.2914 anibal	-0.3010
-5.2914 anikst	-0.3010
-5.2914 animal	-0.3010
-5.2914 animals	-0.3010
-5.2914 animate	-0.3010
-5.2914 animators	-0.3010
-5.2914 animism	-0.3010
-5.2914 animist	-0.3010
-5.2914 animous	-0.3010
-5.2914 animus	-0.3010
-5.2914 aninat	-0.3010
-5.2914 anions	-0.3010
-5.2914 anitec	-0.3010
-5.2914 anixter	-0.3010
-5.2914 anjelica	-0.3010
-5.2914 ankara's	-0.3010
-5.2914 anklebone	-0.3010
-5.2914 annabeth	-0.3010
-5.2914 annamese	-0.3010
-5.2914 annelids	-0.3010
-5.2914 annexation	-0.3010
-5.2914 annexing	-0.3010
-5.2914 annihilating	-0.3010
-5.2914 annihilation	-0.3010
-5.2914 anniversaries	-0.3010
-5.2914 annotated(2)	-0.3010
-5.2914 annotating	-0.3010
-5.2914 annotation	-0.3010
-5.2914 annotations	-0.3010
-5.2914 annotators	-0.3010
-5.2914 announce	-0.3010
-5.2914 annoyances	-0.3010
-5.2914 annoying	-0.3010
-5.2914 annualize	-0.3010
-5.2914 annuals	-0.3010
-5.2914 annuity	-0.3010
-5.2914 annular	-0.3010
-5.2914 annunzio	-0.3010
-5.2914 anonymity	-0.3010
-5.2914 anonymize	-0.3010
-5.2914 anonymized	-0.3010
-5.2914 anonymous	-0.3010
-5.2914 anorexia	-0.3010
-5.2914 anorexic	-0.3010
-5.2914 ansbacher	-0.3010
-5.2914 anschel	-0.3010
-5.2914 anschutz	-0.3010
-5.2914 anscomb	-0.3010
-5.2914 antagonistic	-0.3010
-5.2914 antagonizing	-0.3010
-5.2914 antarctica	-0.3010
-5.2914 antarctica(2)	-0.3010
-5.2914 antczak	-0.3010
-5.2914 anteaters	-0.3010
-5.2914 anted(2)	-0.3010
-5.2914 anterior	-0.3010
-5.2914 anthologies	-0.3010
-5.2914 anthologist	-0.3010
-5.2914 anthology	-0.3010
-5.2914 anthracite	-0.3010
-5.2914 anthrobot	-0.3010
-5.2914 anthropocentric	-0.3010
-5.2914 anthropology	-0.3010
-5.2914 anti-catholicism	-0.3010
-5.2914 anti-federalists	-0.3010
-5.2914 anti-war	-0.3010
-5.2914 antiabortion	-0.3010
-5.2914 antiaircraft(2)	-0.3010
-5.2914 antibacterial	-0.3010
-5.2914 antiballistic	-0.3010
-5.2914 antibiotics	-0.3010
-5.2914 antibiotics(2)	-0.3010
-5.2914 anticancer	-0.3010
-5.2914 anticipated	-0.3010
-5.2914 anticipates	-0.3010
-5.2914 anticipating	-0.3010
-5.2914 anticipation	-0.3010
-5.2914 anticipatory	-0.3010
-5.2914 anticompetitive	-0.3010
-5.2914 anticorruption	-0.3010
-5.2914 anticrime	-0.3010
-5.2914 anticyclones	-0.3010
-5.2914 antidepressants(2)	-0.3010
-5.2914 antidumping(2)	-0.3010
-5.2914 antifreeze	-0.3010
-5.2914 antifungal(2)	-0.3010
-5.2914 antigens	-0.3010
-5.2914 antigone	-0.3010
-5.2914 antigovernment	-0.3010
-5.2914 antiknock	-0.3010
-5.2914 antilock(2)	-0.3010
-5.2914 antimatter	-0.3010
-5.2914 antinomy	-0.3010
-5.2914 antioxidants	-0.3010
-5.2914 antiphon(2)	-0.3010
-5.2914 antisense	-0.3010
-5.2914 antismoking	-0.3010
-5.2914 antitax(2)	-0.3010
-5.2914 antithetical	-0.3010
-5.2914 antitoxins	-0.3010
-5.2914 antitrust	-0.3010
-5.2914 antkowiak	-0.3010
-5.2914 antlered	-0.3010
-5.2914 antoine	-0.3010
-5.2914 antoinette	-0.3010
-5.2914 antolik	-0.3010
-5.2914 antolini	-0.3010
-5.2914 antone	-0.3010
-5.2914 antoni	-0.3010
-5.2914 antonia	-0.3010
-5.2914 antonin	-0.3010
-5.2914 antonini's	-0.3010
-5.2914 antonio	-0.3010
-5.2914 antoniu	-0.3010
-5.2914 antonopoulos	-0.3010
-5.2914 antony	-0.3010
-5.2914 antoon	-0.3010
-5.2914 antosh	-0.3010
-5.2914 antril	-0.3010
-5.2914 antrim	-0.3010
-5.2914 antrobus	-0.3010
-5.2914 antuna	-0.3010
-5.2914 antwerp	-0.3010
-5.2914 antwine	-0.3010
-5.2914 anubis	-0.3010
-5.2914 anuradhapura	-0.3010
-5.2914 anxieties	-0.3010
-5.2914 anxiously	-0.3010
-5.2914 anyhow	-0.3010
-5.2914 anyways	-0.3010
-5.2914 anywhere	-0.3010
-5.2914 anzelmo	-0.3010
-5.2914 aortic	-0.3010
-5.2914 aoshima	-0.3010
-5.2914 aoun's	-0.3010
-5.2914 aoun(2)	-0.3010
-5.2914 aouzou	-0.3010
-5.2914 aoyama	-0.3010
-5.2914 ap	-0.3010
-5.2914 apace	-0.3010
-5.2914 apacs	-0.3010
-5.2914 apalachicola's	-0.3010
-5.2914 aparicio	-0.3010
-5.2914 apart	-0.3010
-5.2914 apartment	-0.3010
-5.2914 apathetic	-0.3010
-5.2914 apatite	-0.3010
-5.2914 apc's	-0.3010
-5.2914 apcar	-0.3010
-5.2914 apelike	-0.3010
-5.2914 aperitif	-0.3010
-5.2914 aperture	-0.3010
-5.2914 apfel	-0.3010
-5.2914 apgar	-0.3010
-5.2914 aphid	-0.3010
-5.2914 aphids(2)	-0.3010
-5.2914 aphorisms	-0.3010
-5.2914 aphrodisiac	-0.3010
-5.2914 aping	-0.3010
-5.2914 aplin	-0.3010
-5.2914 apnea	-0.3010
-5.2914 apogee	-0.3010
-5.2914 apollo	-0.3010
-5.2914 apologetic	-0.3010
-5.2914 apologised	-0.3010
-5.2914 apologises	-0.3010
-5.2914 apologists	-0.3010
-5.2914 apologized	-0.3010
-5.2914 apologizes	-0.3010
-5.2914 apology	-0.3010
-5.2914 aponte	-0.3010
-5.2914 apopa	-0.3010
-5.2914 apopka	-0.3010
-5.2914 apostate	-0.3010
-5.2914 apostles	-0.3010
-5.2914 apostolic	-0.3010
-5.2914 apostolopoul	-0.3010
-5.2914 apostrophes	-0.3010
-5.2914 apothecary	-0.3010
-5.2914 apotheosis	-0.3010
-5.2914 appalachia	-0.3010
-5.2914 appalachians	-0.3010
-5.2914 appalachians(2)	-0.3010
-5.2914 appalachians(3)	-0.3010
-5.2914 appalling	-0.3010
-5.2914 apparatchik	-0.3010
-5.2914 apparition	-0.3010
-5.2914 appealable	-0.3010
-5.2914 appealed	-0.3010
-5.2914 appealingly	-0.3010
-5.2914 appeared	-0.3010
-5.2914 appearing	-0.3010
-5.2914 appeased	-0.3010
-5.2914 appeasement	-0.3010
-5.2914 appel	-0.3010
-5.2914 appellant	-0.3010
-5.2914 appellants	-0.3010
-5.2914 appellate	-0.3010
-5.2914 appellations	-0.3010
-5.2914 appelman	-0.3010
-5.2914 appendectomy	-0.3010
-5.2914 appendicitis	-0.3010
-5.2914 appetite	-0.3010
-5.2914 appetito	-0.3010
-5.2914 appia	-0.3010
-5.2914 applauded	-0.3010
-5.2914 apple	-0.3010
-5.2914 applebaum	-0.3010
-5.2914 applebee's	-0.3010
-5.2914 appleberry	-0.3010
-5.2914 applegarth	-0.3010
-5.2914 applequist	-0.3010
-5.2914 appleshare	-0.3010
-5.2914 applewhite	-0.3010
-5.2914 appleyard	-0.3010
-5.2914 appliance	-0.3010
-5.2914 apply	-0.3010
-5.2914 appointees	-0.3010
-5.2914 appointing	-0.3010
-5.2914 appointive	-0.3010
-5.2914 appointments	-0.3010
-5.2914 appoints	-0.3010
-5.2914 apportion	-0.3010
-5.2914 apportioned	-0.3010
-5.2914 apportionment	-0.3010
-5.2914 appraise	-0.3010
-5.2914 appreciating	-0.3010
-5.2914 appreciation	-0.3010
-5.2914 appreciative	-0.3010
-5.2914 appreciatively(2)	-0.3010
-5.2914 apprehend	-0.3010
-5.2914 apprentice	-0.3010
-5.2914 apprenticed	-0.3010
-5.2914 apprentices	-0.3010
-5.2914 apprenticeship	-0.3010
-5.2914 appro	-0.3010
-5.2914 approaches(2)	-0.3010
-5.2914 approbation	-0.3010
-5.2914 appropriately	-0.3010
-5.2914 appropriating	-0.3010
-5.2914 appropriation	-0.3010
-5.2914 appropriations	-0.3010
-5.2914 appropriators	-0.3010
-5.2914 approximately	-0.3010
-5.2914 approximating	-0.3010
-5.2914 approximation	-0.3010
-5.2914 aprea	-0.3010
-5.2914 apricots	-0.3010
-5.2914 april	-0.3010
-5.2914 aprile	-0.3010
-5.2914 aprodiva	-0.3010
-5.2914 apron	-0.3010
-5.2914 aprons	-0.3010
-5.2914 apropos	-0.3010
-5.2914 apsell	-0.3010
-5.2914 apsey	-0.3010
-5.2914 apter	-0.3010
-5.2914 aptitude	-0.3010
-5.2914 aptly	-0.3010
-5.2914 aqua(2)	-0.3010
-5.2914 aquaculture	-0.3010
-5.2914 aquilina	-0.3010
-5.2914 aquilino	-0.3010
-5.2914 aquitaine	-0.3010
-5.2914 ar	-0.3010
-5.2914 arabia	-0.3010
-5.2914 arabic	-0.3010
-5.2914 arabie	-0.3010
-5.2914 arable	-0.3010
-5.2914 arabs'	-0.3010
-5.2914 arachnids(2)	-0.3010
-5.2914 arafat	-0.3010
-5.2914 aragon	-0.3010
-5.2914 aragona	-0.3010
-5.2914 araiza	-0.3010
-5.2914 arakaki	-0.3010
-5.2914 arakawa	-0.3010
-5.2914 arambula	-0.3010
-5.2914 aramco	-0.3010
-5.2914 aramid	-0.3010
-5.2914 aramis	-0.3010
-5.2914 aranda	-0.3010
-5.2914 arango	-0.3010
-5.2914 aransas	-0.3010
-5.2914 arantxa	-0.3010
-5.2914 arantza	-0.3010
-5.2914 aranyos	-0.3010
-5.2914 arapahoe	-0.3010
-5.2914 ararat	-0.3010
-5.2914 araujo	-0.3010
-5.2914 aravind	-0.3010
-5.2914 arawak	-0.3010
-5.2914 arbitrated	-0.3010
-5.2914 arbitrates	-0.3010
-5.2914 arbitrating	-0.3010
-5.2914 arbitration	-0.3010
-5.2914 arbitrator	-0.3010
-5.2914 arbitrator's	-0.3010
-5.2914 arbitrators'	-0.3010
-5.2914 arboretum	-0.3010
-5.2914 arbothnott	-0.3010
-5.2914 arbuckle	-0.3010
-5.2914 arcades	-0.3010
-5.2914 arcadia	-0.3010
-5.2914 arcadians	-0.3010
-5.2914 arcanum	-0.3010
-5.2914 arcanum's	-0.3010
-5.2914 arcement	-0.3010
-5.2914 archaeological	-0.3010
-5.2914 archaeologists	-0.3010
-5.2914 archaic	-0.3010
-5.2914 archambault	-0.3010
-5.2914 archard	-0.3010
-5.2914 archduke	-0.3010
-5.2914 archerd	-0.3010
-5.2914 archers	-0.3010
-5.2914 archery	-0.3010
-5.2914 archetype	-0.3010
-5.2914 archimedes	-0.3010
-5.2914 arching	-0.3010
-5.2914 archippus	-0.3010
-5.2914 architect	-0.3010
-5.2914 architecturally	-0.3010
-5.2914 architecturally(2)	-0.3010
-5.2914 architecture's	-0.3010
-5.2914 architraves	-0.3010
-5.2914 archive	-0.3010
-5.2914 archivist(2)	-0.3010
-5.2914 archivists	-0.3010
-5.2914 archrivals	-0.3010
-5.2914 archuletta	-0.3010
-5.2914 archway	-0.3010
-5.2914 arcidiacono	-0.3010
-5.2914 arcosanti	-0.3010
-5.2914 arctic(2)	-0.3010
-5.2914 arcturus	-0.3010
-5.2914 ardelia	-0.3010
-5.2914 ardella	-0.3010
-5.2914 ardelle	-0.3010
-5.2914 arden's	-0.3010
-5.2914 ardently	-0.3010
-5.2914 ardmore	-0.3010
-5.2914 arduini	-0.3010
-5.2914 arduino	-0.3010
-5.2914 arduous	-0.3010
-5.2914 area's	-0.3010
-5.2914 arebalo	-0.3010
-5.2914 arellanes	-0.3010
-5.2914 aren't	-0.3010
-5.2914 arena's	-0.3010
-5.2914 arenaball	-0.3010
-5.2914 arenas	-0.3010
-5.2914 arends	-0.3010
-5.2914 arendt	-0.3010
-5.2914 arenson	-0.3010
-5.2914 arentz	-0.3010
-5.2914 arequipa	-0.3010
-5.2914 aretha	-0.3010
-5.2914 aretta	-0.3010
-5.2914 arevalo	-0.3010
-5.2914 argabright	-0.3010
-5.2914 arganbright	-0.3010
-5.2914 argonaut	-0.3010
-5.2914 argonne	-0.3010
-5.2914 arguments	-0.3010
-5.2914 argyropoulos	-0.3010
-5.2914 ariana	-0.3010
-5.2914 ariane	-0.3010
-5.2914 ariela	-0.3010
-5.2914 arington	-0.3010
-5.2914 ariola	-0.3010
-5.2914 arisen	-0.3010
-5.2914 arises	-0.3010
-5.2914 arises(2)	-0.3010
-5.2914 arison	-0.3010
-5.2914 arispe	-0.3010
-5.2914 arista	-0.3010
-5.2914 aristocracy	-0.3010
-5.2914 aristocrat	-0.3010
-5.2914 aristocrats	-0.3010
-5.2914 aristotle	-0.3010
-5.2914 arizmendi	-0.3010
-5.2914 arizona's	-0.3010
-5.2914 arizonans	-0.3010
-5.2914 arjo(2)	-0.3010
-5.2914 arkansas's	-0.3010
-5.2914 arledge	-0.3010
-5.2914 arlene's	-0.3010
-5.2914 arlyne	-0.3010
-5.2914 armacost's	-0.3010
-5.2914 armada	-0.3010
-5.2914 armand	-0.3010
-5.2914 armand(2)	-0.3010
-5.2914 armando	-0.3010
-5.2914 armandt	-0.3010
-5.2914 armani	-0.3010
-5.2914 armaro	-0.3010
-5.2914 armato	-0.3010
-5.2914 armband	-0.3010
-5.2914 armbands	-0.3010
-5.2914 armbruster	-0.3010
-5.2914 armendarez	-0.3010
-5.2914 armendariz	-0.3010
-5.2914 armenia	-0.3010
-5.2914 arment	-0.3010
-5.2914 armenta	-0.3010
-5.2914 armentrout	-0.3010
-5.2914 armested	-0.3010
-5.2914 armetta	-0.3010
-5.2914 armey's	-0.3010
-5.2914 armida	-0.3010
-5.2914 armies	-0.3010
-5.2914 armiger	-0.3010
-5.2914 armijo	-0.3010
-5.2914 armilla	-0.3010
-5.2914 armina	-0.3010
-5.2914 armine	-0.3010
-5.2914 arming	-0.3010
-5.2914 armington	-0.3010
-5.2914 arminie	-0.3010
-5.2914 armold	-0.3010
-5.2914 armond	-0.3010
-5.2914 armonk	-0.3010
-5.2914 armory	-0.3010
-5.2914 armour	-0.3010
-5.2914 armpit	-0.3010
-5.2914 armstead	-0.3010
-5.2914 armstrong	-0.3010
-5.2914 armstrong(2)	-0.3010
-5.2914 armtec	-0.3010
-5.2914 armtek	-0.3010
-5.2914 armtek's	-0.3010
-5.2914 arnelle's	-0.3010
-5.2914 arnstein	-0.3010
-5.2914 arnulfo	-0.3010
-5.2914 aromatic	-0.3010
-5.2914 aronoff	-0.3010
-5.2914 aronowitz	-0.3010
-5.2914 aronson	-0.3010
-5.2914 arousing	-0.3010
-5.2914 arpino	-0.3010
-5.2914 arraignments	-0.3010
-5.2914 arrangements	-0.3010
-5.2914 arrearage	-0.3010
-5.2914 arrhythmias	-0.3010
-5.2914 arriola	-0.3010
-5.2914 arriortua	-0.3010
-5.2914 arrival	-0.3010
-5.2914 arrived	-0.3010
-5.2914 arrives	-0.3010
-5.2914 arrow's(2)	-0.3010
-5.2914 arrowhead	-0.3010
-5.2914 arrowhead(2)	-0.3010
-5.2914 arrowheads	-0.3010
-5.2914 arrowheads(2)	-0.3010
-5.2914 arrowsmith(2)	-0.3010
-5.2914 arroyo's	-0.3010
-5.2914 arsenals	-0.3010
-5.2914 arsenault	-0.3010
-5.2914 arseneau	-0.3010
-5.2914 arsenide	-0.3010
-5.2914 arsonist	-0.3010
-5.2914 arsonists(2)	-0.3010
-5.2914 artale	-0.3010
-5.2914 artcarve	-0.3010
-5.2914 arterial	-0.3010
-5.2914 arteries	-0.3010
-5.2914 arteriosclerosis	-0.3010
-5.2914 artery	-0.3010
-5.2914 artful	-0.3010
-5.2914 arthritis(2)	-0.3010
-5.2914 arthur	-0.3010
-5.2914 arthur's	-0.3010
-5.2914 artichokes	-0.3010
-5.2914 article(2)	-0.3010
-5.2914 articles	-0.3010
-5.2914 articles(2)	-0.3010
-5.2914 articular	-0.3010
-5.2914 articulating	-0.3010
-5.2914 articulation	-0.3010
-5.2914 artifact	-0.3010
-5.2914 artifacts	-0.3010
-5.2914 artifice	-0.3010
-5.2914 artino	-0.3010
-5.2914 artisanal	-0.3010
-5.2914 artist	-0.3010
-5.2914 artist's(2)	-0.3010
-5.2914 artley	-0.3010
-5.2914 artman	-0.3010
-5.2914 artois	-0.3010
-5.2914 artrip	-0.3010
-5.2914 arturo	-0.3010
-5.2914 artwork	-0.3010
-5.2914 arty's	-0.3010
-5.2914 arvanitis	-0.3010
-5.2914 arvidson	-0.3010
-5.2914 arvin's	-0.3010
-5.2914 arzamas	-0.3010
-5.2914 as	-0.3010
-5.2914 asahara	-0.3010
-5.2914 asap(2)	-0.3010
-5.2914 asbell	-0.3010
-5.2914 asberry	-0.3010
-5.2914 asbestosis(2)	-0.3010
-5.2914 asbill	-0.3010
-5.2914 asbury	-0.3010
-5.2914 ascendance	-0.3010
-5.2914 ascendancy	-0.3010
-5.2914 ascendency	-0.3010
-5.2914 ascends	-0.3010
-5.2914 ascertain	-0.3010
-5.2914 ascertaining	-0.3010
-5.2914 ascetic	-0.3010
-5.2914 asea(2)	-0.3010
-5.2914 aseltine	-0.3010
-5.2914 aseritis	-0.3010
-5.2914 ashaji's	-0.3010
-5.2914 ashbrook	-0.3010
-5.2914 ashburn	-0.3010
-5.2914 ashbury	-0.3010
-5.2914 ashford	-0.3010
-5.2914 ashmead	-0.3010
-5.2914 ashmore	-0.3010
-5.2914 ashrawi	-0.3010
-5.2914 ashtrays	-0.3010
-5.2914 ashurst	-0.3010
-5.2914 asimov's(2)	-0.3010
-5.2914 asinine	-0.3010
-5.2914 askance	-0.3010
-5.2914 asker's	-0.3010
-5.2914 askers'	-0.3010
-5.2914 aslanian	-0.3010
-5.2914 asleson	-0.3010
-5.2914 asmodeus	-0.3010
-5.2914 aspects	-0.3010
-5.2914 aspen's	-0.3010
-5.2914 aspersions	-0.3010
-5.2914 aspin's	-0.3010
-5.2914 aspirants(2)	-0.3010
-5.2914 aspirants(3)	-0.3010
-5.2914 aspirants(4)	-0.3010
-5.2914 aspiration	-0.3010
-5.2914 aspired	-0.3010
-5.2914 aspires	-0.3010
-5.2914 aspirin	-0.3010
-5.2914 asplund	-0.3010
-5.2914 asquith	-0.3010
-5.2914 assad	-0.3010
-5.2914 assaf	-0.3010
-5.2914 assailant's	-0.3010
-5.2914 assailed	-0.3010
-5.2914 assam	-0.3010
-5.2914 assassinate	-0.3010
-5.2914 assassinating	-0.3010
-5.2914 assassination	-0.3010
-5.2914 assassins	-0.3010
-5.2914 assay	-0.3010
-5.2914 assed	-0.3010
-5.2914 assemble	-0.3010
-5.2914 assembly	-0.3010
-5.2914 assemblyman(2)	-0.3010
-5.2914 assertively	-0.3010
-5.2914 asses	-0.3010
-5.2914 assessing	-0.3010
-5.2914 assessments	-0.3010
-5.2914 assessors	-0.3010
-5.2914 asset	-0.3010
-5.2914 asshole	-0.3010
-5.2914 assholes	-0.3010
-5.2914 assicurazioni	-0.3010
-5.2914 assignment	-0.3010
-5.2914 assignment's	-0.3010
-5.2914 assistant	-0.3010
-5.2914 assisted	-0.3010
-5.2914 assisting	-0.3010
-5.2914 associate's	-0.3010
-5.2914 associate's(2)	-0.3010
-5.2914 associates'	-0.3010
-5.2914 assumption	-0.3010
-5.2914 assuring	-0.3010
-5.2914 assyrian	-0.3010
-5.2914 astaire	-0.3010
-5.2914 aster	-0.3010
-5.2914 asteroid's	-0.3010
-5.2914 asthmatic	-0.3010
-5.2914 astin	-0.3010
-5.2914 astle	-0.3010
-5.2914 aston	-0.3010
-5.2914 astonish	-0.3010
-5.2914 astor	-0.3010
-5.2914 astore(2)	-0.3010
-5.2914 astorino	-0.3010
-5.2914 astounding	-0.3010
-5.2914 astoundingly	-0.3010
-5.2914 astra	-0.3010
-5.2914 astraddle	-0.3010
-5.2914 astro	-0.3010
-5.2914 astrogeology	-0.3010
-5.2914 astrology	-0.3010
-5.2914 astronomer	-0.3010
-5.2914 astronomical	-0.3010
-5.2914 astronomically	-0.3010
-5.2914 astrotech	-0.3010
-5.2914 astroturf	-0.3010
-5.2914 astutely	-0.3010
-5.2914 asuncion	-0.3010
-5.2914 aswin	-0.3010
-5.2914 asylum	-0.3010
-5.2914 asymptote(2)	-0.3010
-5.2914 at	-0.3010
-5.2914 atalaya	-0.3010
-5.2914 atari	-0.3010
-5.2914 ataturk	-0.3010
-5.2914 atcheson	-0.3010
-5.2914 atchinson	-0.3010
-5.2914 atchison	-0.3010
-5.2914 atcor	-0.3010
-5.2914 athas	-0.3010
-5.2914 athey	-0.3010
-5.2914 athie	-0.3010
-5.2914 athleticism	-0.3010
-5.2914 atico	-0.3010
-5.2914 atilano	-0.3010
-5.2914 atkerson	-0.3010
-5.2914 atkin	-0.3010
-5.2914 atkins	-0.3010
-5.2914 atkins's	-0.3010
-5.2914 atkinson	-0.3010
-5.2914 atkinson's(2)	-0.3010
-5.2914 atkison	-0.3010
-5.2914 atlan	-0.3010
-5.2914 atlantis(2)	-0.3010
-5.2914 atlas	-0.3010
-5.2914 atlases(2)	-0.3010
-5.2914 atler	-0.3010
-5.2914 atley	-0.3010
-5.2914 atman	-0.3010
-5.2914 atmel	-0.3010
-5.2914 atmosphere	-0.3010
-5.2914 atmospheric	-0.3010
-5.2914 atnip	-0.3010
-5.2914 atocha	-0.3010
-5.2914 atoll	-0.3010
-5.2914 atoms	-0.3010
-5.2914 atone	-0.3010
-5.2914 atria	-0.3010
-5.2914 atrium	-0.3010
-5.2914 atrophied	-0.3010
-5.2914 atrophies	-0.3010
-5.2914 atrophy	-0.3010
-5.2914 attachments	-0.3010
-5.2914 attackers	-0.3010
-5.2914 attacking	-0.3010
-5.2914 attained	-0.3010
-5.2914 attainment	-0.3010
-5.2914 attanasio	-0.3010
-5.2914 attar	-0.3010
-5.2914 attempt	-0.3010
-5.2914 attempted	-0.3010
-5.2914 attenborough	-0.3010
-5.2914 attends	-0.3010
-5.2914 attention	-0.3010
-5.2914 attentive	-0.3010
-5.2914 attenuate	-0.3010
-5.2914 attenuated	-0.3010
-5.2914 attenuates	-0.3010
-5.2914 attermann	-0.3010
-5.2914 attests	-0.3010
-5.2914 attic	-0.3010
-5.2914 atticus	-0.3010
-5.2914 attie	-0.3010
-5.2914 attila's	-0.3010
-5.2914 attired	-0.3010
-5.2914 attitudinal	-0.3010
-5.2914 attracted	-0.3010
-5.2914 attracts	-0.3010
-5.2914 attribute	-0.3010
-5.2914 attribute(2)	-0.3010
-5.2914 attuned	-0.3010
-5.2914 au	-0.3010
-5.2914 aubergine	-0.3010
-5.2914 aubuchon	-0.3010
-5.2914 auctioneer	-0.3010
-5.2914 auctioneering	-0.3010
-5.2914 auctioning	-0.3010
-5.2914 audacity	-0.3010
-5.2914 audi's	-0.3010
-5.2914 audi's(2)	-0.3010
-5.2914 audi(2)	-0.3010
-5.2914 audibles	-0.3010
-5.2914 audino	-0.3010
-5.2914 audiophile	-0.3010
-5.2914 audiotronic	-0.3010
-5.2914 audis(2)	-0.3010
-5.2914 auditioned	-0.3010
-5.2914 audits	-0.3010
-5.2914 audran	-0.3010
-5.2914 audrey	-0.3010
-5.2914 audric	-0.3010
-5.2914 audrie	-0.3010
-5.2914 audris	-0.3010
-5.2914 audwin	-0.3010
-5.2914 augmentable	-0.3010
-5.2914 augmented	-0.3010
-5.2914 augsburg	-0.3010
-5.2914 augurs	-0.3010
-5.2914 august	-0.3010
-5.2914 august's	-0.3010
-5.2914 august(2)	-0.3010
-5.2914 augustin	-0.3010
-5.2914 augustson(2)	-0.3010
-5.2914 augustus	-0.3010
-5.2914 augustus(2)	-0.3010
-5.2914 augustyn	-0.3010
-5.2914 augustyniak	-0.3010
-5.2914 aujourd'hui	-0.3010
-5.2914 aujourd'hui's	-0.3010
-5.2914 aukerman	-0.3010
-5.2914 aulana	-0.3010
-5.2914 aumiller	-0.3010
-5.2914 aunt's(2)	-0.3010
-5.2914 aunts'(2)	-0.3010
-5.2914 aunts(2)	-0.3010
-5.2914 aupperle	-0.3010
-5.2914 aurelio	-0.3010
-5.2914 aureole	-0.3010
-5.2914 auriemma	-0.3010
-5.2914 ausburn	-0.3010
-5.2914 auschwitz(2)	-0.3010
-5.2914 ausley	-0.3010
-5.2914 ausman	-0.3010
-5.2914 ausmus	-0.3010
-5.2914 auspey	-0.3010
-5.2914 aussie	-0.3010
-5.2914 austad	-0.3010
-5.2914 austat	-0.3010
-5.2914 austen	-0.3010
-5.2914 auster	-0.3010
-5.2914 austin	-0.3010
-5.2914 auston	-0.3010
-5.2914 australopithecine	-0.3010
-5.2914 austro	-0.3010
-5.2914 autenrieth	-0.3010
-5.2914 authentic	-0.3010
-5.2914 authentic(2)	-0.3010
-5.2914 authentic(3)	-0.3010
-5.2914 authentic(4)	-0.3010
-5.2914 authentically	-0.3010
-5.2914 authenticated	-0.3010
-5.2914 authenticates	-0.3010
-5.2914 authentications	-0.3010
-5.2914 authoritarian	-0.3010
-5.2914 authoritarianism	-0.3010
-5.2914 authorization	-0.3010
-5.2914 autobiographical	-0.3010
-5.2914 autobiographies	-0.3010
-5.2914 autoclave	-0.3010
-5.2914 autographed	-0.3010
-5.2914 autolatina	-0.3010
-5.2914 automaker	-0.3010
-5.2914 automaker's	-0.3010
-5.2914 automakers'	-0.3010
-5.2914 automated	-0.3010
-5.2914 automates	-0.3010
-5.2914 automatic	-0.3010
-5.2914 automatic(2)	-0.3010
-5.2914 automatix	-0.3010
-5.2914 automaton	-0.3010
-5.2914 automoviles	-0.3010
-5.2914 autonomy(2)	-0.3010
-5.2914 autopart	-0.3010
-5.2914 autopsied	-0.3010
-5.2914 autopsies	-0.3010
-5.2914 autotote	-0.3010
-5.2914 autoworkers	-0.3010
-5.2914 autumn's	-0.3010
-5.2914 autumnal	-0.3010
-5.2914 av	-0.3010
-5.2914 availabilities	-0.3010
-5.2914 avakian	-0.3010
-5.2914 avalanche	-0.3010
-5.2914 avalanches	-0.3010
-5.2914 avallone	-0.3010
-5.2914 avalon	-0.3010
-5.2914 avalos	-0.3010
-5.2914 avana's	-0.3010
-5.2914 avanex	-0.3010
-5.2914 avant-garde	-0.3010
-5.2914 avant-garde(2)	-0.3010
-5.2914 avantek	-0.3010
-5.2914 avanti	-0.3010
-5.2914 avants	-0.3010
-5.2914 avarice	-0.3010
-5.2914 avasso	-0.3010
-5.2914 avatar	-0.3010
-5.2914 avedon	-0.3010
-5.2914 avelar	-0.3010
-5.2914 avella	-0.3010
-5.2914 avemco	-0.3010
-5.2914 avenall	-0.3010
-5.2914 avenel	-0.3010
-5.2914 avenell	-0.3010
-5.2914 avenge	-0.3010
-5.2914 avenged	-0.3010
-5.2914 avenger	-0.3010
-5.2914 avenging	-0.3010
-5.2914 avenue	-0.3010
-5.2914 avenues	-0.3010
-5.2914 average	-0.3010
-5.2914 averaged(2)	-0.3010
-5.2914 averell	-0.3010
-5.2914 averett	-0.3010
-5.2914 averil	-0.3010
-5.2914 averill	-0.3010
-5.2914 averitt	-0.3010
-5.2914 averof	-0.3010
-5.2914 aversa	-0.3010
-5.2914 averse	-0.3010
-5.2914 aversions	-0.3010
-5.2914 averted	-0.3010
-5.2914 averts	-0.3010
-5.2914 avery's	-0.3010
-5.2914 averyl	-0.3010
-5.2914 avi(2)	-0.3010
-5.2914 aviacion	-0.3010
-5.2914 aviall	-0.3010
-5.2914 aviano	-0.3010
-5.2914 aviary	-0.3010
-5.2914 aviazione	-0.3010
-5.2914 avidly	-0.3010
-5.2914 avinger	-0.3010
-5.2914 avocado	-0.3010
-5.2914 avowedly	-0.3010
-5.2914 avtovaz	-0.3010
-5.2914 aw	-0.3010
-5.2914 awaiting	-0.3010
-5.2914 awards	-0.3010
-5.2914 awbrey	-0.3010
-5.2914 aweida	-0.3010
-5.2914 awesome	-0.3010
-5.2914 awesome(2)	-0.3010
-5.2914 awesomely	-0.3010
-5.2914 awesomely(2)	-0.3010
-5.2914 awesomeness	-0.3010
-5.2914 awful	-0.3010
-5.2914 awkwardly	-0.3010
-5.2914 awkwardness	-0.3010
-5.2914 awoke	-0.3010
-5.2914 awtrey	-0.3010
-5.2914 ax	-0.3010
-5.2914 axa's	-0.3010
-5.2914 axelrad	-0.3010
-5.2914 axelrod	-0.3010
-5.2914 axelsen	-0.3010
-5.2914 axelson	-0.3010
-5.2914 axford	-0.3010
-5.2914 axial	-0.3010
-5.2914 axilrod	-0.3010
-5.2914 axiom	-0.3010
-5.2914 axiomatic	-0.3010
-5.2914 axles	-0.3010
-5.2914 axley	-0.3010
-5.2914 axlon	-0.3010
-5.2914 axons	-0.3010
-5.2914 ay	-0.3010
-5.2914 ay(2)	-0.3010
-5.2914 ayacucho	-0.3010
-5.2914 ayatollah	-0.3010
-5.2914 ayatollahs	-0.3010
-5.2914 aycock	-0.3010
-5.2914 ayende(2)	-0.3010
-5.2914 ayer(2)	-0.3010
-5.2914 aygen(2)	-0.3010
-5.2914 aykroyd	-0.3010
-5.2914 aylward	-0.3010
-5.2914 aylwin(2)	-0.3010
-5.2914 ayotte	-0.3010
-5.2914 ayscue	-0.3010
-5.2914 azactam	-0.3010
-5.2914 azerbaijan	-0.3010
-5.2914 azerbaijan(2)	-0.3010
-5.2914 azevedo	-0.3010
-5.2914 azhar's	-0.3010
-5.2914 azidothymidine(2)	-0.3010
-5.2914 azidothymidine(3)	-0.3010
-5.2914 azidothymidine(4)	-0.3010
-5.2914 azinger	-0.3010
-5.2914 azores	-0.3010
-5.2914 azteca	-0.3010
-5.2914 aztecs	-0.3010
-5.2914 b	-0.3010
-5.2914 b'gosh	-0.3010
-5.2914 b'rith	-0.3010
-5.2914 b.	-0.3010
-5.2914 ba	-0.3010
-5.2914 ba'athism	-0.3010
-5.2914 ba'athist	-0.3010
-5.2914 ba'athists	-0.3010
-5.2914 baab	-0.3010
-5.2914 baalbek	-0.3010
-5.2914 baalbeq	-0.3010
-5.2914 baar	-0.3010
-5.2914 baas	-0.3010
-5.2914 baba	-0.3010
-5.2914 babangida	-0.3010
-5.2914 babar's	-0.3010
-5.2914 babb	-0.3010
-5.2914 babbington	-0.3010
-5.2914 babe	-0.3010
-5.2914 babette	-0.3010
-5.2914 babiarz	-0.3010
-5.2914 babies'	-0.3010
-5.2914 babington	-0.3010
-5.2914 babs	-0.3010
-5.2914 babu	-0.3010
-5.2914 babushka	-0.3010
-5.2914 babushkas	-0.3010
-5.2914 baby	-0.3010
-5.2914 baby-sit	-0.3010
-5.2914 baby-sitter	-0.3010
-5.2914 baby-sitters	-0.3010
-5.2914 babylonian	-0.3010
-5.2914 babylonians	-0.3010
-5.2914 babysitter	-0.3010
-5.2914 babysitters	-0.3010
-5.2914 baca	-0.3010
-5.2914 bacall	-0.3010
-5.2914 bacardi	-0.3010
-5.2914 baccalaureate	-0.3010
-5.2914 baccarat	-0.3010
-5.2914 bacchanalia	-0.3010
-5.2914 bacchi	-0.3010
-5.2914 bacci	-0.3010
-5.2914 baccus	-0.3010
-5.2914 bach	-0.3010
-5.2914 bacha	-0.3010
-5.2914 bachar	-0.3010
-5.2914 bacharach	-0.3010
-5.2914 bache	-0.3010
-5.2914 bachelor	-0.3010
-5.2914 bachelor's(2)	-0.3010
-5.2914 bacher	-0.3010
-5.2914 bachmann	-0.3010
-5.2914 bachmeier	-0.3010
-5.2914 bachtell	-0.3010
-5.2914 bachus	-0.3010
-5.2914 bacik	-0.3010
-5.2914 bacino	-0.3010
-5.2914 back	-0.3010
-5.2914 back's	-0.3010
-5.2914 backbiting	-0.3010
-5.2914 backdate	-0.3010
-5.2914 backdoor	-0.3010
-5.2914 backdoors	-0.3010
-5.2914 backdrop	-0.3010
-5.2914 backe	-0.3010
-5.2914 backed	-0.3010
-5.2914 backer	-0.3010
-5.2914 backes	-0.3010
-5.2914 backfield	-0.3010
-5.2914 backfields	-0.3010
-5.2914 backfired	-0.3010
-5.2914 backfires	-0.3010
-5.2914 backhand	-0.3010
-5.2914 backhaus	-0.3010
-5.2914 backlash	-0.3010
-5.2914 backlights	-0.3010
-5.2914 backlisted	-0.3010
-5.2914 backpedals	-0.3010
-5.2914 backs	-0.3010
-5.2914 backsaws	-0.3010
-5.2914 backsaws(2)	-0.3010
-5.2914 backseat	-0.3010
-5.2914 backseats	-0.3010
-5.2914 backside	-0.3010
-5.2914 backsides	-0.3010
-5.2914 backslap	-0.3010
-5.2914 backspin	-0.3010
-5.2914 backstage	-0.3010
-5.2914 backstairs	-0.3010
-5.2914 backstop	-0.3010
-5.2914 backstrom	-0.3010
-5.2914 backtrack	-0.3010
-5.2914 backtracking	-0.3010
-5.2914 backup	-0.3010
-5.2914 backus	-0.3010
-5.2914 backward	-0.3010
-5.2914 backwardation	-0.3010
-5.2914 backwards	-0.3010
-5.2914 backwash	-0.3010
-5.2914 backwater	-0.3010
-5.2914 bacon	-0.3010
-5.2914 bacorn	-0.3010
-5.2914 bacot	-0.3010
-5.2914 bacot(2)	-0.3010
-5.2914 bacote	-0.3010
-5.2914 bacterial	-0.3010
-5.2914 bacterium	-0.3010
-5.2914 bacus	-0.3010
-5.2914 bad-ass	-0.3010
-5.2914 bada	-0.3010
-5.2914 badal	-0.3010
-5.2914 badalamenti	-0.3010
-5.2914 bade	-0.3010
-5.2914 baden	-0.3010
-5.2914 bader	-0.3010
-5.2914 badertscher	-0.3010
-5.2914 badge	-0.3010
-5.2914 badger's	-0.3010
-5.2914 badgered	-0.3010
-5.2914 badgers	-0.3010
-5.2914 badgett	-0.3010
-5.2914 badia	-0.3010
-5.2914 badly	-0.3010
-5.2914 badmintons	-0.3010
-5.2914 badness	-0.3010
-5.2914 badolato	-0.3010
-5.2914 badu	-0.3010
-5.2914 bady	-0.3010
-5.2914 baechle	-0.3010
-5.2914 baecker	-0.3010
-5.2914 baehr	-0.3010
-5.2914 baek	-0.3010
-5.2914 baer	-0.3010
-5.2914 baerwald	-0.3010
-5.2914 baetz	-0.3010
-5.2914 baez	-0.3010
-5.2914 baeza	-0.3010
-5.2914 baffa	-0.3010
-5.2914 baffling(2)	-0.3010
-5.2914 bagan	-0.3010
-5.2914 bagby	-0.3010
-5.2914 bagdad	-0.3010
-5.2914 bagdon	-0.3010
-5.2914 bagel	-0.3010
-5.2914 bagels	-0.3010
-5.2914 bagent	-0.3010
-5.2914 bagful	-0.3010
-5.2914 bagg	-0.3010
-5.2914 bagge	-0.3010
-5.2914 bagged	-0.3010
-5.2914 baggie	-0.3010
-5.2914 baggio	-0.3010
-5.2914 baggs	-0.3010
-5.2914 baggy	-0.3010
-5.2914 baghdad's	-0.3010
-5.2914 baghli	-0.3010
-5.2914 baginski	-0.3010
-5.2914 bagley	-0.3010
-5.2914 baglio	-0.3010
-5.2914 bagman	-0.3010
-5.2914 bagpipe	-0.3010
-5.2914 bags	-0.3010
-5.2914 bagsby	-0.3010
-5.2914 baguette	-0.3010
-5.2914 baham	-0.3010
-5.2914 bahan	-0.3010
-5.2914 bahe	-0.3010
-5.2914 bahia	-0.3010
-5.2914 bahir	-0.3010
-5.2914 bahl	-0.3010
-5.2914 bahls	-0.3010
-5.2914 bahm	-0.3010
-5.2914 bahn	-0.3010
-5.2914 bahnhof	-0.3010
-5.2914 bahnsen	-0.3010
-5.2914 bahr	-0.3010
-5.2914 bahr(2)	-0.3010
-5.2914 bahrain	-0.3010
-5.2914 bahraini(2)	-0.3010
-5.2914 bahraini(3)	-0.3010
-5.2914 bahrainian	-0.3010
-5.2914 bahre	-0.3010
-5.2914 bahrenburg	-0.3010
-5.2914 baht	-0.3010
-5.2914 baidoa's	-0.3010
-5.2914 baidoans	-0.3010
-5.2914 baie	-0.3010
-5.2914 baier	-0.3010
-5.2914 baig	-0.3010
-5.2914 bail	-0.3010
-5.2914 baila	-0.3010
-5.2914 baile	-0.3010
-5.2914 bailiff(2)	-0.3010
-5.2914 bails	-0.3010
-5.2914 baily	-0.3010
-5.2914 baim	-0.3010
-5.2914 bain	-0.3010
-5.2914 baine	-0.3010
-5.2914 bainerd	-0.3010
-5.2914 bains	-0.3010
-5.2914 bainter	-0.3010
-5.2914 bainton	-0.3010
-5.2914 baio	-0.3010
-5.2914 bair	-0.3010
-5.2914 baird	-0.3010
-5.2914 baird's	-0.3010
-5.2914 bairnco	-0.3010
-5.2914 baise	-0.3010
-5.2914 bait	-0.3010
-5.2914 baits	-0.3010
-5.2914 baity	-0.3010
-5.2914 baiul	-0.3010
-5.2914 baize	-0.3010
-5.2914 baja	-0.3010
-5.2914 bajorek	-0.3010
-5.2914 baka	-0.3010
-5.2914 bakalar	-0.3010
-5.2914 bake	-0.3010
-5.2914 bake-off	-0.3010
-5.2914 bake-offs	-0.3010
-5.2914 baked	-0.3010
-5.2914 bakeman	-0.3010
-5.2914 baker	-0.3010
-5.2914 baker's	-0.3010
-5.2914 bakeries	-0.3010
-5.2914 bakers	-0.3010
-5.2914 bakery	-0.3010
-5.2914 bakes	-0.3010
-5.2914 bakey	-0.3010
-5.2914 bakey's	-0.3010
-5.2914 baking	-0.3010
-5.2914 bakke	-0.3010
-5.2914 bakken	-0.3010
-5.2914 bakker	-0.3010
-5.2914 bakkers(2)	-0.3010
-5.2914 bakley	-0.3010
-5.2914 bakos	-0.3010
-5.2914 bakowski	-0.3010
-5.2914 bakrewali	-0.3010
-5.2914 bakrie	-0.3010
-5.2914 bakshi	-0.3010
-5.2914 bakst	-0.3010
-5.2914 baku	-0.3010
-5.2914 bakula	-0.3010
-5.2914 bala	-0.3010
-5.2914 balak	-0.3010
-5.2914 balakumar	-0.3010
-5.2914 balan	-0.3010
-5.2914 balanchine	-0.3010
-5.2914 balanchine's	-0.3010
-5.2914 balas	-0.3010
-5.2914 balbach	-0.3010
-5.2914 balbi	-0.3010
-5.2914 balbina	-0.3010
-5.2914 balbo	-0.3010
-5.2914 balboni	-0.3010
-5.2914 balbriggans	-0.3010
-5.2914 balcerzak	-0.3010
-5.2914 balch	-0.3010
-5.2914 balchunas	-0.3010
-5.2914 bald	-0.3010
-5.2914 balderdash	-0.3010
-5.2914 balderston	-0.3010
-5.2914 baldi	-0.3010
-5.2914 baldness	-0.3010
-5.2914 baldo	-0.3010
-5.2914 baldrige	-0.3010
-5.2914 bale	-0.3010
-5.2914 balentine	-0.3010
-5.2914 baler	-0.3010
-5.2914 bales	-0.3010
-5.2914 balestra	-0.3010
-5.2914 baley	-0.3010
-5.2914 balfanz	-0.3010
-5.2914 balfe	-0.3010
-5.2914 balfour	-0.3010
-5.2914 bali	-0.3010
-5.2914 balicki	-0.3010
-5.2914 balik	-0.3010
-5.2914 balilan	-0.3010
-5.2914 baliles	-0.3010
-5.2914 balin	-0.3010
-5.2914 balis	-0.3010
-5.2914 balk	-0.3010
-5.2914 balkanization	-0.3010
-5.2914 balkanized	-0.3010
-5.2914 balke	-0.3010
-5.2914 balko	-0.3010
-5.2914 balks	-0.3010
-5.2914 balky	-0.3010
-5.2914 ball	-0.3010
-5.2914 balla	-0.3010
-5.2914 ballasts(2)	-0.3010
-5.2914 balle	-0.3010
-5.2914 ballester	-0.3010
-5.2914 ballesteros(2)	-0.3010
-5.2914 balli	-0.3010
-5.2914 ballistic	-0.3010
-5.2914 ballistics	-0.3010
-5.2914 balliwick	-0.3010
-5.2914 ballo	-0.3010
-5.2914 balloting	-0.3010
-5.2914 ballplayers	-0.3010
-5.2914 ballrooms	-0.3010
-5.2914 balls	-0.3010
-5.2914 bally	-0.3010
-5.2914 ballyhoo	-0.3010
-5.2914 ballyhooed	-0.3010
-5.2914 balm	-0.3010
-5.2914 balmorals	-0.3010
-5.2914 balms	-0.3010
-5.2914 balms(2)	-0.3010
-5.2914 balmy	-0.3010
-5.2914 balog	-0.3010
-5.2914 balon	-0.3010
-5.2914 balow	-0.3010
-5.2914 balsa	-0.3010
-5.2914 balsbaugh	-0.3010
-5.2914 baltazar	-0.3010
-5.2914 balto	-0.3010
-5.2914 baltz	-0.3010
-5.2914 baltzer	-0.3010
-5.2914 baluchi	-0.3010
-5.2914 balukas	-0.3010
-5.2914 balyeat	-0.3010
-5.2914 balz	-0.3010
-5.2914 balzarini	-0.3010
-5.2914 bamba	-0.3010
-5.2914 bambi	-0.3010
-5.2914 bambrick	-0.3010
-5.2914 bamburg	-0.3010
-5.2914 bame	-0.3010
-5.2914 bamford	-0.3010
-5.2914 bamut	-0.3010
-5.2914 ban's	-0.3010
-5.2914 banach	-0.3010
-5.2914 banal	-0.3010
-5.2914 banalities	-0.3010
-5.2914 banana	-0.3010
-5.2914 banas	-0.3010
-5.2914 banc	-0.3010
-5.2914 banca	-0.3010
-5.2914 banca(2)	-0.3010
-5.2914 banco	-0.3010
-5.2914 bancoklahoma	-0.3010
-5.2914 bancomer	-0.3010
-5.2914 bancor	-0.3010
-5.2914 bancorp	-0.3010
-5.2914 bancroft's	-0.3010
-5.2914 bancserve	-0.3010
-5.2914 bancshares	-0.3010
-5.2914 banctec	-0.3010
-5.2914 banctexas	-0.3010
-5.2914 band	-0.3010
-5.2914 band's	-0.3010
-5.2914 banda	-0.3010
-5.2914 bandag	-0.3010
-5.2914 bandage	-0.3010
-5.2914 bandaged	-0.3010
-5.2914 bandages	-0.3010
-5.2914 bandai	-0.3010
-5.2914 bandaid	-0.3010
-5.2914 bandana	-0.3010
-5.2914 bandanas	-0.3010
-5.2914 bandar	-0.3010
-5.2914 banded	-0.3010
-5.2914 bandel	-0.3010
-5.2914 bandemer	-0.3010
-5.2914 bander	-0.3010
-5.2914 banderas	-0.3010
-5.2914 bandicoots(2)	-0.3010
-5.2914 bandied	-0.3010
-5.2914 banding	-0.3010
-5.2914 bandit	-0.3010
-5.2914 banditry	-0.3010
-5.2914 bandits	-0.3010
-5.2914 bandleaders	-0.3010
-5.2914 bandow	-0.3010
-5.2914 bands	-0.3010
-5.2914 bandt	-0.3010
-5.2914 bandwidth	-0.3010
-5.2914 bandy	-0.3010
-5.2914 bane	-0.3010
-5.2914 banes	-0.3010
-5.2914 banet	-0.3010
-5.2914 baney	-0.3010
-5.2914 banff	-0.3010
-5.2914 bang	-0.3010
-5.2914 bangala	-0.3010
-5.2914 bange	-0.3010
-5.2914 banged	-0.3010
-5.2914 bangee	-0.3010
-5.2914 banger	-0.3010
-5.2914 bangers	-0.3010
-5.2914 bangert	-0.3010
-5.2914 banghart	-0.3010
-5.2914 banging	-0.3010
-5.2914 bangish	-0.3010
-5.2914 bangkok	-0.3010
-5.2914 bangla	-0.3010
-5.2914 bangle	-0.3010
-5.2914 bangles	-0.3010
-5.2914 bango	-0.3010
-5.2914 bangor	-0.3010
-5.2914 bangor(2)	-0.3010
-5.2914 bangs	-0.3010
-5.2914 banh	-0.3010
-5.2914 bania	-0.3010
-5.2914 banick	-0.3010
-5.2914 banik	-0.3010
-5.2914 banis	-0.3010
-5.2914 banish	-0.3010
-5.2914 banja	-0.3010
-5.2914 banjo	-0.3010
-5.2914 bank	-0.3010
-5.2914 bank's	-0.3010
-5.2914 bankamerica	-0.3010
-5.2914 bankamerica's	-0.3010
-5.2914 bankatlantic	-0.3010
-5.2914 bankcard	-0.3010
-5.2914 bankcorp	-0.3010
-5.2914 banke	-0.3010
-5.2914 banked	-0.3010
-5.2914 banken	-0.3010
-5.2914 banker	-0.3010
-5.2914 bankers	-0.3010
-5.2914 bankert	-0.3010
-5.2914 bankes	-0.3010
-5.2914 bankey	-0.3010
-5.2914 banking	-0.3010
-5.2914 banknote	-0.3010
-5.2914 banko	-0.3010
-5.2914 bankroll	-0.3010
-5.2914 bankrolling	-0.3010
-5.2914 bankrupt	-0.3010
-5.2914 banks	-0.3010
-5.2914 banks'	-0.3010
-5.2914 banks's	-0.3010
-5.2914 bankson	-0.3010
-5.2914 bann	-0.3010
-5.2914 bannan	-0.3010
-5.2914 banned	-0.3010
-5.2914 banner	-0.3010
-5.2914 bannings	-0.3010
-5.2914 bannister	-0.3010
-5.2914 bannon	-0.3010
-5.2914 banos	-0.3010
-5.2914 banoun	-0.3010
-5.2914 banponce	-0.3010
-5.2914 banque	-0.3010
-5.2914 bans	-0.3010
-5.2914 bansal	-0.3010
-5.2914 banshee	-0.3010
-5.2914 banta	-0.3010
-5.2914 bantam	-0.3010
-5.2914 banter	-0.3010
-5.2914 bantering	-0.3010
-5.2914 bantle	-0.3010
-5.2914 banton	-0.3010
-5.2914 bantu	-0.3010
-5.2914 bantz	-0.3010
-5.2914 banville	-0.3010
-5.2914 banwart	-0.3010
-5.2914 banya	-0.3010
-5.2914 banya(2)	-0.3010
-5.2914 banyan	-0.3010
-5.2914 banyas	-0.3010
-5.2914 banyu	-0.3010
-5.2914 banzhaf	-0.3010
-5.2914 bapna	-0.3010
-5.2914 baptism	-0.3010
-5.2914 baptismal	-0.3010
-5.2914 baptisms	-0.3010
-5.2914 baptist	-0.3010
-5.2914 baptista	-0.3010
-5.2914 baptiste	-0.3010
-5.2914 baptists	-0.3010
-5.2914 baptize	-0.3010
-5.2914 baptized	-0.3010
-5.2914 bar's	-0.3010
-5.2914 bara	-0.3010
-5.2914 barach	-0.3010
-5.2914 barack	-0.3010
-5.2914 baraff	-0.3010
-5.2914 baragi	-0.3010
-5.2914 barak	-0.3010
-5.2914 baram	-0.3010
-5.2914 baran	-0.3010
-5.2914 baranski	-0.3010
-5.2914 barany	-0.3010
-5.2914 barash	-0.3010
-5.2914 barath	-0.3010
-5.2914 barb	-0.3010
-5.2914 barb's	-0.3010
-5.2914 barba	-0.3010
-5.2914 barbagallo	-0.3010
-5.2914 barbaric(2)	-0.3010
-5.2914 barbe	-0.3010
-5.2914 barbecue's	-0.3010
-5.2914 barbecued	-0.3010
-5.2914 barbecueing	-0.3010
-5.2914 barbecues	-0.3010
-5.2914 barbecuing	-0.3010
-5.2914 barbed	-0.3010
-5.2914 barbee	-0.3010
-5.2914 barbel	-0.3010
-5.2914 barber	-0.3010
-5.2914 barbie	-0.3010
-5.2914 barbin	-0.3010
-5.2914 barbiturate	-0.3010
-5.2914 barbiturates	-0.3010
-5.2914 barbo	-0.3010
-5.2914 barbra	-0.3010
-5.2914 barbre	-0.3010
-5.2914 barbs	-0.3010
-5.2914 barby	-0.3010
-5.2914 barca	-0.3010
-5.2914 barcellos	-0.3010
-5.2914 barcelo	-0.3010
-5.2914 barcelona	-0.3010
-5.2914 barch	-0.3010
-5.2914 barcia	-0.3010
-5.2914 barclay	-0.3010
-5.2914 barclays	-0.3010
-5.2914 barclays's	-0.3010
-5.2914 barclift	-0.3010
-5.2914 barco	-0.3010
-5.2914 barco's	-0.3010
-5.2914 barcomb	-0.3010
-5.2914 barcus	-0.3010
-5.2914 barczak	-0.3010
-5.2914 bard	-0.3010
-5.2914 bard's	-0.3010
-5.2914 barden	-0.3010
-5.2914 bardin	-0.3010
-5.2914 bardo	-0.3010
-5.2914 bardon	-0.3010
-5.2914 bare	-0.3010
-5.2914 bared	-0.3010
-5.2914 barefield(2)	-0.3010
-5.2914 barefoot	-0.3010
-5.2914 bareis	-0.3010
-5.2914 barela	-0.3010
-5.2914 barely	-0.3010
-5.2914 barenboim	-0.3010
-5.2914 barenboim's	-0.3010
-5.2914 barens	-0.3010
-5.2914 bares	-0.3010
-5.2914 barest	-0.3010
-5.2914 barey	-0.3010
-5.2914 barf	-0.3010
-5.2914 barfknecht	-0.3010
-5.2914 barfknecht(2)	-0.3010
-5.2914 barg	-0.3010
-5.2914 barga	-0.3010
-5.2914 bargain	-0.3010
-5.2914 bargain(2)	-0.3010
-5.2914 bargained	-0.3010
-5.2914 bargainer	-0.3010
-5.2914 bargains(2)	-0.3010
-5.2914 bargar	-0.3010
-5.2914 bargas	-0.3010
-5.2914 barge	-0.3010
-5.2914 barged	-0.3010
-5.2914 barger	-0.3010
-5.2914 barges	-0.3010
-5.2914 barging	-0.3010
-5.2914 bargman	-0.3010
-5.2914 bargo	-0.3010
-5.2914 barham	-0.3010
-5.2914 bari	-0.3010
-5.2914 bari's	-0.3010
-5.2914 baribeau	-0.3010
-5.2914 barich	-0.3010
-5.2914 baril	-0.3010
-5.2914 barile	-0.3010
-5.2914 barillari	-0.3010
-5.2914 baring	-0.3010
-5.2914 baris	-0.3010
-5.2914 barish	-0.3010
-5.2914 barite	-0.3010
-5.2914 baritones	-0.3010
-5.2914 barium	-0.3010
-5.2914 bark	-0.3010
-5.2914 barkai	-0.3010
-5.2914 barkan	-0.3010
-5.2914 barke	-0.3010
-5.2914 barked	-0.3010
-5.2914 barker	-0.3010
-5.2914 barkers	-0.3010
-5.2914 barkes	-0.3010
-5.2914 barkett	-0.3010
-5.2914 barkey	-0.3010
-5.2914 barkin	-0.3010
-5.2914 barking	-0.3010
-5.2914 barkley	-0.3010
-5.2914 barklow	-0.3010
-5.2914 barkman	-0.3010
-5.2914 barko	-0.3010
-5.2914 barkocy	-0.3010
-5.2914 barkow	-0.3010
-5.2914 barks	-0.3010
-5.2914 barkus	-0.3010
-5.2914 barley	-0.3010
-5.2914 barlow	-0.3010
-5.2914 barman	-0.3010
-5.2914 barn	-0.3010
-5.2914 barna	-0.3010
-5.2914 barnas	-0.3010
-5.2914 barndt	-0.3010
-5.2914 barnell	-0.3010
-5.2914 barner	-0.3010
-5.2914 barnes	-0.3010
-5.2914 barnet	-0.3010
-5.2914 barnett	-0.3010
-5.2914 barney	-0.3010
-5.2914 barneys	-0.3010
-5.2914 barnfield	-0.3010
-5.2914 barnick	-0.3010
-5.2914 barnish	-0.3010
-5.2914 barno	-0.3010
-5.2914 barnowski	-0.3010
-5.2914 barns	-0.3010
-5.2914 barnum	-0.3010
-5.2914 barny	-0.3010
-5.2914 barnyard	-0.3010
-5.2914 baro	-0.3010
-5.2914 baroid	-0.3010
-5.2914 baron	-0.3010
-5.2914 barone	-0.3010
-5.2914 barone's	-0.3010
-5.2914 baroness	-0.3010
-5.2914 baronets	-0.3010
-5.2914 baroni	-0.3010
-5.2914 barons	-0.3010
-5.2914 baros	-0.3010
-5.2914 barovsky	-0.3010
-5.2914 barr	-0.3010
-5.2914 barr's	-0.3010
-5.2914 barra	-0.3010
-5.2914 barrack	-0.3010
-5.2914 barraco	-0.3010
-5.2914 barradino	-0.3010
-5.2914 barrage	-0.3010
-5.2914 barras	-0.3010
-5.2914 barrasso	-0.3010
-5.2914 barratt	-0.3010
-5.2914 barraza	-0.3010
-5.2914 barre	-0.3010
-5.2914 barreca	-0.3010
-5.2914 barred	-0.3010
-5.2914 barreda	-0.3010
-5.2914 barreiro	-0.3010
-5.2914 barrel	-0.3010
-5.2914 barrel(2)	-0.3010
-5.2914 barreled	-0.3010
-5.2914 barreled(2)	-0.3010
-5.2914 barreling	-0.3010
-5.2914 barrell	-0.3010
-5.2914 barrels	-0.3010
-5.2914 barren	-0.3010
-5.2914 barrens	-0.3010
-5.2914 barrera	-0.3010
-5.2914 barreras	-0.3010
-5.2914 barres	-0.3010
-5.2914 barresi	-0.3010
-5.2914 barret	-0.3010
-5.2914 barreto	-0.3010
-5.2914 barrett	-0.3010
-5.2914 barrett(2)	-0.3010
-5.2914 barretta	-0.3010
-5.2914 barrette	-0.3010
-5.2914 barretto	-0.3010
-5.2914 barricada	-0.3010
-5.2914 barricade	-0.3010
-5.2914 barricaded	-0.3010
-5.2914 barricades	-0.3010
-5.2914 barrick	-0.3010
-5.2914 barrick's	-0.3010
-5.2914 barrick's(2)	-0.3010
-5.2914 barrie	-0.3010
-5.2914 barrie(2)	-0.3010
-5.2914 barrientes	-0.3010
-5.2914 barrientez	-0.3010
-5.2914 barrientos	-0.3010
-5.2914 barrier	-0.3010
-5.2914 barrier(2)	-0.3010
-5.2914 barriere	-0.3010
-5.2914 barriers	-0.3010
-5.2914 barriga	-0.3010
-5.2914 barriger	-0.3010
-5.2914 barrilleaux	-0.3010
-5.2914 barring	-0.3010
-5.2914 barrings	-0.3010
-5.2914 barrington(2)	-0.3010
-5.2914 barrio	-0.3010
-5.2914 barrios	-0.3010
-5.2914 barrios(2)	-0.3010
-5.2914 barris	-0.3010
-5.2914 barrish	-0.3010
-5.2914 barrister	-0.3010
-5.2914 barritt	-0.3010
-5.2914 barro	-0.3010
-5.2914 barron	-0.3010
-5.2914 barrone	-0.3010
-5.2914 barroom	-0.3010
-5.2914 barros	-0.3010
-5.2914 barroso	-0.3010
-5.2914 barrow	-0.3010
-5.2914 barrows	-0.3010
-5.2914 barrs	-0.3010
-5.2914 barrus	-0.3010
-5.2914 barry	-0.3010
-5.2914 barry's	-0.3010
-5.2914 barrymore	-0.3010
-5.2914 bars	-0.3010
-5.2914 barsamian	-0.3010
-5.2914 barsch	-0.3010
-5.2914 barschel	-0.3010
-5.2914 barsh	-0.3010
-5.2914 barsky	-0.3010
-5.2914 barsness	-0.3010
-5.2914 barson	-0.3010
-5.2914 bart	-0.3010
-5.2914 bart's	-0.3010
-5.2914 barta	-0.3010
-5.2914 bartak	-0.3010
-5.2914 bartee	-0.3010
-5.2914 bartek	-0.3010
-5.2914 bartel	-0.3010
-5.2914 barten	-0.3010
-5.2914 bartender	-0.3010
-5.2914 bartenders	-0.3010
-5.2914 barter	-0.3010
-5.2914 barth	-0.3010
-5.2914 bartha	-0.3010
-5.2914 barthelme	-0.3010
-5.2914 bartholomay	-0.3010
-5.2914 bartholomew	-0.3010
-5.2914 bartko	-0.3010
-5.2914 bartl	-0.3010
-5.2914 bartle	-0.3010
-5.2914 bartlesville	-0.3010
-5.2914 barto	-0.3010
-5.2914 bartok	-0.3010
-5.2914 bartol	-0.3010
-5.2914 barton	-0.3010
-5.2914 barton's	-0.3010
-5.2914 bartoo	-0.3010
-5.2914 bartos	-0.3010
-5.2914 bartosch	-0.3010
-5.2914 bartosik	-0.3010
-5.2914 bartow	-0.3010
-5.2914 barts	-0.3010
-5.2914 bartus	-0.3010
-5.2914 bartz	-0.3010
-5.2914 baruch	-0.3010
-5.2914 barz	-0.3010
-5.2914 bas-reliefs(2)	-0.3010
-5.2914 basa	-0.3010
-5.2914 basal	-0.3010
-5.2914 basam	-0.3010
-5.2914 basch	-0.3010
-5.2914 basco	-0.3010
-5.2914 base	-0.3010
-5.2914 baseball's	-0.3010
-5.2914 baseboards	-0.3010
-5.2914 based	-0.3010
-5.2914 basel	-0.3010
-5.2914 baser	-0.3010
-5.2914 bases	-0.3010
-5.2914 bases(2)	-0.3010
-5.2914 bases(3)	-0.3010
-5.2914 basey	-0.3010
-5.2914 bash	-0.3010
-5.2914 basha	-0.3010
-5.2914 bashers	-0.3010
-5.2914 bashford	-0.3010
-5.2914 bashful	-0.3010
-5.2914 bashing	-0.3010
-5.2914 bashore	-0.3010
-5.2914 basi	-0.3010
-5.2914 basi(2)	-0.3010
-5.2914 basic	-0.3010
-5.2914 basie	-0.3010
-5.2914 basil	-0.3010
-5.2914 basim	-0.3010
-5.2914 basin	-0.3010
-5.2914 basinger	-0.3010
-5.2914 basinski	-0.3010
-5.2914 basis	-0.3010
-5.2914 basis(2)	-0.3010
-5.2914 basix	-0.3010
-5.2914 bask	-0.3010
-5.2914 basketball	-0.3010
-5.2914 basketballs	-0.3010
-5.2914 baskets	-0.3010
-5.2914 baskett	-0.3010
-5.2914 basking	-0.3010
-5.2914 baskins	-0.3010
-5.2914 basks	-0.3010
-5.2914 basle	-0.3010
-5.2914 bason	-0.3010
-5.2914 basra	-0.3010
-5.2914 bass	-0.3010
-5.2914 bassa	-0.3010
-5.2914 basse	-0.3010
-5.2914 bassett	-0.3010
-5.2914 bassham	-0.3010
-5.2914 bassi	-0.3010
-5.2914 bassist	-0.3010
-5.2914 bassler	-0.3010
-5.2914 bassman	-0.3010
-5.2914 basso	-0.3010
-5.2914 bassoon	-0.3010
-5.2914 bassoonist	-0.3010
-5.2914 bast	-0.3010
-5.2914 basta	-0.3010
-5.2914 bastards	-0.3010
-5.2914 baste	-0.3010
-5.2914 bastogne's	-0.3010
-5.2914 basu	-0.3010
-5.2914 baswell	-0.3010
-5.2914 basye	-0.3010
-5.2914 batan	-0.3010
-5.2914 batat	-0.3010
-5.2914 batavia	-0.3010
-5.2914 batavia(2)	-0.3010
-5.2914 batch	-0.3010
-5.2914 batchelor	-0.3010
-5.2914 batches(2)	-0.3010
-5.2914 bate	-0.3010
-5.2914 bated	-0.3010
-5.2914 bateman	-0.3010
-5.2914 bates	-0.3010
-5.2914 bateson	-0.3010
-5.2914 bateson(2)	-0.3010
-5.2914 bateson(3)	-0.3010
-5.2914 batey	-0.3010
-5.2914 bath	-0.3010
-5.2914 bathe	-0.3010
-5.2914 bathgate	-0.3010
-5.2914 bathing	-0.3010
-5.2914 batholith	-0.3010
-5.2914 bathrick	-0.3010
-5.2914 bathrobe	-0.3010
-5.2914 bathrobes	-0.3010
-5.2914 bathroom	-0.3010
-5.2914 baths	-0.3010
-5.2914 bathsheba	-0.3010
-5.2914 bathtub	-0.3010
-5.2914 batibot	-0.3010
-5.2914 batie	-0.3010
-5.2914 batik	-0.3010
-5.2914 batista's	-0.3010
-5.2914 baton	-0.3010
-5.2914 baton(2)	-0.3010
-5.2914 baton(3)	-0.3010
-5.2914 bator	-0.3010
-5.2914 batra	-0.3010
-5.2914 bats	-0.3010
-5.2914 batt	-0.3010
-5.2914 battalion	-0.3010
-5.2914 batte	-0.3010
-5.2914 battelle	-0.3010
-5.2914 battenberg	-0.3010
-5.2914 battenfield	-0.3010
-5.2914 battered	-0.3010
-5.2914 batterer	-0.3010
-5.2914 batters	-0.3010
-5.2914 battery	-0.3010
-5.2914 battiato	-0.3010
-5.2914 batting	-0.3010
-5.2914 battipaglia	-0.3010
-5.2914 battison	-0.3010
-5.2914 battista	-0.3010
-5.2914 battiste	-0.3010
-5.2914 battisti	-0.3010
-5.2914 battled	-0.3010
-5.2914 battlefield	-0.3010
-5.2914 battlefields	-0.3010
-5.2914 battlegrounds	-0.3010
-5.2914 battles	-0.3010
-5.2914 battleships	-0.3010
-5.2914 batts	-0.3010
-5.2914 batty	-0.3010
-5.2914 batus	-0.3010
-5.2914 batus(2)	-0.3010
-5.2914 baty	-0.3010
-5.2914 batz	-0.3010
-5.2914 baubles	-0.3010
-5.2914 bauch	-0.3010
-5.2914 baucus(2)	-0.3010
-5.2914 baud	-0.3010
-5.2914 baudouin	-0.3010
-5.2914 bauer	-0.3010
-5.2914 bauerle	-0.3010
-5.2914 bauernfeind	-0.3010
-5.2914 baugh	-0.3010
-5.2914 bauknecht	-0.3010
-5.2914 bauknight	-0.3010
-5.2914 baum	-0.3010
-5.2914 baumann	-0.3010
-5.2914 baumert	-0.3010
-5.2914 baumgardner	-0.3010
-5.2914 baumgardt	-0.3010
-5.2914 baumgarner	-0.3010
-5.2914 baumgarner(2)	-0.3010
-5.2914 baumgart(2)	-0.3010
-5.2914 baumgartner	-0.3010
-5.2914 baumler	-0.3010
-5.2914 baun	-0.3010
-5.2914 baur	-0.3010
-5.2914 baur(2)	-0.3010
-5.2914 baus	-0.3010
-5.2914 bautz	-0.3010
-5.2914 bautzer	-0.3010
-5.2914 bauza	-0.3010
-5.2914 bava	-0.3010
-5.2914 bavaria's	-0.3010
-5.2914 bavarian	-0.3010
-5.2914 bavaro	-0.3010
-5.2914 baver	-0.3010
-5.2914 bavis	-0.3010
-5.2914 bawd	-0.3010
-5.2914 bawdy	-0.3010
-5.2914 bawer	-0.3010
-5.2914 bawl	-0.3010
-5.2914 bawls	-0.3010
-5.2914 baxa	-0.3010
-5.2914 baxendale	-0.3010
-5.2914 baxt	-0.3010
-5.2914 baxter's	-0.3010
-5.2914 bay's	-0.3010
-5.2914 bayar	-0.3010
-5.2914 baybank	-0.3010
-5.2914 baydhabo	-0.3010
-5.2914 baye	-0.3010
-5.2914 bayed	-0.3010
-5.2914 bayer	-0.3010
-5.2914 bayer's	-0.3010
-5.2914 bayes	-0.3010
-5.2914 bayh	-0.3010
-5.2914 bayle	-0.3010
-5.2914 bayly	-0.3010
-5.2914 bayne	-0.3010
-5.2914 bayog	-0.3010
-5.2914 bayonets	-0.3010
-5.2914 bayou	-0.3010
-5.2914 bayreuth	-0.3010
-5.2914 bays	-0.3010
-5.2914 bayse	-0.3010
-5.2914 baytown	-0.3010
-5.2914 baytree	-0.3010
-5.2914 bayuk	-0.3010
-5.2914 bayul	-0.3010
-5.2914 bayus	-0.3010
-5.2914 baywatch	-0.3010
-5.2914 bazaar	-0.3010
-5.2914 bazan	-0.3010
-5.2914 bazar	-0.3010
-5.2914 baze	-0.3010
-5.2914 bazhan	-0.3010
-5.2914 bazile	-0.3010
-5.2914 bazile(2)	-0.3010
-5.2914 bazookas	-0.3010
-5.2914 bazzle	-0.3010
-5.2914 bbc's	-0.3010
-5.2914 bc	-0.3010
-5.2914 be	-0.3010
-5.2914 be's	-0.3010
-5.2914 beach	-0.3010
-5.2914 beaches(2)	-0.3010
-5.2914 beachfront	-0.3010
-5.2914 beachhead	-0.3010
-5.2914 beachheads	-0.3010
-5.2914 beachside	-0.3010
-5.2914 bead	-0.3010
-5.2914 beading	-0.3010
-5.2914 beadles	-0.3010
-5.2914 beads	-0.3010
-5.2914 beady	-0.3010
-5.2914 beahm	-0.3010
-5.2914 beak	-0.3010
-5.2914 beakman	-0.3010
-5.2914 beakman's	-0.3010
-5.2914 beaks	-0.3010
-5.2914 beal	-0.3010
-5.2914 beale	-0.3010
-5.2914 beall	-0.3010
-5.2914 beals	-0.3010
-5.2914 beam	-0.3010
-5.2914 beams	-0.3010
-5.2914 bean	-0.3010
-5.2914 beane	-0.3010
-5.2914 beans	-0.3010
-5.2914 bear	-0.3010
-5.2914 beara	-0.3010
-5.2914 beard	-0.3010
-5.2914 beardslee	-0.3010
-5.2914 beardsley	-0.3010
-5.2914 beare	-0.3010
-5.2914 bears	-0.3010
-5.2914 beary	-0.3010
-5.2914 beas	-0.3010
-5.2914 beasley	-0.3010
-5.2914 beast	-0.3010
-5.2914 beastie	-0.3010
-5.2914 beastly	-0.3010
-5.2914 beaston	-0.3010
-5.2914 beat	-0.3010
-5.2914 beata	-0.3010
-5.2914 beatings	-0.3010
-5.2914 beato	-0.3010
-5.2914 beats	-0.3010
-5.2914 beatty(2)	-0.3010
-5.2914 beaty	-0.3010
-5.2914 beau	-0.3010
-5.2914 beaubien	-0.3010
-5.2914 beauchaine	-0.3010
-5.2914 beauford	-0.3010
-5.2914 beaufort	-0.3010
-5.2914 beaumont	-0.3010
-5.2914 beautician	-0.3010
-5.2914 beautiful	-0.3010
-5.2914 beautifully	-0.3010
-5.2914 beauvais	-0.3010
-5.2914 beaux	-0.3010
-5.2914 bebb	-0.3010
-5.2914 bebe	-0.3010
-5.2914 bebee	-0.3010
-5.2914 beber	-0.3010
-5.2914 bebitch	-0.3010
-5.2914 bebop	-0.3010
-5.2914 bebout	-0.3010
-5.2914 becalm	-0.3010
-5.2914 became	-0.3010
-5.2914 became(2)	-0.3010
-5.2914 because(2)	-0.3010
-5.2914 because(3)	-0.3010
-5.2914 becca	-0.3010
-5.2914 becerra	-0.3010
-5.2914 becher	-0.3010
-5.2914 becherer	-0.3010
-5.2914 becht	-0.3010
-5.2914 bechtold	-0.3010
-5.2914 beck	-0.3010
-5.2914 beck's	-0.3010
-5.2914 becka	-0.3010
-5.2914 beckel	-0.3010
-5.2914 becker	-0.3010
-5.2914 becket	-0.3010
-5.2914 becki	-0.3010
-5.2914 beckie	-0.3010
-5.2914 beckom	-0.3010
-5.2914 beckon	-0.3010
-5.2914 beckoned	-0.3010
-5.2914 becks	-0.3010
-5.2914 beckstead	-0.3010
-5.2914 beckum	-0.3010
-5.2914 beckwith	-0.3010
-5.2914 beckwitt	-0.3010
-5.2914 beckworth	-0.3010
-5.2914 becky	-0.3010
-5.2914 becnel	-0.3010
-5.2914 beco	-0.3010
-5.2914 become	-0.3010
-5.2914 becor	-0.3010
-5.2914 beda	-0.3010
-5.2914 bedbugs	-0.3010
-5.2914 beddingfield	-0.3010
-5.2914 bede	-0.3010
-5.2914 bedecked	-0.3010
-5.2914 bedel	-0.3010
-5.2914 bedford	-0.3010
-5.2914 bedgood	-0.3010
-5.2914 bedinger	-0.3010
-5.2914 bedke	-0.3010
-5.2914 bednarczyk	-0.3010
-5.2914 bednarz	-0.3010
-5.2914 bednorz	-0.3010
-5.2914 bedrock	-0.3010
-5.2914 bedroom	-0.3010
-5.2914 bedrosian(2)	-0.3010
-5.2914 beds	-0.3010
-5.2914 bee's	-0.3010
-5.2914 beebe	-0.3010
-5.2914 beeby	-0.3010
-5.2914 beech	-0.3010
-5.2914 beechwood	-0.3010
-5.2914 beeck	-0.3010
-5.2914 beecroft	-0.3010
-5.2914 beede	-0.3010
-5.2914 beedy	-0.3010
-5.2914 beef	-0.3010
-5.2914 beefs	-0.3010
-5.2914 beefsteak	-0.3010
-5.2914 beefy	-0.3010
-5.2914 beeghly	-0.3010
-5.2914 beek	-0.3010
-5.2914 beekeeper	-0.3010
-5.2914 beekman	-0.3010
-5.2914 beeks	-0.3010
-5.2914 beel	-0.3010
-5.2914 beem	-0.3010
-5.2914 been	-0.3010
-5.2914 beene	-0.3010
-5.2914 beens	-0.3010
-5.2914 beep	-0.3010
-5.2914 beeps	-0.3010
-5.2914 beer	-0.3010
-5.2914 beers	-0.3010
-5.2914 beery	-0.3010
-5.2914 bees	-0.3010
-5.2914 beese	-0.3010
-5.2914 beesley	-0.3010
-5.2914 beet	-0.3010
-5.2914 beetlejuice	-0.3010
-5.2914 beets	-0.3010
-5.2914 beezley	-0.3010
-5.2914 befall	-0.3010
-5.2914 befalls	-0.3010
-5.2914 befalto	-0.3010
-5.2914 befell	-0.3010
-5.2914 beffa	-0.3010
-5.2914 befit	-0.3010
-5.2914 befits	-0.3010
-5.2914 before	-0.3010
-5.2914 before(2)	-0.3010
-5.2914 befort	-0.3010
-5.2914 befriend	-0.3010
-5.2914 befuddle	-0.3010
-5.2914 begajah	-0.3010
-5.2914 begala	-0.3010
-5.2914 began	-0.3010
-5.2914 begat	-0.3010
-5.2914 begay	-0.3010
-5.2914 begel	-0.3010
-5.2914 begeman	-0.3010
-5.2914 beger	-0.3010
-5.2914 beget	-0.3010
-5.2914 begets	-0.3010
-5.2914 begg	-0.3010
-5.2914 beggar	-0.3010
-5.2914 begged	-0.3010
-5.2914 beggs	-0.3010
-5.2914 begin	-0.3010
-5.2914 begin's	-0.3010
-5.2914 begonias	-0.3010
-5.2914 begot	-0.3010
-5.2914 begrudge	-0.3010
-5.2914 begs	-0.3010
-5.2914 begue	-0.3010
-5.2914 beguile	-0.3010
-5.2914 begun	-0.3010
-5.2914 behan	-0.3010
-5.2914 behar	-0.3010
-5.2914 behaviorally	-0.3010
-5.2914 behaviorists	-0.3010
-5.2914 beheading	-0.3010
-5.2914 behemoths	-0.3010
-5.2914 behl	-0.3010
-5.2914 behle	-0.3010
-5.2914 behm	-0.3010
-5.2914 behn	-0.3010
-5.2914 behne	-0.3010
-5.2914 behning	-0.3010
-5.2914 behnken	-0.3010
-5.2914 behof	-0.3010
-5.2914 beholden	-0.3010
-5.2914 beholder	-0.3010
-5.2914 behooves	-0.3010
-5.2914 behr	-0.3010
-5.2914 behrend	-0.3010
-5.2914 behrens	-0.3010
-5.2914 behring	-0.3010
-5.2914 behringwerke	-0.3010
-5.2914 behrman	-0.3010
-5.2914 behunin	-0.3010
-5.2914 behymer	-0.3010
-5.2914 beier	-0.3010
-5.2914 beige	-0.3010
-5.2914 beige's	-0.3010
-5.2914 beil	-0.3010
-5.2914 beilenson	-0.3010
-5.2914 beilfuss	-0.3010
-5.2914 beilin(2)	-0.3010
-5.2914 beim	-0.3010
-5.2914 bein	-0.3010
-5.2914 bein'	-0.3010
-5.2914 beine	-0.3010
-5.2914 being	-0.3010
-5.2914 beiny	-0.3010
-5.2914 beira	-0.3010
-5.2914 beiswenger	-0.3010
-5.2914 beit	-0.3010
-5.2914 beit(2)	-0.3010
-5.2914 beitler(2)	-0.3010
-5.2914 beitz	-0.3010
-5.2914 bejar	-0.3010
-5.2914 beji	-0.3010
-5.2914 bekaa	-0.3010
-5.2914 bekaert	-0.3010
-5.2914 beker	-0.3010
-5.2914 beker's	-0.3010
-5.2914 bekki	-0.3010
-5.2914 bel'c	-0.3010
-5.2914 bela	-0.3010
-5.2914 belak	-0.3010
-5.2914 belatedly	-0.3010
-5.2914 belch	-0.3010
-5.2914 beleaguered	-0.3010
-5.2914 belem	-0.3010
-5.2914 belen	-0.3010
-5.2914 belet	-0.3010
-5.2914 belew	-0.3010
-5.2914 belfast	-0.3010
-5.2914 belford	-0.3010
-5.2914 belgacom	-0.3010
-5.2914 belgarde	-0.3010
-5.2914 belge	-0.3010
-5.2914 belgians	-0.3010
-5.2914 belgique	-0.3010
-5.2914 belgium's	-0.3010
-5.2914 belgo	-0.3010
-5.2914 beli	-0.3010
-5.2914 belie	-0.3010
-5.2914 beligerence	-0.3010
-5.2914 belin	-0.3010
-5.2914 belinda	-0.3010
-5.2914 belinsky	-0.3010
-5.2914 belisle	-0.3010
-5.2914 belittled	-0.3010
-5.2914 belittles	-0.3010
-5.2914 belittling	-0.3010
-5.2914 belittling(2)	-0.3010
-5.2914 beliveau	-0.3010
-5.2914 belk	-0.3010
-5.2914 belka	-0.3010
-5.2914 belkacem	-0.3010
-5.2914 belke	-0.3010
-5.2914 belko	-0.3010
-5.2914 bell	-0.3010
-5.2914 bella	-0.3010
-5.2914 bellavia	-0.3010
-5.2914 bellcore's	-0.3010
-5.2914 belle	-0.3010
-5.2914 bellerose	-0.3010
-5.2914 bellevue	-0.3010
-5.2914 belli	-0.3010
-5.2914 bellicose	-0.3010
-5.2914 bellinger	-0.3010
-5.2914 bellingham	-0.3010
-5.2914 bellinghausen	-0.3010
-5.2914 bellini's	-0.3010
-5.2914 bellissimo	-0.3010
-5.2914 belliveau	-0.3010
-5.2914 bellizzi	-0.3010
-5.2914 bellm	-0.3010
-5.2914 bellmore	-0.3010
-5.2914 bello	-0.3010
-5.2914 bellowing	-0.3010
-5.2914 bells	-0.3010
-5.2914 bellsouth	-0.3010
-5.2914 bellsouth's	-0.3010
-5.2914 bellucci	-0.3010
-5.2914 belluomini	-0.3010
-5.2914 belly	-0.3010
-5.2914 bellyache	-0.3010
-5.2914 bellyaching	-0.3010
-5.2914 belmont	-0.3010
-5.2914 belmore	-0.3010
-5.2914 belo	-0.3010
-5.2914 belov	-0.3010
-5.2914 below	-0.3010
-5.2914 bels	-0.3010
-5.2914 belt	-0.3010
-5.2914 belted(2)	-0.3010
-5.2914 belth	-0.3010
-5.2914 belts	-0.3010
-5.2914 beltz	-0.3010
-5.2914 belue	-0.3010
-5.2914 belushi	-0.3010
-5.2914 belva	-0.3010
-5.2914 bely	-0.3010
-5.2914 belying	-0.3010
-5.2914 belz	-0.3010
-5.2914 belzberg	-0.3010
-5.2914 beman	-0.3010
-5.2914 bemis	-0.3010
-5.2914 bemoaned	-0.3010
-5.2914 ben's	-0.3010
-5.2914 bena	-0.3010
-5.2914 benackova	-0.3010
-5.2914 benak	-0.3010
-5.2914 benami	-0.3010
-5.2914 benard	-0.3010
-5.2914 benbow	-0.3010
-5.2914 benbrook	-0.3010
-5.2914 bence	-0.3010
-5.2914 bench	-0.3010
-5.2914 benchers	-0.3010
-5.2914 benchley	-0.3010
-5.2914 benchmark's	-0.3010
-5.2914 benchmarks	-0.3010
-5.2914 bencomo	-0.3010
-5.2914 bencsik	-0.3010
-5.2914 bend	-0.3010
-5.2914 benda	-0.3010
-5.2914 bendall	-0.3010
-5.2914 bended	-0.3010
-5.2914 bendel	-0.3010
-5.2914 bendele	-0.3010
-5.2914 bender	-0.3010
-5.2914 bender's	-0.3010
-5.2914 benders	-0.3010
-5.2914 bendick	-0.3010
-5.2914 bendickson	-0.3010
-5.2914 bendig	-0.3010
-5.2914 bending	-0.3010
-5.2914 bendix	-0.3010
-5.2914 bendler	-0.3010
-5.2914 bendorf	-0.3010
-5.2914 bends	-0.3010
-5.2914 bendt	-0.3010
-5.2914 bendure	-0.3010
-5.2914 bendy	-0.3010
-5.2914 bene	-0.3010
-5.2914 benedetti	-0.3010
-5.2914 benedetti's	-0.3010
-5.2914 benedetto	-0.3010
-5.2914 benedicta	-0.3010
-5.2914 benefiting	-0.3010
-5.2914 benefitted	-0.3010
-5.2914 beneke	-0.3010
-5.2914 benel	-0.3010
-5.2914 benes	-0.3010
-5.2914 benesh	-0.3010
-5.2914 benet	-0.3010
-5.2914 benetton	-0.3010
-5.2914 benetton's(2)	-0.3010
-5.2914 benevento	-0.3010
-5.2914 benevides	-0.3010
-5.2914 benfer	-0.3010
-5.2914 bengal	-0.3010
-5.2914 bengali	-0.3010
-5.2914 bengals	-0.3010
-5.2914 benge	-0.3010
-5.2914 bengel	-0.3010
-5.2914 bengt	-0.3010
-5.2914 benguet	-0.3010
-5.2914 benham	-0.3010
-5.2914 beni	-0.3010
-5.2914 benighting	-0.3010
-5.2914 benign	-0.3010
-5.2914 benigno(2)	-0.3010
-5.2914 benin	-0.3010
-5.2914 bening	-0.3010
-5.2914 benish	-0.3010
-5.2914 benita	-0.3010
-5.2914 benito	-0.3010
-5.2914 benja	-0.3010
-5.2914 benjy	-0.3010
-5.2914 benke	-0.3010
-5.2914 benker	-0.3010
-5.2914 benkert	-0.3010
-5.2914 benko	-0.3010
-5.2914 benlox	-0.3010
-5.2914 benn	-0.3010
-5.2914 bennardo	-0.3010
-5.2914 benne	-0.3010
-5.2914 benner	-0.3010
-5.2914 bennet	-0.3010
-5.2914 bennett(2)	-0.3010
-5.2914 bennette	-0.3010
-5.2914 bennetts	-0.3010
-5.2914 benney	-0.3010
-5.2914 bennie	-0.3010
-5.2914 bennigan	-0.3010
-5.2914 bennigan's	-0.3010
-5.2914 benninger	-0.3010
-5.2914 bennington	-0.3010
-5.2914 bennis	-0.3010
-5.2914 bennison	-0.3010
-5.2914 benno	-0.3010
-5.2914 benny	-0.3010
-5.2914 beno	-0.3010
-5.2914 benoist	-0.3010
-5.2914 benoit	-0.3010
-5.2914 benoni	-0.3010
-5.2914 benotti	-0.3010
-5.2914 benoy	-0.3010
-5.2914 bens	-0.3010
-5.2914 bensch	-0.3010
-5.2914 bensel	-0.3010
-5.2914 bensen	-0.3010
-5.2914 bensenyore(2)	-0.3010
-5.2914 bensing	-0.3010
-5.2914 benskin	-0.3010
-5.2914 bensley	-0.3010
-5.2914 bensman	-0.3010
-5.2914 benson	-0.3010
-5.2914 bensonhurst	-0.3010
-5.2914 bent	-0.3010
-5.2914 bente	-0.3010
-5.2914 benten	-0.3010
-5.2914 benter	-0.3010
-5.2914 bently	-0.3010
-5.2914 bento	-0.3010
-5.2914 benton	-0.3010
-5.2914 bentonite	-0.3010
-5.2914 bentonville	-0.3010
-5.2914 bentsen's	-0.3010
-5.2914 bentz	-0.3010
-5.2914 benvenuti	-0.3010
-5.2914 benvenuto	-0.3010
-5.2914 benware	-0.3010
-5.2914 benway	-0.3010
-5.2914 benyo	-0.3010
-5.2914 benz	-0.3010
-5.2914 benz's	-0.3010
-5.2914 benzel	-0.3010
-5.2914 benzene	-0.3010
-5.2914 benzes	-0.3010
-5.2914 benzie	-0.3010
-5.2914 benzine	-0.3010
-5.2914 benzing	-0.3010
-5.2914 benzinger	-0.3010
-5.2914 beowulf	-0.3010
-5.2914 bequest	-0.3010
-5.2914 bera	-0.3010
-5.2914 beran	-0.3010
-5.2914 berard	-0.3010
-5.2914 berardino	-0.3010
-5.2914 berate	-0.3010
-5.2914 berber	-0.3010
-5.2914 bercaw	-0.3010
-5.2914 berch	-0.3010
-5.2914 bercier	-0.3010
-5.2914 bercor	-0.3010
-5.2914 berdan	-0.3010
-5.2914 bere	-0.3010
-5.2914 berea	-0.3010
-5.2914 bereaved	-0.3010
-5.2914 bereft	-0.3010
-5.2914 berend	-0.3010
-5.2914 berens	-0.3010
-5.2914 berent	-0.3010
-5.2914 beres	-0.3010
-5.2914 beresford	-0.3010
-5.2914 beret	-0.3010
-5.2914 berets	-0.3010
-5.2914 berets(2)	-0.3010
-5.2914 berg	-0.3010
-5.2914 berg's	-0.3010
-5.2914 bergamo	-0.3010
-5.2914 bergan	-0.3010
-5.2914 bergdahl	-0.3010
-5.2914 berge	-0.3010
-5.2914 bergen	-0.3010
-5.2914 bergenfield	-0.3010
-5.2914 bergenthal	-0.3010
-5.2914 berger	-0.3010
-5.2914 bergerman	-0.3010
-5.2914 bergerson	-0.3010
-5.2914 berges	-0.3010
-5.2914 berget	-0.3010
-5.2914 bergey	-0.3010
-5.2914 berggren	-0.3010
-5.2914 bergh	-0.3010
-5.2914 berghof	-0.3010
-5.2914 bergin	-0.3010
-5.2914 bergman	-0.3010
-5.2914 bergner	-0.3010
-5.2914 bergquist	-0.3010
-5.2914 bergren	-0.3010
-5.2914 bergs	-0.3010
-5.2914 bergschneider	-0.3010
-5.2914 bergsma	-0.3010
-5.2914 bergsten	-0.3010
-5.2914 bergstresser	-0.3010
-5.2914 bergthold	-0.3010
-5.2914 bergum	-0.3010
-5.2914 berhow	-0.3010
-5.2914 beria	-0.3010
-5.2914 bering	-0.3010
-5.2914 berisford	-0.3010
-5.2914 berish	-0.3010
-5.2914 berk	-0.3010
-5.2914 berka	-0.3010
-5.2914 berke	-0.3010
-5.2914 berkel	-0.3010
-5.2914 berken	-0.3010
-5.2914 berkery	-0.3010
-5.2914 berkes	-0.3010
-5.2914 berkey	-0.3010
-5.2914 berklee	-0.3010
-5.2914 berkley	-0.3010
-5.2914 berkman	-0.3010
-5.2914 berko	-0.3010
-5.2914 berkoff	-0.3010
-5.2914 berkowitz	-0.3010
-5.2914 berkshire	-0.3010
-5.2914 berkshires(2)	-0.3010
-5.2914 berkson	-0.3010
-5.2914 berkstresser	-0.3010
-5.2914 berle	-0.3010
-5.2914 berles	-0.3010
-5.2914 berlet	-0.3010
-5.2914 berlex	-0.3010
-5.2914 berlin	-0.3010
-5.2914 berliner's(2)	-0.3010
-5.2914 berliner(2)	-0.3010
-5.2914 berlottes	-0.3010
-5.2914 berls	-0.3010
-5.2914 berlusconi's	-0.3010
-5.2914 berm	-0.3010
-5.2914 berman	-0.3010
-5.2914 berman's	-0.3010
-5.2914 bermea	-0.3010
-5.2914 bermel	-0.3010
-5.2914 berms	-0.3010
-5.2914 bern	-0.3010
-5.2914 berna	-0.3010
-5.2914 bernadette	-0.3010
-5.2914 bernal	-0.3010
-5.2914 bernard's	-0.3010
-5.2914 bernardin	-0.3010
-5.2914 bernas	-0.3010
-5.2914 bernat	-0.3010
-5.2914 bernay	-0.3010
-5.2914 bernbach	-0.3010
-5.2914 bernd	-0.3010
-5.2914 berndt	-0.3010
-5.2914 berne	-0.3010
-5.2914 berner	-0.3010
-5.2914 bernet	-0.3010
-5.2914 berney	-0.3010
-5.2914 bernhagen	-0.3010
-5.2914 bernhardt	-0.3010
-5.2914 bernheimer	-0.3010
-5.2914 berni	-0.3010
-5.2914 bernia	-0.3010
-5.2914 bernie	-0.3010
-5.2914 bernie's	-0.3010
-5.2914 berninger	-0.3010
-5.2914 berns	-0.3010
-5.2914 bernsen	-0.3010
-5.2914 bernson	-0.3010
-5.2914 bernstein's(2)	-0.3010
-5.2914 bernstein(2)	-0.3010
-5.2914 bernt	-0.3010
-5.2914 berny	-0.3010
-5.2914 bero	-0.3010
-5.2914 beron	-0.3010
-5.2914 berra	-0.3010
-5.2914 berrard	-0.3010
-5.2914 berres	-0.3010
-5.2914 berreth	-0.3010
-5.2914 berrett	-0.3010
-5.2914 berrey	-0.3010
-5.2914 berri	-0.3010
-5.2914 berrian	-0.3010
-5.2914 berridge	-0.3010
-5.2914 berrie	-0.3010
-5.2914 berrien	-0.3010
-5.2914 berrier	-0.3010
-5.2914 berries	-0.3010
-5.2914 berrigan	-0.3010
-5.2914 berrill	-0.3010
-5.2914 berringer	-0.3010
-5.2914 berrios	-0.3010
-5.2914 berris	-0.3010
-5.2914 berrong	-0.3010
-5.2914 berry	-0.3010
-5.2914 berry's	-0.3010
-5.2914 berryhill	-0.3010
-5.2914 berrylike	-0.3010
-5.2914 bersch	-0.3010
-5.2914 berserk	-0.3010
-5.2914 bershad	-0.3010
-5.2914 berson	-0.3010
-5.2914 berst	-0.3010
-5.2914 bert	-0.3010
-5.2914 berta	-0.3010
-5.2914 bertch	-0.3010
-5.2914 berte	-0.3010
-5.2914 bertelsen	-0.3010
-5.2914 bertelsmann's	-0.3010
-5.2914 bertelson	-0.3010
-5.2914 berth	-0.3010
-5.2914 bertha	-0.3010
-5.2914 berths	-0.3010
-5.2914 berti	-0.3010
-5.2914 bertie	-0.3010
-5.2914 bertil	-0.3010
-5.2914 bertin	-0.3010
-5.2914 bertinotti	-0.3010
-5.2914 bertke	-0.3010
-5.2914 bertoldi	-0.3010
-5.2914 bertolotti	-0.3010
-5.2914 berton	-0.3010
-5.2914 bertrade	-0.3010
-5.2914 bertrand	-0.3010
-5.2914 bertsche	-0.3010
-5.2914 berty	-0.3010
-5.2914 bertz	-0.3010
-5.2914 berube	-0.3010
-5.2914 berudi	-0.3010
-5.2914 berwyn	-0.3010
-5.2914 beryl	-0.3010
-5.2914 beryllium	-0.3010
-5.2914 berzin	-0.3010
-5.2914 berzins	-0.3010
-5.2914 besaw	-0.3010
-5.2914 besch	-0.3010
-5.2914 beschloss	-0.3010
-5.2914 beschloss's	-0.3010
-5.2914 besecker	-0.3010
-5.2914 beseeching	-0.3010
-5.2914 beset	-0.3010
-5.2914 beshara	-0.3010
-5.2914 besharov	-0.3010
-5.2914 beshears	-0.3010
-5.2914 beshore	-0.3010
-5.2914 beside(2)	-0.3010
-5.2914 beske	-0.3010
-5.2914 bespeak	-0.3010
-5.2914 bespeaks	-0.3010
-5.2914 bespectacled	-0.3010
-5.2914 bess	-0.3010
-5.2914 besse	-0.3010
-5.2914 bessent	-0.3010
-5.2914 bessert	-0.3010
-5.2914 bessinger	-0.3010
-5.2914 bessire	-0.3010
-5.2914 bessler	-0.3010
-5.2914 besso	-0.3010
-5.2914 bessy	-0.3010
-5.2914 best	-0.3010
-5.2914 beste	-0.3010
-5.2914 bestowed	-0.3010
-5.2914 bestseller	-0.3010
-5.2914 bestseller(2)	-0.3010
-5.2914 bestsellers	-0.3010
-5.2914 bestsellers(2)	-0.3010
-5.2914 bestselling	-0.3010
-5.2914 bestwick	-0.3010
-5.2914 beswick	-0.3010
-5.2914 bet's	-0.3010
-5.2914 beta	-0.3010
-5.2914 betabia	-0.3010
-5.2914 betamax	-0.3010
-5.2914 betar	-0.3010
-5.2914 betas	-0.3010
-5.2914 betavon	-0.3010
-5.2914 betel	-0.3010
-5.2914 beth	-0.3010
-5.2914 bethune	-0.3010
-5.2914 betke	-0.3010
-5.2914 bets	-0.3010
-5.2914 betschart	-0.3010
-5.2914 betsy	-0.3010
-5.2914 bett	-0.3010
-5.2914 betta	-0.3010
-5.2914 bette	-0.3010
-5.2914 bettencourt	-0.3010
-5.2914 bettered	-0.3010
-5.2914 bettering	-0.3010
-5.2914 betters	-0.3010
-5.2914 betterton	-0.3010
-5.2914 betti	-0.3010
-5.2914 bettina	-0.3010
-5.2914 betting	-0.3010
-5.2914 bettinger	-0.3010
-5.2914 bettini	-0.3010
-5.2914 bettino	-0.3010
-5.2914 bettman	-0.3010
-5.2914 bettner	-0.3010
-5.2914 bettors	-0.3010
-5.2914 betts	-0.3010
-5.2914 betty	-0.3010
-5.2914 betty's	-0.3010
-5.2914 between(2)	-0.3010
-5.2914 betz	-0.3010
-5.2914 beucler(2)	-0.3010
-5.2914 beula	-0.3010
-5.2914 beumer	-0.3010
-5.2914 beury	-0.3010
-5.2914 beutel	-0.3010
-5.2914 beuys	-0.3010
-5.2914 bevan	-0.3010
-5.2914 bevans	-0.3010
-5.2914 bevard	-0.3010
-5.2914 bevel	-0.3010
-5.2914 beven	-0.3010
-5.2914 bevens	-0.3010
-5.2914 bever	-0.3010
-5.2914 beverage(2)	-0.3010
-5.2914 beverages	-0.3010
-5.2914 beverly's	-0.3010
-5.2914 bevers	-0.3010
-5.2914 bevier	-0.3010
-5.2914 bevil	-0.3010
-5.2914 bevill	-0.3010
-5.2914 bevin	-0.3010
-5.2914 bevins	-0.3010
-5.2914 bevis	-0.3010
-5.2914 bevy	-0.3010
-5.2914 bewilderment	-0.3010
-5.2914 beyer	-0.3010
-5.2914 beyerle	-0.3010
-5.2914 beyers	-0.3010
-5.2914 beyersdorf	-0.3010
-5.2914 beyl	-0.3010
-5.2914 beymer	-0.3010
-5.2914 beynon	-0.3010
-5.2914 beyond	-0.3010
-5.2914 beytout	-0.3010
-5.2914 bezanson	-0.3010
-5.2914 bezdek	-0.3010
-5.2914 bezek	-0.3010
-5.2914 bhagwan	-0.3010
-5.2914 bhakta	-0.3010
-5.2914 bharat	-0.3010
-5.2914 bharata	-0.3010
-5.2914 bharath	-0.3010
-5.2914 bhatia	-0.3010
-5.2914 bhattacharjy	-0.3010
-5.2914 bhatti	-0.3010
-5.2914 bhirud	-0.3010
-5.2914 bi	-0.3010
-5.2914 bi-daily	-0.3010
-5.2914 bi-polar	-0.3010
-5.2914 bi-weekly	-0.3010
-5.2914 biagi	-0.3010
-5.2914 biagioni	-0.3010
-5.2914 bialkin	-0.3010
-5.2914 bialkowski	-0.3010
-5.2914 bialy	-0.3010
-5.2914 biamby's	-0.3010
-5.2914 biana	-0.3010
-5.2914 bianconi	-0.3010
-5.2914 bianculli	-0.3010
-5.2914 bias	-0.3010
-5.2914 biasi	-0.3010
-5.2914 biaz	-0.3010
-5.2914 biba	-0.3010
-5.2914 bibb	-0.3010
-5.2914 bibbee	-0.3010
-5.2914 bibbo	-0.3010
-5.2914 bibbs	-0.3010
-5.2914 bibby	-0.3010
-5.2914 bibeau	-0.3010
-5.2914 bibeault	-0.3010
-5.2914 bibee	-0.3010
-5.2914 biber	-0.3010
-5.2914 bibi	-0.3010
-5.2914 bibi's	-0.3010
-5.2914 bibi's(2)	-0.3010
-5.2914 bible	-0.3010
-5.2914 bibler	-0.3010
-5.2914 bibles	-0.3010
-5.2914 bibliographies	-0.3010
-5.2914 bibs	-0.3010
-5.2914 biby	-0.3010
-5.2914 bice	-0.3010
-5.2914 bicentennial	-0.3010
-5.2914 bicep	-0.3010
-5.2914 bichler(2)	-0.3010
-5.2914 bick	-0.3010
-5.2914 bickering	-0.3010
-5.2914 bickerton	-0.3010
-5.2914 bicknell	-0.3010
-5.2914 bicuspid	-0.3010
-5.2914 bicycle	-0.3010
-5.2914 bicycled	-0.3010
-5.2914 bicycles	-0.3010
-5.2914 bicycling(2)	-0.3010
-5.2914 bid's	-0.3010
-5.2914 bidco	-0.3010
-5.2914 biddison	-0.3010
-5.2914 biddy	-0.3010
-5.2914 bide	-0.3010
-5.2914 biden	-0.3010
-5.2914 biderman	-0.3010
-5.2914 bidgood	-0.3010
-5.2914 bidinger	-0.3010
-5.2914 bidlo	-0.3010
-5.2914 bids	-0.3010
-5.2914 bieda	-0.3010
-5.2914 biegler	-0.3010
-5.2914 biehl	-0.3010
-5.2914 biehler	-0.3010
-5.2914 biehn	-0.3010
-5.2914 biel	-0.3010
-5.2914 biela	-0.3010
-5.2914 bielecki(2)	-0.3010
-5.2914 bielefeld	-0.3010
-5.2914 bielefeldt	-0.3010
-5.2914 bien	-0.3010
-5.2914 bier	-0.3010
-5.2914 bierbarror	-0.3010
-5.2914 bierbauer	-0.3010
-5.2914 bieri	-0.3010
-5.2914 biers	-0.3010
-5.2914 biery	-0.3010
-5.2914 bies	-0.3010
-5.2914 bietz	-0.3010
-5.2914 biev	-0.3010
-5.2914 bifano	-0.3010
-5.2914 biff	-0.3010
-5.2914 biffle	-0.3010
-5.2914 bifida	-0.3010
-5.2914 bifurcated	-0.3010
-5.2914 bifurcated(2)	-0.3010
-5.2914 bigan	-0.3010
-5.2914 bigby	-0.3010
-5.2914 bigelow	-0.3010
-5.2914 bigeyes	-0.3010
-5.2914 biggs	-0.3010
-5.2914 bight	-0.3010
-5.2914 bigos	-0.3010
-5.2914 bigot	-0.3010
-5.2914 bigs	-0.3010
-5.2914 bihac	-0.3010
-5.2914 bihl	-0.3010
-5.2914 bihm	-0.3010
-5.2914 bihn	-0.3010
-5.2914 bijac	-0.3010
-5.2914 bijac(2)	-0.3010
-5.2914 bijan	-0.3010
-5.2914 bijur	-0.3010
-5.2914 bike	-0.3010
-5.2914 biked	-0.3010
-5.2914 biker	-0.3010
-5.2914 bikes	-0.3010
-5.2914 bikin	-0.3010
-5.2914 bikinis	-0.3010
-5.2914 biko	-0.3010
-5.2914 bila	-0.3010
